			0.24868664,0.1739239,-0.02312496,-0.01607174,0.035090752,0.06362006,-0.12703961,-0.24377283,0.025391486,2.468177,-3.7589827,-0.0012872932,2.6161084,-3.1945388,0.20985645,1.0227716,-0.42776868,
			-1.2444235,0.104762055,0.16905148,4.76878,-3.7284253,-0.013658669,3.6881902,1.0160875,0.59567034,-2.9114492,6.6113496,-2.7836325,5.6865797,-1.8296975,1.4219604,-3.3780353,1.852236,
			-0.075244375,-0.00851675,0.03798584,-0.20853564,0.14884159,0.06608842,-0.106145956,0.080290735,-0.05373144,-0.4890092,0.25800872,0.57116973,3.854307,1.5830003,-0.050965004,-3.6724455,-1.9392685,
			0.025534114,-0.03776047,0.0071308296,0.010380127,-0.07052388,-0.01769199,-0.107725814,0.0025448431,0.050864335,0.662173,1.2425858,0.118253,4.018332,-0.34921712,0.01920075,0.54641485,-4.2178164,
			0.15378411,0.13309716,0.07798408,-0.18113819,0.06989394,0.06048667,0.07492769,-0.20459421,-0.5466178,1.1230137,4.6919546,0.79341966,-3.5629957,1.7402247,-0.002344653,-0.9497201,0.6692999,
			-0.040058646,0.01223464,0.009634062,-0.104167886,0.016826183,0.002454816,-0.15912674,0.051099684,0.5761473,5.4313426,1.6866968,-1.5619855,-3.2250886,-0.5954921,-0.0059006475,0.37081185,0.32406634,
			0.3488142,-0.15918024,-0.23254901,2.1996305,-0.30384246,-0.87137455,-0.0107686715,0.20466216,-0.7212818,-3.8894181,2.03119,-0.7288096,2.2659538,2.6185493,1.0457422,-2.6696634,-0.7380781,
			-0.12894416,-0.017033294,0.09032379,-0.21593295,0.014142919,-0.034387972,-0.13957508,0.095287934,0.08422595,-6.6573744,1.6136559,0.72263205,1.4593853,-0.37427333,-0.25675783,1.643627,0.14323165,
			0.22952086,0.0149149345,0.015872715,0.6726202,-0.733524,0.10647263,0.32296675,-0.1257952,-0.55917746,3.7293177,-4.162651,4.2727156,-4.9040027,2.0119262,-0.9610353,2.9541457,-1.557005,
			-1.305732,0.17094113,-0.13301584,-3.426604,2.544279,0.26574162,-7.421891e-05,0.7906625,0.2990674,3.158512,0.18531416,0.8293963,-4.7300916,-0.41160455,0.7797581,-1.1690608,-0.19366635,
			0.4148171,0.02505951,-0.27312994,0.43751943,0.28379977,0.0059692445,-0.0528532,-0.00028077152,-0.27945724,2.1364398,3.3815815,-3.1372466,-1.7322375,2.423097,-1.9421197,-0.17750263,1.3608387,
			0.059400745,0.057480697,-0.11831114,-0.25693977,0.22480862,0.04376488,-0.10185175,0.027514387,0.97552663,1.242649,-7.164211,-1.2564929,2.01663,-1.9278512,-1.5469997,1.3913201,0.82746303,
			-1.1486789,0.12720224,-0.45949024,0.14993224,-1.8036773,0.054666087,-0.85996777,0.14795041,0.48143396,6.3845596,1.823291,-1.806433,3.5505054,-0.38030735,0.25152215,-2.021768,-0.4936,
			0.5203461,0.0075803366,-0.00838257,0.08170305,0.43903473,0.005983884,-0.6311112,0.2044732,-0.48494908,1.6996876,-1.1325071,4.1463575,0.50140613,-3.278625,-0.60059106,1.7626573,0.7656462,
			1.0973394,0.03328319,-0.5798705,1.3683404,-3.7102451,-0.43559963,-2.533713,-1.0504074,0.0732185,0.5079344,-0.34570822,0.10020521,-9.1915,0.31001803,-0.1615004,0.94337076,0.22836144,
			0.3847397,0.031213282,0.11649572,0.14209092,0.2935429,-0.019734269,-0.28888068,-0.3022227,1.1389177,-1.4048686,-4.882312,4.861503,-1.9212385,-1.9503384,0.80148244,0.6347384,-0.20970714,
			0.24511838,-0.0057578012,-0.19274454,-0.14449586,0.17707784,0.2650395,0.078359485,0.00040287484,-1.0809695,-0.32927147,4.128358,-2.9020617,-2.1968591,1.098848,2.1724284,1.5603625,-1.5494976,
			-0.084435076,-0.056105554,-0.08041898,-0.13539551,-0.2649652,0.12760025,-0.08092699,0.086238444,0.67098784,-1.0365466,10.69239,1.436866,0.7024349,-2.3025475,-1.3169973,-0.26329842,0.68163776,
			-0.7987095,-0.04731309,0.077827856,-3.1110427,3.165771,0.05369162,-2.0687096,1.14676,0.3738089,-0.84332687,0.85408586,-2.712269,-5.2261353,1.3132069,0.05128548,1.4076651,-0.358806,
			0.008739289,0.0028719553,-0.0040688803,-0.011432366,-0.018958788,0.0075945603,-0.014224695,-0.011303859,-0.15463424,1.0762845,-0.8637335,0.7738012,3.7108393,-3.1714947,-0.2184905,1.0323784,-0.5678492,
			-0.07964524,0.022848304,0.041834347,-0.4209242,0.55913377,-0.22699724,-0.0044426396,-0.018964346,-0.13342594,3.622644,1.8306911,-1.4986497,2.7072024,1.0291433,-4.2188177,0.092454895,0.25533125,
			0.4796055,-0.009435505,-0.045556508,-0.09175246,0.31697172,0.20879765,0.4192317,-0.18961333,0.76725376,4.2037797,-1.9694365,-3.1041307,0.8445491,1.674056,0.52511156,-3.2615833,-1.5104742,
			-1.5349333,-0.22788142,0.25050288,-2.0871172,2.776701,-0.13395898,3.8211503,0.26062772,-0.5527135,0.17470323,-3.2273135,-1.7242965,4.0439024,-0.40846917,-1.0328736,1.9572111,-0.9012433,
			0.13481177,0.29145503,-0.037900172,0.4425674,-0.17231,-0.17396744,-0.26005197,-0.14000435,-0.04719238,2.5082815,7.0276604,2.2413812,0.9390803,-1.0505718,0.15105198,0.91661614,-4.210756,
			-0.19872332,-0.030971466,0.050790697,0.0013097383,-0.26575586,0.059660196,-0.10297355,0.20050243,0.79987365,1.464877,-10.782684,-1.9814278,-1.3819052,1.5831069,-0.22093157,1.168211,0.2186791,
			-0.14787184,-0.10685659,0.16200463,0.04858464,0.20346528,-0.13875075,-0.10461739,0.19413552,-0.89009297,1.668046,6.338838,1.3951966,2.0421689,-2.119901,0.70063937,-2.9735475,1.0489115,
			-0.00021354642,0.005532115,-0.0012459892,-0.044168886,-0.016834797,0.02524596,-0.07142778,0.010168048,-0.00671429,-6.0647006,-1.0162504,0.35806882,2.0246825,0.27582622,-0.090855174,0.956589,-0.1242826,
			0.072868735,0.13759558,-0.22490862,-0.23635766,0.3163761,0.09850185,0.027656546,-0.10323682,-0.30230004,-3.6439197,-4.1181064,1.7556157,2.9873066,0.17091095,-0.18182097,-1.4811399,0.6716436,
			-0.006054414,0.024803534,0.0026656566,-0.099715605,0.090944074,0.046601728,-0.042327773,0.021311482,-3.4810336,1.8161447,0.3549671,-0.709909,2.811191,0.45888045,-0.0009865754,1.5624251,-0.12869059,
			0.09077719,0.028475428,-0.33796114,-3.1777694,-0.24327302,-0.0097491965,-5.040149,0.20267847,-3.0122025,-1.5771768,2.4373822,2.05578,1.7513525,-0.3574243,0.7311107,-2.1052418,-1.6675392,
			0.0002292553,0.0063630603,-0.00970753,-0.01024396,0.026450047,0.0029855473,0.010792188,-0.0026700925,0.32852802,-1.2887478,0.69755834,4.962457,-2.8477533,0.004479503,0.23260833,-0.40516835,0.095253296,
			-0.42601848,-0.026719147,0.04322042,-0.25675985,0.1880203,0.015738655,0.269229,0.13740928,-0.6548645,-2.6796446,4.3635116,2.422071,-1.0597632,-2.2524953,-0.19187824,3.031395,1.7570481,
			0.11831797,0.058504988,-0.0033214428,-0.1405235,0.040110312,0.04969114,-0.25237405,-0.03780464,-0.5370178,1.5381856,0.5973918,-6.163205,1.4544225,0.67613155,-0.14514427,0.43595356,0.34648076,
			-0.02075944,0.03065212,0.07178987,0.0018776867,-0.090921186,-0.038824618,0.06641199,-0.0992777,0.14364345,1.5929959,-4.555192,-5.4783053,-0.6324484,2.3682268,0.9742934,-0.1934935,-0.7010219,
			0.33138624,-0.011547896,0.07569218,-0.50669515,0.0037838344,0.16618241,-0.85488385,0.13730311,0.5474855,3.3828783,0.21129206,-4.715493,-7.2825913,1.3307756,-0.7477602,-2.2322328,0.37206355,
			0.07465042,0.036883872,-0.003215644,0.040978447,0.0017267364,0.03491023,-0.014209572,-0.07475099,0.056265574,0.6203886,0.63626677,1.1204779,-3.5607836,1.061993,-0.4931572,2.761236,-1.0585034,
			-0.18397164,-0.049320087,0.007895294,-0.2637447,0.4836812,-0.07305913,0.0354088,0.2667999,0.36716047,-0.5918479,0.6166346,-0.87214446,-8.35813,-0.5842351,0.08687262,0.1617607,0.46792063,
			0.022228157,0.016557278,0.11395168,-0.03414193,-0.12592615,0.12862732,-0.107306115,-0.12634152,1.322965,-0.46097884,-4.4057956,2.3676457,3.5846007,0.8713405,-2.3090696,-3.428556,0.05642503,
			0.026526157,0.011593776,-0.027856782,0.035489798,0.09051202,0.0006438012,0.081694506,-0.002408527,1.0161474,-4.3860283,3.769695,-3.804924,2.32227,-0.41871145,0.27484944,-0.2932043,-0.03132246,
			-0.00028964604,-0.012255609,-0.0011325636,-0.0005089304,0.014784365,-0.0013641141,0.0029471254,0.0041824626,0.16331105,-0.62932605,0.5364803,-0.99854875,-3.9159036,-0.20489182,0.2090879,3.9645882,0.15019368;
