			-0.26375824,-0.063148454,-0.82877743,-0.23744038,0.49438184,0.09990009,-0.35696974,0.35272402,-0.9696081,0.34518543,-0.10089005,0.13359693,0.48313355,0.096212424,-0.05072316,0.40344903,0.20457321,-0.45499364,0.11725294,0.32969117,0.03709466,-0.26622242,-0.4558662,0.19420318,-0.41055903,-1.283544,-0.70228595,-1.4699788,-0.07243285,-0.0044197203,0.020682376,-0.8100696,-0.18187417,-0.100800715,0.10770133,-1.3017347,0.12920772,-0.65679437,2.9818623,-9.109659,
			0.62523395,-0.12935084,-0.32430214,-2.0968285,0.044648476,0.35922563,1.380345,1.1975816,0.6299349,0.25351825,-2.9162145,0.7476397,0.42748415,-0.17737135,-1.1542683,-0.05868569,-0.6263968,0.7784959,0.346898,8.309729,-1.8319281,1.8936872,-2.0632675,1.5629302,-1.9486346,-0.95138264,-1.1764107,-2.172104,-1.2632594,1.9836924,0.51855624,0.39023468,-4.5271244,-2.5071347,-1.599561,-0.4008138,-0.8392292,-0.77581465,-3.0490763,0.36627582,
			1.360253,-0.1709182,2.1884315,-2.717107,0.13700132,-0.70946586,0.3979722,-0.22695531,1.5217323,-0.6733661,0.06245555,-0.14928867,1.9761665,-0.052744165,-0.1979553,-0.39371252,0.022126243,1.0723873,0.1739511,-0.17515875,0.48277798,0.28321457,0.8692449,-0.15265808,-0.45890194,0.37776807,0.00865182,-0.11008686,-0.5276651,-0.3023086,0.2992348,-3.2022004,0.18929608,0.0011441227,0.12244926,-5.2704997,-0.9290389,0.4611776,4.7589855,2.188222,
			-0.92793614,-0.13207568,-4.5057325,1.4544516,-0.62305903,1.396135,-0.6387868,2.1635213,-2.8776238,0.90749216,-0.000558022,0.19664335,-1.5245494,-0.21951587,0.15198489,0.84287053,0.86401033,-1.6256969,0.547478,1.1806337,0.011306828,-2.2070713,-0.8629845,0.54455435,0.6599622,-3.2641685,0.27596006,-3.4330566,-0.2774577,-0.18218666,-0.23201592,2.391958,-0.43051007,-0.8189468,-0.07468567,8.921426,0.24906348,-2.346909,-2.5489755,-2.172836,
			-1.2324693,-0.91563874,-3.1491659,-1.3363335,0.67101616,0.7801026,1.2072669,-0.44827405,-0.8077192,-2.2630434,1.5610125,1.6847732,-0.5701787,-1.2842247,1.2186102,-5.244018,0.22989929,0.64339507,3.7802548,0.47916505,-1.3954848,0.4251093,-0.35797423,-1.3847607,-0.13658008,-0.96529317,-1.8422902,-3.7523575,0.31782478,-0.9214061,-0.8535434,0.15867622,1.2632911,2.2213988,-1.9098864,-0.2641933,-2.091395,0.049190275,-1.1744106,0.43824324,
			-0.77235544,-0.5194319,-1.4066446,2.0579822,-0.65412325,-2.7101367,-2.4981387,0.0636617,-0.28750232,-0.11375449,3.9125357,1.641784,-0.3122491,0.20493844,-0.16501272,-1.0465249,-5.131393,1.3420339,0.019596057,-0.60435224,1.6057652,-1.1467364,-1.1042268,0.6580463,0.13790426,-2.8850667,0.49697447,1.1739982,-1.1376297,-0.25441062,0.5150827,1.0492868,-0.8795602,-3.7953763,0.19702284,3.5777123,0.19123416,1.3148941,-2.91141,-2.9170647,
			0.70479566,-0.7990201,-1.8648597,0.51127654,1.0876855,0.2088055,-1.2341307,-7.843498,-0.4977734,2.4002492,0.17572667,0.6477996,1.6584716,2.4820013,1.3979508,-0.10011521,-0.37635753,0.27847058,1.7736658,-2.5381265,-0.090510786,-3.2635307,-0.34053558,-0.7622424,-0.89524746,-0.5853149,-4.895297,-3.905705,-1.135389,-1.716042,0.29423946,-0.62033415,-0.06021906,-0.4252574,-0.60749215,0.79271495,0.9043258,0.0077230893,-0.8260364,1.0677464,
			-0.2841834,0.50964296,2.1551235,-0.061427638,1.6998019,-0.60753393,-1.4016105,-0.36637542,1.4782264,-1.4892356,-0.46998638,0.23927355,0.49818805,1.484961,-2.1982443,0.28708762,-1.1557469,0.5725919,-2.2850792,3.6766484,-0.5285507,0.8253059,-0.5064512,-0.29216632,-1.1362327,1.8286717,-0.011787774,1.2036029,0.7838961,2.0777733,-0.036872614,-0.74430877,-0.049157225,0.9159599,-0.19015968,-4.2762747,0.530687,1.3720005,-0.69837224,1.4309232,
			0.73424274,-0.4030132,-2.2643878,-2.3083441,2.0164168,0.21406259,1.6119635,-1.1197991,0.5703373,0.90438014,0.6592687,-0.18478498,1.2417524,2.9492714,-0.58661926,0.20459862,-2.841401,0.44287562,-0.95479393,-3.8005505,1.6948401,0.20652817,-1.4244102,-3.7901697,-1.555705,-1.4619536,-3.7953846,1.1963079,-1.4369391,1.0343705,-0.55938596,0.6407047,-1.0915943,-2.3429437,-1.1795313,-3.229721,-0.69309235,3.3779337,-6.918411,0.3150484,
			-0.34745073,-1.0288112,0.11523846,3.596046,2.4852145,0.7888102,-1.7272538,1.2239183,-1.1902027,2.07034,-0.16653846,-0.18526508,-1.4181464,-1.4983933,1.5854895,0.79126984,-2.9363477,2.3116157,-0.3304136,-2.0702288,-0.22205548,-1.5684052,-1.6117308,-1.7896943,0.09248381,2.2532024,-2.4276977,-5.2637463,-2.944623,-0.2265288,-0.10222868,-3.4889898,-1.3272573,1.3406459,-0.4880696,1.8444333,-0.39301032,0.32873404,-0.24182652,-1.2887872,
			-0.66841096,0.012917279,-2.7925005,2.1082044,-0.2939404,5.2557087,-0.37060386,-0.70634025,-0.674185,0.7627251,0.45948726,-0.57003546,-0.7317198,-0.48482013,0.20812085,-0.3213663,1.0008903,-1.9742954,-0.23448941,2.4921143,-0.004964221,-0.9806712,-0.78963846,0.15139984,-0.13933986,-0.3650286,-1.3838843,-2.442146,-0.15467268,1.1531457,0.106454395,1.2663095,0.050072107,0.12304247,-0.48367965,2.567169,0.8715722,-0.79580706,-2.4564743,-2.1895962,
			0.23941055,-0.5095926,2.787706,-1.2335416,1.5522091,-6.8680973,-0.86650616,0.1131067,-0.31939417,1.0375682,0.70922047,-2.423829,0.23734134,0.096273825,0.22401029,0.027407391,0.51455784,-1.980271,-1.4418312,0.42173317,-0.7876983,-2.1974247,-0.1894061,-0.8927308,-3.176661,3.5558088,-1.5028194,-0.39107957,1.1371088,1.9665596,-0.4675529,0.54050714,-1.0972803,0.64270914,-1.4666392,1.982334,0.7122549,-5.160558,-7.0813437,-0.50431484,
			-6.213258,-0.27392423,2.0095403,1.5484248,-0.13712458,-0.33343765,2.2058914,-1.2562068,0.110163316,-0.86662334,-0.1975021,-1.648151,-0.11359257,-1.1464685,-3.5892634,1.2646872,-0.69243157,0.8109724,-2.5551605,5.930876,3.4582283,-0.75999117,-2.881686,-0.37313232,0.4206871,0.5324897,-1.5047905,-2.1148303,-1.8178585,1.4204186,-0.45570844,1.0043718,-0.7670511,-1.6703657,0.39009055,1.6956083,-4.7914553,0.87110597,2.6087017,-0.3425602,
			0.86007494,-0.3645521,3.8846483,-2.4898348,-0.6619248,-0.6014987,0.4515232,-1.1115351,0.1937579,0.86375535,-4.266969,-1.6140205,2.4314048,-0.36774316,-0.343895,0.8579659,0.4009266,-0.72898626,-0.0016512752,-2.1437018,-1.8034228,2.933554,-1.3828146,2.74097,-1.4050857,-1.0665519,-2.2093856,-3.9603214,0.33720234,0.57722574,0.03714458,-1.8110116,0.72617376,5.2444634,-2.97544,-1.1154484,-0.74539137,-1.0381858,-4.284427,0.5961746,
			-1.5992405,-1.1060187,1.6200432,1.3423414,0.41833144,-2.0096617,1.0557666,-2.581496,0.06400843,0.6596554,-0.15498017,0.33033887,1.3683921,0.99054617,1.4402105,-0.7964926,0.4521373,0.76460487,1.6960865,0.25757626,-1.0327235,0.3859358,-1.4520664,-2.073638,-2.5578628,-0.09174684,-6.093847,-0.12702645,0.8317106,-0.4223241,0.6767119,-0.74304223,0.73372936,2.701006,0.6157292,-5.9217334,0.83205324,3.6656783,-4.734215,-2.2778254,
			-0.7428909,0.10748194,-0.69921446,-0.10252821,0.22780228,1.2027633,-0.08493863,0.85584646,-0.7832752,-0.67169505,1.3398304,0.9056712,-1.3903327,-1.1474477,0.49936938,1.6303358,-2.0091014,-0.19102554,1.4184719,-2.5580156,-0.32636434,1.2057621,-0.8166502,0.65359026,4.6964917,-5.739676,-1.2068267,-0.74383134,0.7355684,-1.0970619,-0.18080437,0.7583441,-1.2006813,-1.2548028,-0.30697224,2.2482467,-0.12680711,0.21653199,-9.079212,-0.6225978,
			-1.3010845,-0.17342262,-0.63390654,0.1558621,-0.47746795,0.6255684,-0.7630351,-0.22639608,-0.6017325,2.1724489,-0.20972994,1.3228651,0.88190925,-0.18733692,1.5306605,-4.529997,0.2681232,-1.5334406,1.6143962,-7.127848,-1.536821,0.641229,-3.1054685,-1.0662533,1.0046979,-2.1027062,-1.3444031,-2.9603772,-0.4261873,-2.354798,-6.3202696,-0.6075244,2.385124,2.0411088,0.27026442,0.1845293,0.25371942,-2.822144,8.155472,0.08781099,
			2.400105,-2.915932,-0.30122617,-0.003406353,-5.6358294,-3.3932447,-0.86501133,0.09823347,-0.13053936,-0.78013897,-1.8586966,2.2585082,-1.014389,1.637265,-0.40629557,1.9195329,-1.4960853,-3.4811766,-0.22643915,0.8966015,-0.29894537,0.199419,1.1197361,-1.1908165,5.496107,-2.808538,1.1752279,4.483477,-0.2735485,-0.012048655,-0.9281992,-0.92656934,-0.09053737,1.175707,-0.32822236,-3.3435419,-0.21678732,0.4603026,-6.59844,-0.39827666,
			0.05828624,-0.05223116,-1.8245043,-0.6084632,1.954209,-0.0978934,1.12029,1.0285212,-0.05965172,-1.6499635,0.885256,-0.6832818,0.41676974,-0.0313055,-3.6906903,-1.7556896,0.12833588,0.6465977,0.6059641,4.4753413,2.377695,2.734196,-1.6046277,-1.2845402,-0.43799004,-2.1813643,-1.3443979,-2.6435974,-1.4647468,4.3104234,-0.26941106,-0.04961269,-1.5076118,1.0494807,-3.2936907,-0.061752137,0.0039878595,1.5184863,1.8981986,0.20237865,
			0.40274194,-4.4974775,-0.04471627,-0.09367589,-0.7357445,0.14960678,-0.027339654,0.028118521,-0.32901815,-0.109327324,0.1857577,0.077076145,-0.041807413,-0.45188117,-0.026933676,-0.53279054,0.23192242,-0.170122,0.057195704,0.26859385,0.088566035,0.13772611,0.18048891,-0.046468638,0.28590813,-0.2140457,-0.0656325,-0.18025517,0.06645446,0.024345841,-10.18181,-0.18783632,1.7385348,1.0573874,-0.02898765,-1.384426,0.070622064,-0.10175731,7.304404,0.0046136244,
			2.477688,-0.21661307,-1.1247407,1.6352627,-2.561407,-1.0718192,-0.21580094,-1.9159533,-0.16253132,1.6101176,-1.6087283,0.80741006,-0.80270034,3.5421999,1.0351657,0.8564439,0.7255248,-2.7369635,0.64967346,-6.193492,-1.7651545,1.1170546,-0.31214407,-1.7363883,4.8584776,-1.9493037,0.40607944,0.132192,-1.4261109,-0.6405254,0.21783043,0.902255,-0.74027103,1.4175296,-0.20160463,-0.7231679,0.7713754,-1.3374882,-3.8853278,-0.57956475,
			1.2757716,-0.7087025,-1.329604,0.67927146,0.7827746,2.2900338,-0.42213157,-2.5070944,-1.0282142,1.3719549,0.18895952,0.71390426,0.591688,0.4344791,0.312626,0.6900018,1.3004642,-0.4457911,1.0232278,-2.680061,-0.61310726,-0.2998865,0.60031873,1.7274574,-0.6253282,-0.76788,-4.928639,-3.63864,-0.4992302,-1.1404514,0.102428965,-0.6997776,-0.81453127,-0.69558597,-0.5758173,1.0613779,1.021481,0.6562959,-2.4553895,-4.3119373,
			-0.7429846,-0.21801545,-4.44906,2.1514115,1.6096733,-0.77393085,2.695448,-0.92279685,-0.035966996,-0.5301241,-1.7326895,-1.0263063,-1.0114046,-1.0226399,0.8183942,-2.899116,2.7210276,1.1484423,1.3805559,-3.898674,-0.97613084,-1.2770375,-1.0363492,-0.38210422,-1.0447186,0.092290886,-0.050713938,-2.5127938,1.6565468,1.6083021,-1.0844766,2.8730736,0.42994162,-1.7523596,-1.3280436,1.9861264,-0.6869037,1.6864879,-2.4670186,-0.89324874,
			0.41934344,-0.93236977,-3.027354,-0.6780558,-0.79906875,-4.2216096,0.008394537,0.4469372,-0.7875924,0.18671988,-1.4600797,0.7684766,-0.57780796,-0.26040435,0.65099174,1.9065014,-3.680596,-3.1940298,1.3020161,0.35447487,0.07151711,-0.09019944,0.35473156,-2.1290932,5.445183,-0.8421677,-0.40281516,3.7265031,-1.2220974,1.4204222,-0.10191079,-0.94053257,-0.8070755,0.20893808,-3.0678313,0.32636774,1.2842873,0.29090923,-2.6762714,-0.32201648,
			-2.4691856,0.20463443,-5.7047777,9.564744,-0.08455086,-0.5840001,-1.7491547,-0.46023118,-0.25276133,0.29662427,-1.1266139,0.036161434,0.31456026,0.22146475,-0.5548247,-0.6460555,-2.159358,-2.074225,0.9247678,1.9649332,-0.80094045,-2.640652,-2.3029425,-2.2329652,-1.60605,-1.3195403,2.57181,-0.88182616,-2.6142037,0.7765496,0.6292337,-0.77541775,0.71059066,1.5149186,0.0014534612,0.9168668,0.5686662,1.1758778,3.2530565,0.775109,
			0.8038819,0.21786378,-3.8417842,-0.523789,0.23581396,1.0801942,-1.3171096,2.0073807,-0.9004938,0.6567985,1.7342353,2.3980777,-1.0693538,1.1387221,-0.16168702,0.20852418,1.7311405,0.1941624,-0.5835294,1.51468,-0.8982971,-0.37295115,2.389556,0.98934,-2.3741608,1.094803,-0.31436458,-3.8716664,-1.5611899,2.0810173,-0.17204961,2.4211316,0.40466377,-1.8025016,-0.8035139,3.9629831,2.8662164,-0.3624424,3.7361188,-1.5751983,
			-2.2898855,-0.3997753,1.297083,-0.99122626,2.8441713,0.754195,1.8384316,-1.744337,0.01858436,1.8649124,-1.6071079,-0.29747382,0.32993487,-2.4330132,1.079957,-0.71691746,0.4610455,-0.7991799,0.7673189,-6.5121403,-2.9786148,1.1507046,-3.4091861,-1.9523124,0.48342878,0.0007324502,-0.72963065,1.5906267,-1.6405482,-0.5438757,0.5403873,-0.50604916,-0.38847992,-3.42355,1.3680202,-1.0745227,-0.54603326,-0.4823799,1.5982841,0.3451918,
			-0.95120066,-0.12073823,-2.5765793,2.8794904,0.18424131,-3.0209951,-0.3258979,7.5815964,-0.42265093,0.074773535,-0.26808295,0.41500518,0.5879357,-0.73052496,1.713743,0.70468813,1.981799,-0.96942043,3.008355,-3.605393,-1.1064113,0.453378,-0.82271206,2.2068372,1.5272326,-0.83845097,4.6142664,2.0534122,-1.0431857,-3.0787506,-0.2807365,0.30519977,0.38832003,-1.2275757,-0.34811983,0.9300958,-0.796492,-0.6518963,2.9869173,-1.5530822,
			0.0914954,-0.044140287,-0.37148517,0.018954793,-0.19552754,-6.1154594,-0.22203851,3.377447,-0.27146727,-0.18880002,0.13596682,-0.08303343,-0.2581225,-0.0020806561,0.0714696,-0.023571448,0.105013356,-0.17409755,-0.1451752,0.35520947,-0.037437487,-1.4005018,-0.09849808,0.02016788,-0.93842953,-0.38882017,9.98143,0.02987886,-0.02525905,0.20277451,-0.031693865,-0.20121337,0.02138837,-0.1264972,-0.03378691,-2.0400996,0.32866108,-0.21817984,6.970484,-0.89986885,
			6.6725326,-0.3323561,-2.9322655,2.742018,-4.1295834,-0.25314632,-1.6610878,0.65679127,-0.5046268,0.6663783,-1.204247,1.3825516,0.73524946,2.4621232,0.6624611,1.6785187,-2.4324439,1.3341876,0.78290915,7.183467,0.03373258,0.5230587,-1.7025187,-0.22687909,-0.14079303,0.082093224,0.46629924,-0.7542903,-0.2178849,-0.9794943,-1.743639,1.3748463,-1.7772913,-1.5895288,-0.7464601,-4.723331,1.0408348,0.7183831,-8.848141,0.09934914,
			-2.6509442,0.48532265,-0.9638988,0.40265158,-0.022649968,0.07245412,-0.012216078,0.150664,-1.0321449,0.54954106,0.1536068,-0.44142565,-0.55841005,-1.0679915,0.35182083,0.16999412,0.43212098,-0.5773185,0.75670606,-8.71617,0.20428745,-0.16938524,-0.21346937,0.3171339,0.5523194,-1.859297,0.21682014,-0.39604872,-0.11557156,-0.045629296,-0.29591173,-0.7068843,-0.38709143,0.23404558,0.09353606,6.927399,0.39723054,-0.2074624,-6.635905,-0.48283163,
			6.640142,-0.4612649,-0.5742243,-2.2732306,-1.014318,0.96647125,-1.9955051,0.57708424,-0.43914637,0.51507527,-5.5055714,-1.0321282,-1.1221277,4.0641346,1.3225341,0.18450646,-0.06467395,0.5440864,0.41895697,-2.202351,-4.2093782,0.28734013,-0.72053206,1.1561946,-0.81320775,0.47534165,-0.041012056,-0.4966009,-2.4055943,1.3957784,0.57845175,0.10333712,-9.793598,-4.089937,-1.7830994,-0.3615326,0.070152976,-0.98439,-2.8789477,0.05705355,
			-0.26424918,-3.4258626,0.068855695,1.1170192,-1.8332922,0.2937487,-1.6243935,1.9027785,-0.36454904,-2.4412298,0.32636285,2.3441741,-1.2304331,1.7078662,0.021825355,-5.582668,-2.6884055,0.54927427,-0.01832961,-0.5197869,3.925341,-0.09072129,-0.45390248,-1.8309027,0.4362864,-2.350205,-1.1956705,-1.2179801,-0.46854398,0.119765386,-4.4062614,-0.04945991,1.561002,-0.8835705,-0.76178217,2.5553458,0.45680487,3.5377495,-0.0027502012,-0.4250968,
			1.1554935,-1.4361594,-2.2416494,3.887828,-0.50122315,-0.9691237,-0.035010017,-0.47602457,0.1413272,1.6454664,1.4315661,-0.031848066,0.116332866,-0.30101636,3.2754567,-1.3359239,-0.40462354,0.8620541,2.630854,-8.171982,0.39436385,-0.67225575,-0.24303499,-0.9963832,-0.69406855,1.3282961,-0.12585342,0.45918304,-0.43606275,-3.3449035,1.0332497,0.7233892,-0.3518557,-0.2731783,-0.094921,-1.5699484,-0.5399421,-0.9581963,3.2726161,0.22816151,
			0.6295234,-0.47110733,0.3898776,0.38800642,-0.23549539,0.24824348,-1.2684017,1.4907025,0.20599963,5.87263,0.5903543,-2.1079886,-5.5273066,0.5049114,5.5335255,0.40985316,-0.0986508,1.0592512,-0.20628278,0.22125283,-0.37574247,0.2708796,-1.0963111,0.93803126,-0.5595801,-0.13287719,0.189009,-1.3099948,0.63763565,-3.4021018,-0.19805388,0.5767108,1.3259193,2.172934,1.492414,-0.84431475,8.5247135,0.119552195,0.011174229,-0.33482933,
			1.869937,-1.0681163,-1.2629452,-0.7020865,-3.0501575,-0.41997957,-1.2852689,0.72505337,-0.31939614,1.2949935,-0.4437009,-4.9580393,0.68773514,1.3267785,0.7131608,-2.1355183,0.91898715,0.48365316,0.6273812,9.0700445,0.0137256235,-1.5759821,-1.4577007,2.7102952,-2.632245,2.0016825,-2.7819722,0.48591763,0.8843146,-0.49166197,-1.5815384,0.535672,0.58140635,-0.19521026,0.72474384,1.1264181,-0.26220408,-0.91871864,-6.4124036,-0.06817851,
			0.10266301,-1.247088,0.213994,-0.025107231,-0.5783306,-4.9584107,0.28362975,0.13268884,-0.038310137,-0.3258365,-0.3064799,-0.45877206,-0.09339663,0.08704946,-0.030226141,-0.5532963,0.16161035,-0.013405041,-0.39613038,0.22917674,-0.026941676,-0.76963735,0.48344737,-0.11370336,-1.9634751,1.4564573,0.5006463,-0.038993042,5.9948773,0.23846915,-2.0394669,-0.1605957,0.381495,-0.35992923,0.015075628,-1.8945571,-0.111932755,-0.516784,-3.7513015,-0.44476843,
			-0.7851801,-2.0554357,0.61004996,-0.0839434,2.6878088,1.0735589,-1.1832564,4.972059,-0.60844076,-0.23962317,-0.34568995,0.29881763,-1.1597716,-0.70454437,1.3696139,1.646337,0.70034945,-0.18172503,3.7375247,-2.5745857,-0.29277086,0.41796222,-2.6621554,0.5998809,-0.35939443,-0.8722686,-1.632482,-5.1144967,-1.2102695,-1.389849,0.2863223,1.0773929,-1.7869229,0.8589675,-1.8335104,-1.2327864,-1.8483464,0.29496092,-3.328721,0.14000998,
			-0.07784481,-0.016787367,0.21978433,0.08723386,-0.1575276,-8.948361,0.3485808,2.7231116,-0.7475648,-0.31506643,0.23044376,0.12291795,-0.10253081,-0.11715402,-0.12602185,0.13119298,-0.4444752,-0.13870932,0.2621951,-0.13822293,-0.0049843243,-0.50065047,0.17303336,0.009525337,-0.31483537,-0.2433749,8.004789,0.65997386,-0.1579682,0.043497223,-0.019367725,0.09416784,0.014535667,-0.512725,-0.09268986,-1.785034,-0.44063124,-0.04328078,5.623061,-3.3204308,
			0.009991521,-0.21262892,-4.374837,3.181168,-0.057018507,-0.19181281,-2.3881576,2.4223726,-1.2968261,-1.515188,-1.0455211,-0.126376,0.91482055,-1.2693944,3.3487444,-1.8285601,-3.1376536,1.0235782,4.0204363,0.37727952,-0.24910484,-3.4370208,-2.0856285,0.34865925,0.6604767,-0.8861386,0.114498205,-0.57609475,-3.3347104,1.9227101,-0.3075038,-1.3985493,0.5816757,-0.7796945,0.66304964,3.3801548,1.2381843,0.34625095,-2.5787687,-0.33471248;
