			-0.1572283,0.59097373,-0.7200948,-0.42898855,-0.039500233,-0.39494988,2.0841775,-1.9055336,1.981908,-1.1572285,1.7055006,-1.0922785,-1.5915091,-0.5657016,0.38170332,-0.42698887,0.56922555,-0.06641862,0.48724592,-0.42731375,-1.385126,-1.6578914,-2.3735793,-2.1302874,-0.979235,-0.40890634,0.048950132,-1.3636204,-1.1657059,0.082756445,-0.609217,0.39315113,0.27719206,-0.74863017,-1.1303496,-0.85476756,4.5171814,0.76606977,0.08667193,1.3362352,
			0.2760202,-0.38677996,-0.791205,-0.3997686,0.20865288,-2.9656482,2.1689322,-0.5361191,-0.82893044,0.0013267111,0.20318137,-1.0393573,-0.27949005,0.3586577,-0.88492954,-0.26488426,0.14745124,-0.19468233,-0.44687483,0.30474126,-0.41325697,-0.5561908,0.0155827785,-0.80721325,0.93856984,0.23643844,0.5340283,-1.8589436,-2.1659892,0.17505945,-0.17058851,0.3010506,-0.27877322,-0.6272048,2.0556123,1.5190059,-0.55840886,0.41352704,6.653763,0.32035437,
			0.51921076,1.4760287,-0.38977093,-0.1870204,-0.13002074,-1.7675992,0.8070167,-1.3712709,-0.34297916,0.44863346,0.16590244,0.29867384,-0.8504884,0.1551499,-0.94135666,-1.9469334,-0.88120127,0.42930594,-0.34659162,-0.21478885,-0.32409462,-1.2220075,1.2877896,-0.99651974,-0.35208446,-0.95056546,0.18059406,-0.4421446,-0.1758484,-0.36409628,0.85134417,-0.5868538,-3.317414,-0.5927933,1.003584,1.0213547,-2.2285223,0.9200045,-0.13126203,0.60654247,
			-0.5932016,-0.3179275,-0.16682245,-0.50780964,-1.1275791,1.7051013,-0.15395927,-1.8023413,-0.6309019,0.82262933,-0.9982166,-1.2966526,-0.5584612,-1.7231169,-0.6794626,1.2024059,-1.3333633,-0.61490494,0.85468745,0.3161217,-0.8776807,-0.3477176,0.36041316,0.614676,0.2119735,-1.5559543,0.14703798,0.07203668,-0.22952901,-1.2130369,0.08744087,0.43447146,-0.214478,0.10430842,1.1893426,-5.3958383,-0.45610932,1.0300105,0.6198727,2.3515778,
			-4.4157915,0.11643996,0.029652923,1.1321994,0.04755334,-0.061334305,0.83663076,-0.17887652,-0.03847311,0.61508816,-0.05029122,0.56218874,0.007101902,-0.112248704,-0.44110334,0.29112762,0.54299676,-0.27684686,-0.28309268,-0.39243564,-0.30774218,-0.99293464,-0.6777917,-0.35685936,0.662956,0.7243629,0.21251887,-0.15572837,0.09089162,0.09057268,0.3256643,0.2900617,-0.18073267,0.36092564,0.3006511,0.24122322,-0.2300685,0.65457827,-1.1607591,2.1439579,
			-0.1261217,-0.29292604,-0.38168627,-0.24439755,0.56517404,-1.3326938,1.656092,0.02547148,0.30499706,-0.72185904,1.2850649,-0.47333112,-0.64118797,0.80654216,-0.53660226,-0.74627495,-0.101691745,-0.03426649,-0.6167999,-0.73130584,-0.2299086,1.5558084,-0.46615025,-0.6446334,-0.104727894,-0.31955463,0.04751204,-1.6200813,-2.3169215,0.12307063,0.2886385,-0.25735146,-0.08602096,-0.33931836,0.3222329,0.091529496,0.13383946,0.69377285,0.06664535,0.96811545,
			-0.42026988,0.32932457,-0.5626003,0.55485785,0.048403163,-0.75524753,0.8091031,-0.12200045,0.09638696,0.7294771,-1.8681512,-0.62626,-1.8606418,-1.2067158,-3.3883088,-0.96529853,-0.17820747,-0.29844758,-0.1005022,-0.15666471,-1.611615,-0.93966514,0.75631785,-0.6014673,1.5788976,-0.2436445,0.863441,-1.0370029,0.1938583,-1.4500902,0.015535531,1.2108313,-1.1496398,-1.2598544,-0.35579726,1.5838687,-0.06591553,1.1120859,-1.0939906,0.95419973,
			-0.65022135,-0.38640183,0.12491067,0.15102729,0.7165595,-0.79653126,-1.2940923,-0.4961455,-0.66304314,-0.15630178,0.47770703,-0.29946706,1.1042396,-0.38860208,-0.7448865,0.1170322,0.44116676,0.4758951,0.70335674,0.56561595,1.3588747,1.0022283,-4.455554,0.6397033,1.2069185,-1.5818717,0.42531982,0.3300249,-0.41053817,0.23459142,0.2621981,-0.35518652,0.5661175,-0.8585501,-0.01277664,-3.6493633,-0.37353587,0.8374352,0.51345646,2.6085613,
			0.07706328,-0.059804898,-0.42538077,-0.06558958,1.3861707,0.07877333,-0.37848923,-1.3247153,-0.24668035,-1.0108091,-0.10111615,-0.22398618,-0.760463,-0.5734461,0.94420356,-0.8867366,-0.11680292,-0.2811361,1.4329909,0.11656057,-0.86837006,0.0283167,0.38474056,-1.0180552,1.1994338,-1.6897768,-0.25469136,0.7104913,0.42528847,-3.8881094,0.037618615,-6.844606,-0.37214175,-1.0038384,-3.8109872,0.14093676,-0.08652265,0.46610722,-0.88975257,2.575423,
			0.28592053,0.4044646,-0.46036014,-0.28542864,-1.8048702,-1.6515497,-0.044789333,0.0066426964,0.4197776,-0.044101525,0.46522558,-1.1811097,1.9832233,0.5861896,0.084565766,-0.3929772,-8.081921,-0.466632,-2.9508123,-1.4617707,-0.10408618,0.42801479,-0.5242983,0.07957039,0.702737,0.06840617,-0.104567155,0.555717,-0.22168204,0.04527787,-0.25254717,0.9247881,-5.9381275,-0.14358509,-4.7168508,-0.5546155,0.053169113,1.0300952,-0.14378259,2.57937,
			0.17481841,-0.37443545,0.27107596,-0.2616086,0.1425963,0.13603431,-0.04079213,-1.0797287,0.053922914,0.591513,-0.23160845,0.020765908,0.20041622,-0.23881166,-0.26483792,-0.02885347,0.095367,1.0464288,-0.7701983,0.7397198,0.03948718,1.1210344,0.2505116,-0.5068957,-0.19722457,-0.9266178,-0.51250863,0.5031345,0.4785247,0.24286163,0.26175353,0.58033246,0.76404154,0.9310352,-0.047875397,1.4175503,1.9167743,-0.64028215,-0.9205204,-0.7652345,
			-0.8493926,-1.0706658,-0.57555693,-0.50881404,0.29692894,0.36255652,-0.10334221,-0.24083142,1.0009083,-0.63690346,0.9420542,0.24908042,-1.3562278,-0.85328287,0.17380477,-0.72592556,1.7561991,1.9413792,0.301024,-2.750806,-1.6968488,1.1950425,1.2358344,-1.2373227,-0.12368249,-1.3560588,1.0306789,0.5494853,-0.35365596,-0.43720445,-0.26969647,-1.1432495,0.5492154,-0.362273,0.247211,1.3066758,0.7101523,0.9192511,1.1068674,0.25775692,
			-0.005194538,-0.5903967,-0.44321293,0.6240133,0.13053098,0.38788524,-0.012706688,-1.3159714,-0.032763734,-0.46469757,-0.033733033,0.013768393,-0.3218859,0.026036656,-0.59853476,-0.8499275,-0.32393914,-0.02185013,0.35961556,-0.006506877,-0.07709017,0.07660599,-0.028548583,0.49419418,0.015209959,-0.08507646,0.68333095,0.017994106,-0.09642307,0.39535603,-8.87709,0.4682235,0.05042396,-1.1291257,0.18903515,0.3668526,-0.033439964,-0.13380109,0.056506947,-0.22300968,
			0.30467916,2.1968114,-0.90128803,-0.5944642,-0.5109247,0.43076694,0.45751315,-2.351839,1.7812325,-1.0708377,0.3133538,-0.9470929,-0.91401505,0.76566935,0.17962186,-2.5106452,1.9307488,2.3409336,1.0619416,0.52858824,-1.5827688,1.0572972,-0.92014766,-1.04268,-0.42241642,-0.0761369,0.5827237,0.30065718,0.9795723,-0.5629927,-0.15796381,0.70226085,0.7423891,0.24174272,-0.16328622,0.70272833,1.750482,0.7312234,1.6542615,-0.38893306,
			-0.21750867,-1.4484385,-0.6847113,-0.25697875,0.29868367,0.5436926,0.02765513,-0.39780295,0.17931063,-1.3520598,-0.23677328,-0.23254015,-0.28771576,-0.22493939,0.50223964,0.7332472,-0.5275597,0.06396364,0.444464,-0.17453268,-0.061748084,-0.7493977,-0.63964874,0.19485009,0.5652671,-0.53047806,-1.6716149,-0.08697453,0.048116792,-0.68097043,0.16740113,-0.11364325,0.0588741,-0.02141521,0.066085234,-1.7631977,0.039349608,1.5602483,-0.21885414,0.8957907,
			-0.27139652,0.24520984,-2.6037283,-1.2729852,-0.038890176,0.17495859,-1.2164007,-1.2787961,-0.7383006,-0.49184915,-5.1033125,0.19260688,0.4937021,0.6080755,-0.31624246,-1.1731462,0.082691215,0.074528836,0.7677552,-0.16456875,-0.010496669,-1.3401725,0.07064399,0.31191483,0.070556715,0.076634824,-0.019169489,0.41952136,2.7823935,-0.15389113,-0.85396415,-0.009596809,0.1700492,-0.056461412,-0.25578004,-0.27185047,0.0668457,-0.14663354,0.2264567,-0.7476225,
			0.96455485,-0.15388241,-0.16092417,-0.0814521,0.46358627,-0.082873866,0.9276486,-0.065066345,-0.4599267,0.69381195,0.49540445,-0.16405901,-0.8905797,-0.39840668,0.10863066,-0.08408265,-0.0031442665,1.2463357,7.6474505e-05,1.3502356,0.17280091,0.14677289,0.13669877,-0.24604066,0.6052768,-0.74442595,-0.057540733,-1.0912352,1.7345809,-0.38056728,0.25208458,0.120458595,0.6403328,0.05354795,0.28438902,-0.30625826,2.058485,0.91719365,1.6830434,-1.9667475,
			-0.18002443,-0.5927892,-0.18655396,-0.017523382,1.0898212,-0.13613579,-0.7299501,-0.56181645,-0.53930604,-0.55194384,0.21950054,0.6437759,0.32454988,0.2745049,0.1484415,-0.5348818,0.0804151,-0.21030961,1.4882277,-0.32846135,-0.50667673,0.2741037,0.40746257,0.17252728,0.11443468,-1.0446202,-1.1354921,0.32027283,-0.3658399,-3.903611,0.64220005,0.13025585,-0.20945995,0.09214483,0.6709918,-0.5411829,-0.4424285,1.0007838,0.23612174,1.6682734,
			-0.4756538,1.4049038,-1.135301,0.044003587,-0.78981364,-3.4369488,-1.248709,-1.0424088,1.5649854,-0.19322386,-1.5013108,1.6408476,1.4179143,-0.82209903,-0.013168135,-2.2182364,-0.62119675,-1.0945294,-0.7093216,-1.7184368,-1.4904912,-1.094828,-0.7735948,-1.574552,-1.7915277,1.2082136,1.4281942,0.7606385,-0.00892549,-0.8158825,0.86061406,0.66370475,-2.1232426,0.3663615,0.97369885,-0.18130426,0.003168278,2.3875864,1.0295334,1.7393088,
			2.3625588,-0.029181706,-2.7364256,-6.6447806,0.018594973,0.15685563,-0.0057046595,-1.9283067,-0.6501849,-0.2809966,-0.17114088,0.034177825,0.82664275,-0.17530134,-0.9174675,-0.7925432,-0.07864804,-0.019949611,0.46798262,-0.08027625,-0.08429716,0.60074174,0.057492595,0.14069103,0.13603216,0.24700074,-0.123917714,0.41510078,-0.14659663,-0.21771222,-0.75184476,0.1488129,0.1719136,-0.24442323,-0.2618403,-0.13975406,-0.040116966,-0.07419297,-0.055089265,-0.21157789,
			0.21153128,-1.483005,-0.8459109,-1.6979364,0.5970219,1.2184074,0.8348466,-5.5405097,-1.0945733,-0.6520184,-2.6878924,1.4121137,-0.123302996,0.3629214,-1.5461372,-6.0980477,0.19881421,-0.2824923,-0.72234505,0.20529391,-1.104503,0.20434146,-0.38104486,-1.296143,2.6373827,0.9284632,-2.0856094,-0.29569936,0.11112922,2.6787896,-2.7850928,0.49262613,0.04434218,-5.0058937,-0.3212808,0.16665754,-0.21761152,-1.0839015,-0.27400485,-0.79274446,
			0.30989644,2.022222,-1.25841,0.18245825,-0.29886708,0.19356802,-0.7504602,-1.458032,1.8191,-1.389495,-0.44400728,-0.8481675,-0.6372217,-0.79153425,-0.14680475,-0.7745715,-1.6117028,0.45717508,-0.6493138,-1.0075899,-0.19567348,-0.5444113,-0.54730344,0.3420142,-0.18476583,-1.5179508,-3.495702,0.32189876,0.42923924,-0.17334032,-0.17407346,0.9498577,-1.869658,-1.0883777,1.25642,-0.17656113,-3.1012578,1.5185599,-0.80569553,0.42660463,
			-0.23121195,0.25775105,0.4597752,-0.067812845,0.10538891,-1.6921581,0.023767475,-1.6025529,0.2533218,-0.21878427,-0.47696936,-0.14767432,-0.6864252,-0.7165617,0.0077686436,0.10836823,1.6456455,-0.39175746,-1.0583746,-0.97341883,1.6148564,0.18603489,-1.1184336,-0.484957,1.4795601,-1.1178802,-1.241189,-0.20481788,-0.6348339,-0.007994575,-0.3214475,0.6651836,-0.03364863,-1.5460285,0.351648,0.30328527,1.5640916,2.2956536,0.26404464,0.12988505,
			-1.7342658,0.32201302,-0.4978581,-0.33188632,-0.79795617,-3.3530853,0.027051546,-0.98489004,-3.1698277,0.92342955,-0.9124115,-0.07259597,-0.8122111,-3.5157044,-1.8414931,-0.23382741,1.1708163,0.15167183,-1.0582091,0.5635402,-0.09339378,3.2037733,1.2600114,-0.2846969,0.8915858,-0.04608496,1.8078561,-0.5483053,-0.089767076,0.47876206,-0.43309802,0.111082725,-0.6541012,-1.2987708,-0.53795135,1.2480986,0.45440373,4.111803,-0.29949182,1.181532,
			-0.24323387,-0.037992664,-1.4096352,-0.4082695,-0.5890188,0.07233971,2.2142882,-2.3775182,0.8073539,-0.59027755,0.00045903056,-2.997962,-0.7971486,-2.0226195,-1.2246696,1.3566555,-1.5285561,-1.0692961,-0.4232213,0.57926786,0.9571043,-1.0433915,-0.5435284,-0.7014193,-1.2552134,-1.0651399,1.3314646,-0.206809,-1.9290392,-0.576227,-0.338131,-0.9114073,0.09156985,-1.9110938,0.46727347,-0.70675445,-2.2173645,1.3346792,0.40727556,1.2976389,
			-0.09592519,-0.2809385,-0.8848267,0.44042858,-0.5385414,-1.6784993,1.7496387,0.17247652,-2.5765097,0.37098807,1.2735054,0.5560923,0.5299558,-1.0790612,0.7341252,-1.6445589,0.3612978,2.5890908,1.1204371,0.40136254,-0.15772043,-0.027808096,0.60673964,-1.0416281,0.8460409,-2.597696,-0.8713194,-0.40041992,0.21600705,0.2872425,-0.656253,-0.39738637,-0.0034314604,1.6866002,0.83896255,-0.51999915,-1.5174071,1.0208874,-0.16928224,0.6145103,
			-0.41057363,-0.08662945,-0.95919394,-0.9653193,1.2382512,-0.54129076,0.5422681,-1.1423931,0.75579137,-0.16302167,1.8522295,-1.5809152,-1.9312116,1.0853877,0.025245128,-1.2568269,0.13011754,-1.4762964,-0.34280697,0.85488945,-0.3451023,-0.5777122,-0.7338428,-1.0132549,0.29370907,-0.85262954,0.06445156,-0.4395549,-2.1149151,-0.51646113,-0.018675793,-0.40085042,-1.3283575,-1.810652,-0.08415205,0.43059686,-0.5260641,0.86951613,-1.1203927,0.4582142,
			0.73059,-1.0118222,-0.49997342,-1.1383398,-0.1610067,0.38306832,2.2672937,-1.600215,1.1828068,-0.3647505,0.5449969,-2.0946739,1.3582906,-0.814741,-1.1997721,0.87208545,-0.17178221,-0.77090734,-0.64317226,-0.042538967,-0.54864967,-1.7965513,-0.59863573,1.3107833,0.70750976,0.091679186,-0.05220404,-2.4605618,0.38888645,0.17369208,0.024911204,0.05510907,-0.76203084,-0.8439331,1.2590191,0.8646541,0.20302898,1.2661211,3.9073982,1.0063324,
			-0.42078382,0.794641,-0.016320756,0.413893,-0.8315054,-0.70568556,-0.3475413,-0.37697756,0.052567173,-1.0610459,-0.00056408823,-1.182014,-0.33560947,-0.12404667,-0.72438854,-0.25087103,-0.6881521,2.1870546,-0.3712361,0.9322013,-2.0415723,0.27297318,-1.3376541,-0.86488295,-0.0892417,-0.22481637,-2.4870262,0.20187408,0.62193024,0.5248792,0.46982515,-1.0394872,0.5655109,-0.07280572,0.7400684,-0.8161291,2.6151369,2.1103241,-0.4971983,-0.4023414,
			-0.018900385,-1.0053438,-1.3814632,-0.7231124,-0.47602475,1.1617106,1.6387074,-0.5038865,1.9300727,-1.5845134,1.5319915,-0.6610822,-1.4405677,-1.0494372,0.9567275,-0.03642967,-0.65066,-0.14295827,-2.2206156,0.82941645,1.7602987,0.04638045,-0.8466258,0.433553,0.39549628,-2.3165636,1.5482718,0.21256568,-0.93070495,0.5955885,-1.6178206,-0.16106394,-0.074202135,-1.5418972,-0.79720354,-2.0855892,0.48225287,1.9333732,1.0690949,1.0620837,
			0.47706935,-0.9614487,-0.49016118,-0.06710273,2.7682753,-0.58916014,-0.8740754,-0.8655554,0.18224972,-0.8021417,-0.22334114,-0.46056554,3.1200001,0.21955058,0.5458939,-0.5901774,-0.55002135,1.4849164,-1.6026374,4.2532206,-0.40210515,-0.54374045,0.30001274,-0.6565721,1.195243,-1.0230254,-1.6194282,0.091469094,0.040669434,0.6558772,-0.025203627,3.5987537,0.3548921,-0.2031744,-3.373329,0.5461691,-3.4613752,-0.42658648,0.18127796,0.03739465,
			2.3615727,-0.4163666,-0.4016414,-0.76127046,-0.018990522,0.08079331,-0.94499904,-0.45292386,-0.6006331,1.8968759,-1.1707339,0.553993,-1.8166254,-0.8835568,0.54666466,0.07364274,-0.2524829,-1.0444146,-0.6046231,0.112535864,0.012633389,-0.98320246,1.2550995,0.3132067,2.1021345,0.10323055,-0.05002148,0.07614647,-4.070236,-0.7904585,-0.2838893,0.3191918,0.59879446,-0.27712503,0.5337029,0.13240072,-0.09118062,1.7759625,0.4811524,-1.5163689,
			0.622396,0.74427587,-0.493816,-0.21743055,0.07653465,-0.06160406,1.1024956,-0.06804212,0.28872198,-1.4078162,1.2581712,-0.6831082,-0.14867304,-0.97794354,-0.50646967,0.27276787,-0.11621945,-0.293718,0.8745967,-0.5854813,0.101068966,0.43116906,-0.81137294,-1.8113261,0.12427568,-0.81711185,0.545235,-0.8541328,-1.6684444,0.6663172,-0.50691104,0.30871478,0.7515365,0.2249325,0.5149383,-2.5349472,-0.4224653,0.030822527,-0.6128891,0.8477684,
			1.9136333,-0.22034855,-1.1340473,-0.08043509,0.24750015,-0.9126044,2.331755,-0.27591005,-1.1889192,0.8071476,-2.1270626,-0.37134984,-0.30983323,-1.0847157,-0.69564664,0.8786536,0.02161659,1.7608243,0.27868083,-0.40640205,-0.06798192,-0.958762,-0.39135128,-0.27553383,1.1502168,-0.78546625,0.07417763,-1.45577,-0.008716931,0.19534244,-0.4220441,-0.0039520096,1.5719122,0.6580679,-0.20929253,0.24690074,0.43800658,0.8245267,0.32441574,0.17312615,
			-0.592696,-0.47197044,-0.5657782,-0.398805,0.30909985,-0.14062658,0.048452314,-0.5645673,0.70172906,-0.30273053,0.16440062,-1.9988405,1.0581143,0.3597147,0.66077274,0.24373701,0.16622506,-0.34237957,-0.5381657,5.5898833,0.1838614,-0.8641937,-0.26653317,0.45648563,1.720757,-0.909998,-0.2668956,0.033883892,-1.0945529,-1.864982,-0.06858029,-0.1885328,-0.18206432,0.22283667,-0.0745285,-0.21659954,0.6225196,-0.42713287,0.08810243,0.05803067,
			0.16585475,1.2855815,-1.4608034,-1.6751195,-0.7103058,4.213689,1.7288405,-2.8370032,-1.3400016,1.196066,-0.58889043,0.07775854,-0.74692607,-0.3218661,-0.7819386,-4.4189024,-0.9006488,0.15589465,-1.2514796,0.07934625,-0.7679675,-0.7140583,1.7745339,-0.007053931,-0.40240774,-0.605538,0.7188715,-0.35857671,-0.16496162,0.023930412,0.6679558,-0.8356308,3.7915978,-2.0810642,-0.82458276,0.42217958,1.3779707,2.9038715,-0.04160132,-1.4184389,
			-0.44434047,0.76081973,-1.0166298,-0.42544243,-0.6232251,0.048128728,-0.6292784,-0.43392688,0.14945257,-0.40635136,0.8336564,-2.3891582,-0.13841236,-2.32678,2.4140139,1.4427155,-0.92658144,0.7906493,-1.8176696,-1.9953376,-0.64994794,-0.4505544,0.16675344,1.9736328,0.5483083,-0.3530985,-0.3113319,-0.5401192,0.70253026,-0.66894734,-0.27350017,0.7006144,0.12193603,-0.6963472,-0.39823788,-0.35249716,-1.5215725,0.4746658,-0.18746601,-0.6278983,
			-0.51804537,1.2422494,-0.62577075,0.0022400913,-0.6694541,0.42329678,0.2980717,0.17771171,0.74466515,-0.1361867,0.170212,1.2893091,0.31866163,-0.6848353,0.049056556,-0.16334486,-0.32311636,-0.28542086,-0.25078055,-2.6582718,0.5351288,1.0943056,0.54138577,0.12983774,0.6547396,-0.76573646,-1.2815017,-0.084122054,-0.9093117,-0.64686,0.0031825423,0.97178566,-0.46010774,0.23711362,0.5284559,-0.00831618,-0.9418999,0.93765575,1.0474385,0.6121032,
			-1.6455544,0.13292158,0.78113526,0.6638629,0.62541664,-1.4525403,0.1285358,-1.625485,-0.9507209,-0.23121609,-0.18132465,-1.173343,-0.6094196,-2.0722575,-2.0962403,0.14474072,0.05997397,-0.6610875,0.18054174,-0.4459339,0.21923843,-1.1712192,-1.0977091,0.68045557,-0.4923107,-0.33303413,1.2001036,0.2501488,0.056881692,0.17357165,0.5053751,-1.5331533,1.0458385,-1.0442419,0.31973508,-2.8645787,-1.5524505,0.072143525,-0.113428116,2.5139468,
			0.18375036,-0.458828,-1.3973668,-1.2849848,0.45112205,-6.497833,-0.14507931,-1.8599024,-2.9109783,0.09544876,0.57741386,1.2183721,-0.810851,1.04451,0.87881047,-3.5860152,-0.025322948,-1.5214552,-0.2165654,-0.57819384,0.70869315,1.2912796,0.545244,-1.8571202,-0.056658905,-1.2596276,-0.69981396,-0.13509524,-0.39297903,-1.8168849,0.3259205,-0.41223696,-1.1347861,-2.348323,0.49873665,-1.3539585,-0.44671014,1.5591713,0.6797637,1.6455548;
