			-5.066469,-0.72864825,0.9048519,-3.6283038,-0.5757647,0.35573074,0.31988955,-1.2900298,-0.4064239,-1.9649595,0.47610292,0.9914164,-2.4382503,-1.6987063,-1.3899119,-4.2799253,-2.019606,-0.3789008,-1.097573,-1.6802263,-0.2088789,-6.6277637,-2.5320373,-0.12482004,-1.6236578,0.44890237,-0.98377776,-3.8525004,-3.9114845,-2.2629745,-2.4396505,0.39553836,-2.3844857,-0.43017504,-6.484232,0.1572909,-1.4363699,-0.35982758,-0.7785212,0.48602974,
			-4.564518,-1.8352789,0.43570045,-2.6836944,-0.29240805,-1.5686713,-0.044348888,-0.9893974,0.9684862,-0.92922,-0.0040157754,0.35314435,-2.4977844,-1.5232763,-0.9508314,-4.112784,-1.1953729,0.60954267,-0.078497015,-1.636283,-0.26102576,-2.4709759,-2.0456073,0.09936982,0.52714384,0.35266614,-2.8100843,-3.5718548,-1.8590106,-1.9457445,-2.4813108,0.6554414,-1.8258998,-0.99076444,-7.1938214,0.4314963,-2.701896,-0.0522328,-0.65097755,0.5646814,
			-4.9659014,-1.759489,-0.050737027,-1.6968994,0.011268607,-3.5233033,0.021768095,-0.44589344,0.49274138,-1.2015433,0.12804547,-0.2864892,-1.3693806,-0.91388446,-0.023633417,-3.8558438,-1.7069775,0.4602374,0.40259773,-1.550792,-0.14629222,-0.4017814,-1.4298357,0.13635464,0.0272985,0.3934775,-1.6219004,-3.3517668,-0.3321262,-1.7150972,-3.1143548,1.0779083,-0.9683568,-0.71813357,-5.582312,0.15030745,-2.122019,0.025024207,-0.29000115,0.054240774,
			-2.8834403,-3.044717,-0.7839111,0.13907695,0.14714232,-3.2600603,-0.17392464,0.18136847,-0.4911806,-0.752936,0.75535756,-0.55647445,-0.75730634,-0.37723982,0.11408948,-3.5811942,-2.3181489,0.04363709,0.08029339,-1.619274,0.59293276,0.2138197,-0.2284485,-0.07032677,-1.2421453,0.28002173,-0.7687048,-2.0111117,0.47239178,-1.2490362,-4.356485,1.5686675,-0.6377781,-0.21504007,-2.1793575,-0.18452992,-1.0825119,-0.3228541,-0.36997035,-0.8417068,
			-3.5995529,-2.308847,-1.4490453,0.22726436,0.0049959887,-3.1213048,-0.36713707,0.72649795,-1.2217467,0.15671428,-0.11300097,-0.76985365,-2.6899805,-0.70165336,0.5637223,-3.871171,-1.8063943,-0.3069444,-0.5139096,-1.571965,-0.24746823,0.114093244,0.29302827,-0.4563089,-1.2034832,-0.8668896,-0.22948481,-0.4755461,0.099697106,-1.1734747,-3.5048468,1.2399787,-1.8083608,-0.016958164,-4.2784333,-1.7258024,0.339158,0.12122021,0.14020452,-2.4170847,
			-3.7119656,-3.0678437,-1.3400795,-0.32713413,-0.4235897,-3.1762726,-0.9542624,1.0324311,-2.1795232,0.46803877,-0.2929179,-0.65433395,-4.3962474,-1.3697461,0.21999364,-4.500502,-1.3798696,-1.7176095,-1.6806506,-1.3870875,-0.7981681,-0.12439263,0.66103613,-0.031243593,0.1032603,-1.7370406,-0.29286975,0.27850768,-1.5390531,-0.028213006,-2.9617922,0.5478789,-1.5766658,0.24947853,-5.610118,-1.353354,0.65381616,0.46159878,-0.033629734,-2.7615871,
			-2.8575318,-2.77709,-1.8221307,-1.0218134,-0.576815,-1.3886386,-1.0841844,0.8476549,-2.849993,-0.59426755,0.54802614,-0.8704128,-4.332569,-1.69142,0.2617145,-4.495811,-1.042772,-3.5117302,-1.9495533,-1.5384439,-2.7065709,-1.0599285,0.6903062,-0.035128165,0.93989944,-2.2202163,-1.1556532,-0.17694353,-4.378311,0.55259544,-3.1652522,0.34960005,-0.41133225,-0.07797261,-5.0758657,-0.9403646,-0.08956767,-0.2812862,0.102486506,-2.128604,
			-2.9067824,-0.23706836,0.6086285,-2.120736,-0.24679251,0.6862278,0.7460171,-0.29065242,-0.5556715,-1.9745668,-0.24661945,1.1561435,-2.3009865,-1.2943342,-1.2729052,-4.6862383,-0.54782957,-0.20891666,-2.7053156,-1.7582808,-0.5026488,-5.330251,-0.77475643,0.31829157,-3.292397,0.08427784,-0.31746408,-2.761456,-3.4958997,-1.3691901,-2.3124702,0.020374732,-2.8219068,-0.5965081,-7.457097,-0.024878195,-1.2799203,-2.6885412,-1.0016732,0.08384684,
			-3.4996521,-0.4797889,0.38990024,-1.6692903,-0.114167266,-0.17837948,0.65513444,-0.23873363,0.78195584,-1.0347952,-0.41916955,0.49942163,-2.4903038,-1.0699471,-0.6023268,-4.8137484,0.13427937,0.5560641,-1.4043764,-1.8170476,-0.26939368,-3.2732368,-1.2759295,0.20220953,-1.8397372,-0.40306637,-1.6467505,-2.6667652,-1.155092,-0.57775605,-2.4326282,0.20637003,-2.4720626,-0.5722903,-8.249333,0.1840183,-2.4264576,-0.5391113,0.011115397,0.42897916,
			-2.6377244,-1.2481275,0.33643055,-0.46500707,0.17763819,-1.2207175,0.82341516,0.07970955,0.44778162,-1.1129196,-0.4540959,-0.19928415,-1.658205,-1.0757018,0.16426706,-4.229575,-0.051916704,0.4777126,-0.29761133,-1.7849325,-0.3525911,-0.77645874,-0.60429627,0.33707976,-1.8447075,0.17457958,-2.245628,-2.11723,-0.08348836,-1.563368,-3.1046643,0.48468867,-1.9404451,-0.49132338,-6.281776,0.23719971,-1.7530782,-0.20954627,0.19063441,-0.2023852,
			-1.2344173,-1.5926946,-0.33601618,0.6978991,0.27978292,-2.0921915,0.5727821,0.38357458,-0.64450586,-0.88955873,-0.12282073,-0.44473547,-0.8433343,-0.28323856,0.20244019,-4.647585,-0.15152168,0.03674903,0.3038445,-1.7838382,0.27197048,0.10086051,0.073114865,0.37649223,-1.4353297,-0.1269786,-2.2037222,-1.259459,0.4446026,-1.1045096,-4.354524,0.5563513,-1.6573989,0.0031016865,-2.7313547,-0.15680523,-0.7041346,0.05351474,0.13725825,-0.7973088,
			-2.1852481,-2.1806989,-1.0631429,-0.15397727,0.4645778,-2.1307578,0.48976493,0.5477782,-1.5295086,0.110510305,-0.5701881,-0.70228595,-2.687976,-0.93323237,0.24200094,-4.728028,-0.20159407,-0.8715149,0.07352437,-1.7311646,-0.16768968,-0.009326904,0.4179852,0.2498829,-0.48451117,-0.5792082,-1.672608,-0.17209487,0.108621046,-0.56932503,-3.5634665,0.38663402,-1.2837887,0.29916376,-5.1948233,-0.98549944,0.40705195,0.3721872,0.14959128,-1.8370128,
			-2.2205596,-1.7860329,-1.437282,-1.1386172,0.2632016,-2.374305,0.16724579,0.5871681,-1.5873305,0.46224576,-0.609683,-0.48137623,-5.0163703,-0.7198546,-0.049836878,-5.059243,0.08421891,-3.4551442,-0.6418689,-1.7955755,-0.2700292,-0.42111364,0.44540137,0.34892976,0.20436825,-1.3613486,-1.7363498,0.0334827,-1.2788389,0.4703484,-2.8698847,0.0023643067,-0.2524079,0.2854936,-6.4507833,-1.2238383,0.21897964,0.44695225,0.03119902,-1.6937034,
			-1.4659535,-1.6324441,-2.3576362,-1.9842569,0.44660473,-1.1817949,-0.7029857,0.06535773,-2.2823198,-0.33678186,-0.039271224,-0.75485814,-4.0710497,-1.1346129,-1.9450728,-4.4229336,-0.08919233,-5.0086493,-0.44361854,-1.7981969,-2.456297,-1.1593997,0.8420695,0.68518233,0.89179677,-1.3921772,-2.128625,-0.71617913,-3.5384781,1.0711714,-3.1143084,-0.19411403,0.28317726,0.323413,-5.531905,-1.2981355,-0.63888776,-0.4450931,-0.04055654,-1.6217512,
			-2.9111872,0.66865027,-0.09371834,-1.0711807,0.295625,0.5386804,-0.06348152,0.13793606,-0.5307514,-2.0493946,-0.2922045,1.0966928,-2.3078673,-0.49599093,-1.5044106,-2.3857613,-0.4927296,-0.12372147,-2.2477067,-0.7447418,-0.4090029,-6.058105,0.34828806,0.039704125,-2.3096952,0.34661067,0.20171906,-0.87471163,-3.1399117,-1.6164238,-2.398054,-0.5040894,-1.9396544,0.1294534,-7.018856,-1.251145,-1.1449901,-4.2637415,-0.69699216,0.2511141,
			-2.2776694,0.20255679,-0.071431994,-1.0455253,0.11826602,0.30109906,0.21504724,-0.014762419,0.83371913,-1.3403507,-0.45788828,0.3947681,-2.4776235,-1.0640314,-0.6073985,-2.7849362,0.37173796,0.51036245,-2.4578128,-1.1085124,-0.3744244,-3.338806,-0.29165733,-0.18622473,-1.7077838,0.13717979,-0.14597625,-1.3599249,-1.1269498,-1.5401961,-2.3648434,-0.32834136,-1.9280891,0.03572975,-8.362819,-0.25509197,-2.3532908,-1.8850158,0.28190327,0.3221707,
			-1.6418117,0.14215115,0.23382285,0.056738496,0.20074575,-0.024153627,0.21688832,0.12654144,0.26544398,-1.2727965,-0.33069772,-0.19220483,-1.653929,-1.0333784,0.41120288,-2.9945438,0.32216978,0.4686133,-0.97725993,-1.3113561,-0.44280228,-0.60223126,-0.22384562,-0.20215508,-1.2130098,0.06877584,-1.0105003,-0.8190626,-0.07818641,-1.8167368,-3.1108913,-0.049897246,-1.5890616,0.17132515,-6.413648,0.22864981,-1.5753089,-0.27175143,0.349444,0.055757016,
			-1.0180184,-0.49522266,0.21370901,0.51472706,0.410449,-0.22457054,0.2455303,-0.0012376684,-0.8527564,-0.92724174,0.06683295,-0.5455253,-0.7561275,-0.5216918,0.37420017,-2.8819494,0.031165611,-0.01653709,-0.046335958,-1.1390749,0.08285616,-0.008097541,0.23733397,0.041639443,-0.38865313,0.19444236,-1.505061,-0.22159763,0.31598788,-1.0757484,-4.4219666,0.039702583,-0.9770477,0.39812538,-2.7165432,0.12616865,-0.39021593,0.17530087,-0.08156684,-0.6373778,
			-1.2258346,-0.11434379,-0.3506555,-0.5273586,0.36185166,-0.72357166,0.44268894,-0.23233305,-1.6030804,0.11899472,-0.45584813,-0.5343473,-2.5770314,-0.78207475,0.14296499,-2.8321555,0.013847609,-1.0761735,0.42348698,-0.95248276,-0.31670022,0.1599797,0.3455568,0.030767005,0.027928397,-0.6154487,-1.6316718,0.1893544,0.12982379,-0.22035442,-3.5862992,-0.18230034,-0.3302607,0.33301896,-4.4777355,-0.34104523,0.30681625,0.49778116,-0.36715704,-1.8080581,
			-0.9321408,-0.20155556,-1.2909151,-1.8510059,0.36200663,-0.86750776,0.5691239,-0.51126724,-0.94373184,0.5692421,-0.34842137,-0.6356971,-4.4956284,-0.82434803,-1.4112989,-2.768039,0.030294217,-3.5147257,0.3739414,-1.0927173,-0.6380372,-0.24667121,0.38919887,0.13466513,0.1315293,-0.90964836,-1.2089133,-0.005289477,-1.0081987,0.4842588,-2.797505,-0.43321726,0.44063827,0.22764263,-6.92088,-0.8034622,0.25904474,0.29951224,-0.68988097,-2.4225416,
			-0.13303189,0.3844801,-1.9724308,-1.0546031,-0.024190221,-0.42508417,0.15701829,-0.60330164,-1.9511833,-0.27765062,0.10848023,-0.7870599,-4.402511,-0.94608545,-4.645114,-2.6649182,-0.25958315,-4.1258335,0.03257109,-1.14152,-2.3383007,-1.4335662,0.54783916,0.3656994,0.0119821895,-1.2446724,-1.8313153,-0.4687508,-2.75584,0.7857292,-3.1744027,-0.44890475,0.6276326,0.30260256,-5.2607813,-1.2993047,-0.78034145,-0.3960763,-0.6026316,-2.441667,
			-0.9947264,0.18322983,-0.5550728,-1.060177,0.5783022,0.3708603,-0.50709635,-0.11890543,-0.15365483,-2.861998,0.3802805,1.1491143,-2.7003646,0.10818728,-1.7469363,-0.3396474,-0.47360098,-0.6329731,-1.2875836,0.15668929,0.36993876,-7.9242325,0.57464945,-0.8652747,-1.608661,0.083013944,-0.34739694,-0.27869707,-2.49312,-2.0272703,-2.5348802,-0.44345972,-0.119847804,0.34879377,-8.066865,-2.714967,0.28215876,-6.1781306,0.08058568,-0.049675565,
			-1.0797958,0.7175165,-1.0917549,-0.5598647,0.20366813,0.073052436,-0.74182945,0.16079563,0.80028695,-1.1555394,0.09281202,0.19999452,-2.9678433,-0.47219884,-0.26943946,-0.6054508,0.4786321,0.41177043,-2.1387856,-0.09174163,0.2214292,-2.828754,-0.4768211,-0.5500185,-0.8702744,0.065800354,0.5397902,-0.46401536,-0.8702527,-1.4880413,-2.3544981,-0.35721233,-0.76816154,0.20671967,-9.117831,-1.1038567,-1.6247586,-2.9096975,0.4586633,0.2570152,
			-0.75000435,0.2883907,-0.057069942,0.080458224,0.16070785,0.26612732,-0.55587906,-0.19837879,0.31942502,-1.3995459,0.37657705,-0.23085776,-1.8413118,-0.7045275,0.4460509,-0.5076857,0.44709408,0.3781605,-1.8785443,0.07466405,0.14997527,-0.563333,-0.3545089,-0.7873485,-0.06609356,0.26073968,0.035750583,-0.06682433,0.13967983,-1.4595449,-3.0190654,-0.414962,-0.49297813,0.28025973,-7.159481,-0.20349099,-0.9153158,-0.76600003,0.058100015,0.1839081,
			-0.32307386,0.12832479,0.37618285,0.047192786,0.16082394,0.0945035,-0.43431023,-0.67006356,-0.7648963,-0.88205445,0.7490044,-0.52042323,-0.9726617,-0.077392966,0.4129394,-0.61167675,0.26181754,-0.15798506,-0.6770288,0.045639392,0.83003026,0.09024572,-0.025383348,-0.66385907,0.16054043,0.33264118,-0.67326415,0.29758114,0.36110878,-0.56779325,-4.369769,-0.29967067,-0.25032225,0.15663919,-3.1023445,0.27952346,-0.13502972,0.01843654,-0.561199,-0.24823824,
			-0.25918016,0.25342113,0.3184843,-1.4684962,0.29098248,0.105682276,0.15238577,-1.0872563,-1.4225432,0.3123708,0.44547328,-0.8504538,-2.9116247,-0.44545203,-0.36011776,-0.57572836,0.06357053,-1.1172768,0.14471811,0.021909975,0.14983384,0.33316267,-0.16381192,-0.5381524,0.085211255,-0.17908359,-0.7299123,0.19168542,0.20051374,-0.058474608,-3.443034,-0.5730888,0.15274799,-0.11302132,-5.673668,0.06789933,0.41612667,0.28012425,-0.76587445,-1.3296833,
			-0.015736295,0.7245074,-0.32134238,-2.117763,0.1104507,-0.10364929,0.38280585,-0.61285466,-0.37246162,0.58943796,0.20039997,-0.52321833,-4.639929,-0.2717161,-2.941105,-0.6822413,0.04027074,-3.3599553,0.6575314,-0.034684256,0.020470778,-0.07509228,-0.30151314,-0.33124238,-0.51695794,-0.7557943,-0.85513103,-0.33061323,-0.6901673,0.35409275,-2.6524637,-0.48568305,0.41095835,-0.31914777,-7.5130186,-0.51124173,0.17519651,0.16995287,-0.9119903,-2.500452,
			-0.06213043,0.5183889,-0.8738076,0.22464791,0.031116093,0.14535971,0.7456966,-1.0322108,-1.1461674,-0.075629726,1.0723476,-0.7524865,-4.1724234,-0.030991402,-5.3811865,-0.4193304,-0.15283385,-6.686167,0.14796145,0.15774986,-2.4307754,-1.6168329,0.08587047,-0.53262615,-0.98402846,-0.9347596,-0.59544253,-0.110401206,-1.9113255,-0.16031545,-3.163989,-0.42487016,0.5419817,-0.45009485,-6.261315,-0.63662064,-0.328794,-0.83601916,-0.7760413,-1.0043523,
			0.63306653,-0.12030104,-1.8449508,-0.54861957,0.376123,0.12804414,-1.8793756,0.21995944,-0.3945338,-2.405339,-0.34527138,0.799943,-2.3703368,0.25829846,-0.76981694,-1.3638906,-0.6519524,-0.47139385,-1.7981813,-1.7936236,-0.22856212,-6.314269,-0.3039836,-1.7121884,-0.8539401,-0.19903824,-0.6478007,-0.8497609,-2.334462,-1.9162469,-2.635935,-0.5008291,0.2192578,0.7673553,-6.908171,-4.873073,-1.0240754,-4.9870872,1.0489619,-0.6757964,
			0.12324533,-0.35660943,-1.9413793,0.050914463,0.15658249,0.109436296,-1.3979173,0.4343798,0.618681,-1.6611643,-0.34875417,0.22037771,-2.5266368,-0.15927328,0.04440302,-1.5828315,0.14192216,0.3802881,-2.0415342,-1.8882244,-0.097089574,-3.029344,-1.2272754,-1.7410532,-0.16527112,-0.2117559,0.37619063,0.18949135,-1.0791864,-1.4280233,-2.5137033,-0.36810288,0.29767004,0.2659411,-8.563503,-2.074089,-1.2940427,-2.7180004,0.26318097,-0.05631091,
			0.14296491,-0.33553717,-1.0699254,0.39020666,-0.09391507,0.2672739,-1.5394006,-0.11964929,0.06919729,-1.603193,-0.21951939,-0.09208081,-1.4407002,-0.32816944,0.58994406,-1.5989472,0.26285583,0.4146633,-1.7935194,-1.7537067,-0.33372265,-0.38330004,-1.0203323,-1.9012306,0.13829182,-0.24550101,0.44919392,0.38720548,0.10836674,-0.7957054,-3.161289,-0.29249594,0.2689077,-0.0327027,-6.224197,-1.1974674,-0.5477366,-0.5704768,-0.5169867,0.44618016,
			0.25620788,-0.54411775,0.092294015,-0.28478423,-0.34262663,0.42944422,-1.3162102,-0.71486187,-0.9638717,-0.87723947,0.25619656,-0.3998585,-0.668262,0.06505139,0.29550135,-1.6718283,0.03981604,0.09870411,-0.9796657,-1.8302027,-0.010997911,0.113263674,-0.20143376,-1.6271102,-0.1159802,0.18828534,0.14826974,0.11580306,0.40135574,-0.039214566,-4.3927364,-0.31251067,0.27817532,-0.66821575,-2.9045825,-0.25768587,0.26796564,0.19754036,-1.0767183,0.30083913,
			0.19709511,-0.016979223,0.49402604,-2.0392249,-0.0977439,0.54139507,-0.8549601,-1.1026194,-1.7135857,0.26368645,-0.2535952,-0.63799804,-2.6404798,-0.005624535,-0.5425193,-1.8367816,-0.2026931,-0.49900755,-0.06951361,-1.972952,-0.56234586,0.33076367,-0.3048621,-1.5459299,-0.8340814,-0.57413495,0.039199904,-0.43083957,0.37840986,0.10894846,-3.4301627,-0.39196327,0.32477725,-1.0585344,-5.220043,0.13742372,0.29322726,0.3591873,-1.281253,-0.54029185,
			0.19438757,0.17362316,0.3648906,-2.2450151,0.2618848,0.47331765,-0.16808674,-1.1527941,-0.5637341,0.69913846,-0.35884988,-0.76358294,-4.422604,0.4380077,-2.9656239,-1.737582,-0.28792635,-2.2660084,0.38761243,-1.7634312,-0.7424775,-0.23659329,-0.31089497,-1.1438587,-1.2741811,-1.0888358,-0.23924704,-1.1875318,-0.4887955,-0.070485026,-2.7103121,-0.37621504,0.2735641,-1.4567463,-7.018675,0.1308321,-0.22260885,0.19681372,-1.3323263,-2.126773,
			0.21110107,0.6578803,0.02902457,0.23826174,0.5935649,0.23712394,0.2559738,-0.9296723,-1.0842519,-0.24454495,0.16338539,-0.65679824,-4.2775035,0.809065,-4.4674926,-1.5070037,-0.58996236,-5.029199,0.4572432,-1.4961777,-2.4547067,-1.4195665,-0.22263122,-0.53562,-1.1859413,-2.0750587,-0.0883616,-0.9324509,-1.7890646,-0.84858567,-3.066029,-0.44344145,0.27799097,-1.8375365,-5.5665483,-0.22340973,-1.1616555,-0.7972975,-2.0833604,-2.2790356,
			0.8083764,-1.676294,-2.656873,-0.12812833,0.25972983,0.25546357,-1.9896201,0.3395634,-0.307848,-2.7241051,0.07672492,0.6114452,-2.3545778,0.2827602,-0.56358117,-2.4492164,-1.0808927,-0.51245713,-1.189758,-3.3594248,-0.1793577,-6.516746,-1.9865793,-2.6648831,0.18716192,-0.7698762,-1.1930707,-0.13717909,-1.9766968,-1.4449288,-2.6048226,-0.6803379,0.83173037,0.768704,-7.142134,-5.742948,-0.44379357,-4.526828,0.7806358,-1.3430487,
			0.4484495,-1.6914545,-2.6371365,0.51713496,-0.47285625,-0.11766872,-1.8287288,0.69212776,0.53689027,-1.572409,-0.25029075,0.41978845,-2.6832516,0.2195062,0.18150088,-2.7182417,-0.33513263,0.33808482,-1.1798267,-3.473373,0.005058494,-2.874324,-2.5507393,-2.1108954,0.47666326,-1.0821116,-0.098348424,0.7211887,-0.89828044,-0.9026934,-2.391911,-0.2952383,0.68237114,0.050248515,-8.153231,-2.351864,-0.6789544,-1.672263,-0.5759209,-0.7309598,
			0.3157723,-2.2112713,-2.153024,0.1103765,-1.2447337,0.24112536,-1.5607157,0.13932204,0.14416683,-1.4042239,-0.22972438,0.23282593,-1.6773758,0.031894512,0.5039114,-2.6853564,-0.21366693,0.4542295,-1.5181814,-3.326255,-0.34381807,-0.44745043,-1.712997,-2.021861,-0.13232619,-0.46155518,0.3297045,0.48070464,0.097135246,-0.15614648,-3.1725018,-0.34334487,0.65960026,-0.66238654,-6.4059944,-2.0939825,-0.2624317,-0.09105852,-1.8351003,-0.0793833,
			0.43882352,-1.7880942,-0.8110053,-0.61907065,-2.2572608,0.49555355,-1.4148326,-0.18490225,-0.9332952,-0.7539056,-0.030784661,-0.24427143,-0.81946915,0.3885746,0.11525071,-2.7785842,-0.07839989,0.24356766,-0.7117423,-3.445141,0.07659367,0.22539398,-0.6713229,-1.9655775,-0.9513521,-0.059078872,0.27330926,-0.5752019,0.4444996,0.2639993,-4.3506513,-0.13274755,0.37509304,-0.9221161,-2.8319106,-1.152491,0.2602855,0.30833796,-1.7170177,0.51824045,
			-0.012931064,-1.5896839,0.20576511,-2.2845716,-1.2189497,0.6818577,-2.1354413,-0.471954,-1.5688192,0.3265019,-0.37965566,-0.5130798,-2.555008,0.47892433,-1.1040425,-2.592855,-0.47749224,-0.015581473,-0.26511437,-3.352899,-0.70361435,0.39390752,-0.65107363,-1.6452227,-1.7472023,-0.8372873,0.38972914,-1.6474932,0.55823976,-0.12435679,-3.4462883,-0.45871437,0.23494598,-1.3841599,-5.1011734,-0.27480924,-0.16777238,0.38551584,-1.8732275,0.21450052,
			-0.33144477,-0.9765095,0.6331102,-1.7798877,-0.3041218,0.5557007,-1.4009063,-0.6866137,-0.78442204,0.8353954,-0.38865843,-0.66268075,-4.6299944,0.9832801,-3.6774104,-2.7040558,-0.55909336,-0.57525074,0.30912578,-3.5498223,-0.69963497,-0.21128416,-0.67752826,-1.7411809,-1.4299122,-2.4855695,0.28358462,-2.5790493,-0.24915664,-0.66790515,-2.8338718,-0.34643462,-0.16074574,-1.5635763,-6.760915,0.18587194,-0.86748505,0.11760614,-1.3892018,-0.86986375,
			-0.11041668,-0.15913086,0.68259895,0.14829184,0.48193952,0.58785576,-0.39329386,-0.7659657,-1.3741126,0.028590888,0.0948258,-0.60042906,-4.164342,1.4150995,-5.1626763,-2.5946863,-0.97948545,-1.9580715,0.16741943,-3.2206833,-2.5704565,-1.4044671,0.17779697,-1.1434377,-0.8382727,-3.4376764,0.29397866,-2.8673465,-1.3557508,-1.4387987,-3.123942,-0.45571363,-0.25426397,-2.7709076,-5.397621,0.2498164,-1.649612,-1.1625732,-2.0761132,-2.1664774,
			0.090190016,-3.3225737,-3.0315745,0.75935507,-0.016570205,-0.3982433,-2.7143378,0.014887195,-0.32908472,-2.7443922,0.65397173,0.9870841,-2.4981534,-0.04153318,-2.2273525e-06,-2.4082286,-1.9843607,-0.31811953,-0.9717846,-3.306561,-0.15722907,-6.035765,-3.437609,-0.89078933,0.8560902,-1.7502321,-1.3403033,0.29673874,-1.5325332,-0.8805289,-2.4833016,-1.3662107,0.59233385,0.49840438,-7.086431,-8.007168,0.17569871,-2.7174444,-0.17718884,-2.7025306,
			-0.08683906,-3.6306543,-3.3419597,0.8995886,-1.3306805,-1.0402741,-2.6500561,-0.039892424,0.54115826,-1.5482723,0.15166289,1.0679153,-2.733546,0.08894273,0.5886587,-2.4917526,-1.2804759,0.47921497,-2.2109866,-2.833731,-0.4853812,-1.8406183,-3.3179424,0.23109877,0.43381852,-1.5706446,-0.43393344,0.69377,-1.1230533,-0.3580972,-2.4549787,-1.1013952,0.6020302,-0.65982825,-7.519217,-4.305308,-0.26511595,-0.4327534,-1.63003,-2.1950228,
			-0.31415686,-3.0695877,-2.6245816,0.18938886,-3.1124544,-0.47275147,-2.051959,-0.48796982,0.361515,-1.2923256,0.122730926,0.6129784,-1.5157124,-0.072414264,0.67314935,-2.2874255,-0.99513465,0.32984313,-1.9421979,-2.7857773,-0.6969145,0.11167579,-1.7792957,0.83278555,-0.7856086,-0.37003917,-0.25422874,0.10936702,-0.15752931,0.20659515,-3.168807,-0.82373357,0.5295741,-2.0311856,-5.4029956,-3.4445543,0.1874894,0.20125602,-1.7447913,-1.1026723,
			-0.0023926254,-3.5033362,-1.5885838,-0.65050614,-4.2033257,-0.046113633,-2.2106118,-0.4649885,-0.6163036,-0.7147615,0.6364254,-0.012369155,-0.6863741,0.18483247,0.156165,-2.4396863,-0.9575688,-0.024307134,-0.3928856,-2.7739358,0.005941721,0.17095551,-0.3663262,1.0547547,-1.340387,0.523439,-0.053799756,-1.5251839,0.44110513,-0.19014351,-4.3358,-1.002519,-0.094126604,-2.6012669,-2.6623096,-1.1874071,0.27909997,0.3985596,-1.0856512,0.14105631,
			-0.5945449,-2.2821507,-0.49674708,-2.6417725,-3.629991,0.5215596,-2.7913594,-0.40316778,-1.7046373,0.34591517,0.28045794,-0.60953087,-2.2337387,0.073331654,-0.821269,-2.2882714,-1.2909136,0.21206373,0.105536185,-2.9664226,-1.3255339,0.41821024,-0.30578107,0.83743215,-0.9735738,-0.6742382,-0.13036627,-2.4876618,0.682224,-0.72203726,-3.3493187,-1.136546,-0.6512941,-2.298209,-5.067513,-0.88404673,-0.743405,0.17330417,-1.3946589,0.9911433,
			-1.2322631,-2.4982634,0.6739101,-2.241881,-1.5893416,0.35777447,-3.0743542,-0.33500385,-0.9269774,0.9534566,0.2858242,-0.78965926,-3.9368792,0.7297125,-3.8189456,-2.5332932,-1.451185,0.094352916,0.4372384,-2.824561,-1.7280858,-0.16504653,-0.4890257,-0.09810129,-0.8284504,-2.3790677,-0.15233514,-1.8582714,0.46298558,-1.5501026,-2.8811064,-1.0690624,-1.0725809,-2.6282864,-6.349801,-0.047363218,-1.4696574,0.026381157,-1.256713,0.418853,
			-1.0204949,-1.1876111,0.6979945,-0.4760465,-0.09386532,0.1879551,-1.3036748,-0.706738,-1.9143364,-0.1332778,0.9002353,-0.6534125,-3.8443298,0.7264764,-6.549154,-2.4568229,-1.6166847,-0.5662722,0.25864404,-2.7738738,-3.4525518,-0.99789643,-0.1512934,-1.0344284,0.023097213,-3.6477823,0.06977781,-4.1456842,-0.36585885,-2.5065851,-3.2027793,-1.2032946,-0.87240607,-4.0661016,-5.290431,0.3224411,-1.8507298,-0.9862898,-1.2919761,-0.2427868;
