			-0.005112156,0.050786175,-0.0012733295,0.06460129,0.0014890815,0.035817605,0.0036010502,-0.021423025,-2.3389814,-1.4483528,0.06431822,8.927556,5.2435117,1.2944149,0.12680586,-0.5115715,-0.9057989,
			0.006342346,0.09829657,-0.07366626,-0.012919266,0.26638,-0.13006185,0.08898459,-0.0046000695,-0.13521603,-0.6079734,-2.4016964,4.8324018,1.4762304,0.7445919,-0.16290367,0.7976908,5.995018,
			0.14788969,0.011453398,-0.12586765,0.098027304,0.16284767,-0.09106518,0.17405894,0.010079602,-0.5566726,-2.648826,-1.0985054,-0.16707683,1.0635248,0.9727663,1.0384108,4.1916046,2.1959352,
			0.012764947,-0.004512831,0.045002,-0.050217956,-0.07929397,0.037963673,-0.01488,-0.0108426595,-0.5120132,0.5246987,-0.24942829,9.019668,-5.2926526,0.674781,-0.644121,1.6703727,-0.89052445,
			0.04195098,-0.049613766,-1.3076129,0.6811464,-2.9975832,-2.3385932,1.6490896,0.108430885,0.4693687,0.27045262,-0.46444717,-7.342339,3.9994059,0.7114188,-0.16107796,1.2776163,-4.7926784,
			0.03445776,0.08055641,-0.014124949,0.10380179,0.3146616,0.076675266,-0.035742324,-0.02110311,-3.9469306,0.8224779,-0.03375259,-2.2105515,2.461881,0.9389758,0.9832822,0.77753776,-0.20161763,
			-0.009715641,-0.042431187,-0.15089487,0.18068922,-0.15840751,0.09812975,0.0003525969,0.0028630742,-0.60104644,0.14902267,0.34526947,9.370171,-1.404285,-0.8985432,-0.64577067,0.52740246,1.7398473,
			-0.018941563,-0.042816006,-0.049608596,0.189966,-0.28704777,0.10793857,-0.026622185,-0.08897538,-0.4877925,1.3952446,-1.9303663,-2.209541,3.740987,-3.261842,-0.66847235,2.4341538,-0.010269589,
			0.00075780053,-0.14212857,-0.21948649,0.12432397,0.23418081,0.05402924,0.0032920465,0.021916011,0.050456878,-0.30635318,1.1248175,-0.7587359,-2.0262868,0.96122545,0.58340156,1.6466001,-7.716885,
			-0.0101864915,0.022019036,0.004560396,0.0256035,0.07954248,0.061482485,-0.039394613,-0.01614022,-0.013197943,0.03982824,0.044559836,-10.333521,2.4652233,0.4716843,0.009681763,0.06254394,-0.03910914,
			-0.029634066,0.024921557,0.0532202,0.053645823,0.21688156,0.12577182,-0.052467734,-0.06482973,-0.0584542,0.4431595,-0.16927682,5.1345606,3.3007407,-3.4387095,0.46868828,0.61483043,-3.533994,
			0.019567452,-0.0055450923,0.02115128,0.0897892,-0.1095401,0.10031721,-0.021457545,-0.041276947,-0.16732934,-2.7735486,-0.23633425,3.3356392,9.08496,0.7034151,-0.20352757,0.47268593,-1.1369281,
			0.002986958,0.028581614,0.054338142,-0.039059587,-0.019908393,0.018877108,0.027763719,-0.017170692,2.2043674,-0.17506118,-1.3128366,-5.4236317,-1.7872713,1.7701811,-1.6245916,1.617538,0.30822942,
			-0.021821288,0.028700784,0.043607313,0.10710109,0.3620987,0.15947287,-0.08747029,-0.084697984,0.26954854,1.086389,0.7571617,-2.4687114,1.4446659,0.22114238,-4.045708,-0.08752351,1.283471,
			0.046036936,0.08091819,-0.07278255,0.15534186,-0.18508577,-0.38600072,0.2213194,0.07710082,0.77106816,1.5950041,1.6436853,2.6228538,-1.7246373,-1.4475793,-1.2851857,-4.539717,1.065156,
			0.03710164,-0.021846863,-0.52487034,0.43778884,-0.79609376,0.89237744,-0.6367607,0.23492293,-0.32287553,1.673698,-1.6985512,-3.9804292,4.5006976,-2.2662473,0.18385452,2.5016406,-2.734001,
			-0.060808163,-0.020617547,0.023608066,-0.05212688,-0.25337315,0.4655263,-0.32984683,-0.092563316,-0.6252466,0.66972935,-0.13141811,-7.5248957,0.7433006,1.6973747,-0.0008716666,-1.5579405,3.616329,
			0.041362733,0.008372635,-0.13589433,0.0071784807,0.086372204,0.22360736,-0.22109643,0.057542533,-0.027549464,-1.3351972,1.7629695,-8.494548,-0.0737706,1.2484825,-0.9203959,1.9861481,0.77650017,
			0.020790601,-0.10905673,-0.15634677,0.07906883,-0.026419012,0.16289556,-0.11637707,-0.045846622,0.07958707,-0.22381791,0.31912294,-5.789566,5.9964533,-1.6629506,0.6393092,-3.4282026,4.9546046,
			-0.1181609,0.1638537,1.3009229,-1.1889665,-1.2607658,-0.08668158,0.15421808,0.34176713,0.78423345,-1.8116741,0.9061659,-5.2265477,10.146678,-1.2776084,-0.15481654,-0.47770926,-0.9509388,
			-0.016905302,0.009220087,-0.03198862,-0.089106284,0.016460164,-0.08883232,0.015621442,0.03230323,-0.022496648,-0.09721387,0.107074425,0.79837865,12.689288,-0.11381144,-0.15020029,0.1588872,-0.26982126,
			0.007054671,0.058674447,-0.049667366,0.19208883,-0.20283684,0.065769956,-0.003952519,-0.011704905,1.3559339,-1.9060749,0.19060652,-0.93963194,1.8340911,-0.2023832,-0.9697563,5.0735016,-3.4258368,
			0.06012036,0.03290659,-0.049214322,0.16541071,-0.041480593,0.06575468,0.08361624,0.03994674,0.08916952,1.2919116,0.1423576,0.061640456,-0.11479311,0.057850793,0.1432766,-6.417227,-0.5168828,
			-0.028447997,-0.0034909109,0.06927539,-0.08392201,0.1510865,0.06927933,-0.065835945,-0.0016986672,-0.83705693,2.0820348,-1.129964,-1.2981104,-1.7182142,1.1244887,1.3036244,-4.9717684,0.59258133,
			-0.00081207923,0.015280435,0.008569907,0.027984159,-0.23359826,0.4187867,-0.31055263,0.034219626,0.6939416,-0.08055439,-0.41003734,10.209275,-0.9403349,-1.3522806,0.5932542,-0.4307476,-1.1622801,
			0.043328136,0.033647694,-0.14579435,-0.80906844,-0.31849843,-0.56509405,-0.16749565,-0.056096967,0.03947098,-0.13264404,0.1153859,0.767325,13.904676,-0.34103298,0.017644389,0.26732856,0.13749672,
			-0.0034512249,0.028926471,0.06427288,-0.0022665914,-0.0537183,0.011326602,0.005387935,-0.08969771,-1.6843408,-0.04968557,1.2128781,-0.76791847,-1.4843624,0.7253523,1.6088288,1.1307328,-6.787396,
			0.023617353,-0.021795586,0.104295805,0.082049586,0.07361606,0.224886,-0.048584543,0.0033441852,0.49179938,0.81752396,-3.0366437,4.3756037,2.667941,-2.0368147,-0.0093402965,1.6262119,1.1839045,
			0.054028653,-0.025117848,-0.11734525,0.1528662,-0.19247343,0.10277459,0.032067735,0.030677702,-0.09502639,0.00067106204,-1.9624648,0.87896264,0.06772571,3.5642931,0.49313667,-0.09372476,-5.8013597,
			0.038064867,-0.0019789785,-0.055852722,-0.08387948,0.17255318,0.017543016,-0.056934245,0.034729365,-0.14452048,0.105961025,1.3124875,7.282714,1.1194347,-2.622248,-0.8327081,0.4199513,2.3924491,
			-0.0055107307,-0.023363737,-0.4075315,0.3610095,0.44972175,0.19581671,-0.10813556,0.14508224,0.052327834,-3.0694256,0.38201302,2.3477437,9.104969,-0.2193486,-0.13269725,1.7198058,-0.32673386,
			0.0034770563,-0.0016016716,-0.03075386,0.09074514,0.47633275,0.24664588,-0.08889858,0.06277653,0.492437,0.89395696,-0.84179944,-6.632539,-6.653512,1.960334,0.12477308,1.5527133,-2.3451295,
			0.025257168,0.043991297,-0.31106022,0.41890725,-0.5239532,0.05814341,-0.0170412,0.012503578,-0.10295885,0.6812693,0.5798778,-4.421501,-9.282204,-1.0077982,0.8455996,3.7058282,0.78250176,
			0.041367248,0.031677365,-0.2875768,0.3727457,-0.045609914,0.09844321,-0.038742717,0.059892382,0.32718533,0.38670072,-0.3568359,1.6833967,6.2027497,0.9767809,-0.91424346,-5.846252,0.72085357,
			-0.034415614,0.074432544,-0.11908868,0.19342053,-0.001662302,0.030265588,-0.054742243,0.0061540925,1.0220046,-1.0123991,0.35683566,8.016121,-5.2368126,0.58205885,1.0061256,-2.1306925,-0.05099826,
			0.027933797,0.0067794686,-0.055181462,0.037369885,-0.014454525,-0.008197269,-0.0003623689,-0.07511214,-0.15974535,0.39342538,0.48116356,2.5560176,3.2171757,0.90505856,0.09809503,-3.0349293,-6.9934745,
			0.07809538,-0.15098351,1.8613788,-1.7581489,0.6874806,-1.4805881,1.2999182,-0.15033817,-0.068222806,1.5958947,-0.5988456,0.91223395,-13.596171,1.4232836,0.32319066,2.31844,-0.5362872,
			0.050038707,0.027642502,-0.21564612,0.45534557,-0.3774137,0.31743935,0.07447656,0.12078827,0.3305108,0.45451173,0.754764,-3.1368253,-11.236345,-1.4961326,0.42015493,1.1701884,0.8470988,
			0.005827221,0.064473666,0.2368601,-0.2554688,0.519782,0.0013595411,-0.015012453,0.011413318,0.29269838,0.1943714,-0.31379825,8.8507,2.0736823,-2.7457209,0.42715603,-0.418876,-0.42315707,
			0.012847669,-0.0504831,-0.13052103,0.12757991,-0.29531935,-0.12736815,0.09977755,-0.013576711,-0.074403115,-0.22758125,0.09454366,-1.630019,-4.8533473,0.7269679,0.07617652,-0.3877737,7.2972093;
