			-1.548386,-3.1421165,0.45854,-8.360243,-1.2141706,-0.2980962,0.5597908,-0.65594447,-1.3808414,2.3691518,0.62479013,-1.1224561,-1.8782021,-0.40840656,1.3560609,-2.097143,-0.9009533,0.4462989,6.442011,-1.1913693,0.060677737,0.2142104,0.6350979,-2.6111073,2.1805704,-0.283473,-2.5003955,-0.1921067,-3.3641055,1.6417925,-0.83419114,-4.119088,1.0027524,-1.0618728,-0.769321,-3.1677735,-2.6010556,2.1084394,0.67987895,1.0965005,
			-0.13409354,-0.44204605,-0.01931259,-6.0164223,0.5361906,0.915872,-2.001618,0.57989275,-0.22631997,8.372229,-1.400284,-0.6925503,2.2468698,0.41803348,-0.4223722,1.7279665,0.6014581,0.6167261,0.41952062,-0.5316838,-0.07773021,0.51372004,-0.017940577,-0.14665298,-2.168075,-1.2605393,0.9497312,-1.1715057,0.099619314,-1.011136,-0.24711874,-1.1038948,0.06856539,0.44828293,-10.94409,-1.1703736,-0.45420432,0.78053576,-1.2977228,-1.516781,
			-0.29238945,-0.22477639,1.4227624,0.5803264,-4.6616917,-0.52558583,3.5993,2.2978077,0.052557442,-5.75953,-3.2238104,-3.1412513,0.13759603,-0.55023265,0.3722127,-1.0388763,0.5087831,0.35181004,-2.337252,-0.7243375,0.022333067,0.40426323,1.4023063,0.95937175,0.93659997,-1.6935929,0.19561712,-2.075424,-1.0034124,-1.4302067,0.4523153,2.835656,-0.09762572,-0.23000866,1.2610961,-1.3862401,-2.50306,2.8233135,-2.2159674,-1.0679884,
			-0.14218266,0.20604378,-0.055937614,-1.0220433,-0.022868909,0.60421723,1.6521852,-1.170498,-0.37888134,2.8235445,1.409529,-1.8916922,2.1505334,1.0611511,1.0863672,0.8829104,1.8721944,-0.41623443,0.06673859,0.7992214,-0.46708488,-0.62331533,-1.1978102,-1.6352544,-1.5336678,0.40650344,1.207384,0.18623415,0.7107316,-1.2762294,-0.85921985,0.26974463,1.5655112,1.5282888,-3.6135778,-0.17019345,-1.4582808,0.27151117,-1.3492994,-2.5562716,
			1.2668171,-1.0517555,-0.21223086,0.07689521,-0.7344918,5.7673607,2.8341591,1.2142928,0.46212482,-2.829043,-0.5568122,1.8696257,-5.4153957,-1.409752,0.033657618,-0.0007510892,0.23790762,0.79579777,-2.0718572,-0.26414916,0.5538041,-1.2409663,-0.3065898,-0.0052395216,-0.94880384,-0.90652615,-1.9774213,-0.76186234,-1.0897948,-1.156526,0.026446689,-3.0539746,-1.4425665,0.44052228,-1.4782718,-1.2211679,-1.571431,-0.45945415,-0.631965,-0.8427552,
			0.04446425,0.46440917,-1.2599517,-0.2606669,-0.4051655,-0.6482232,0.62081087,1.441807,-2.1482987,-2.0451672,-1.208891,0.6269499,1.1447994,4.349103,-2.0838175,1.9976718,-2.0493376,1.5732026,-1.5183251,-0.738453,1.2771037,0.77659214,-0.033324614,-3.9433897,-3.2383366,-1.8209308,-2.8147094,-0.5253338,-1.3529019,0.58122873,-0.8066358,-0.3295478,-0.2873504,1.3002421,-7.178226,-0.26278275,-1.8501881,0.38934192,1.0793025,-0.33106765,
			-2.6261714,0.9980483,2.4216597,1.5632855,0.64103806,-0.21345076,3.559065,0.062351692,-1.6114419,-2.6774628,1.9527873,-1.477179,-1.9192624,0.6864746,0.80593944,-1.2685198,0.86490315,1.9230812,0.3279273,1.0995063,-10.149923,2.7966802,1.5630937,0.18709643,1.8516948,-2.883814,-0.5434053,0.020274125,-2.08231,-0.95877105,0.16156872,0.35135996,-0.6300231,-0.535401,0.20208842,1.5689124,-0.35766074,2.5252125,1.4819735,-1.7793392,
			-0.2589287,0.17986816,0.39992428,1.6433192,-0.9720438,0.7375428,2.5813754,-2.6419747,0.036407042,-5.468925,-0.518104,-2.1829524,1.8593521,1.0834793,-1.333756,0.7435765,0.64445007,0.17943625,-3.594943,-4.1712704,-4.160306,-0.4389768,0.0062924083,-0.5883433,1.0801961,-7.070837,1.6893463,0.550126,-1.9171999,-0.70085156,-0.51802063,-0.6350285,-2.1304746,-0.0733605,0.7291465,-1.2892439,-3.8370974,0.6112458,-3.5219052,-2.1810954,
			-2.9286308,1.447266,-0.3096915,2.727065,-3.3870866,-1.2565372,0.22425947,-1.3070577,-0.48501962,-6.7375245,0.382096,0.7868149,-0.6124515,-1.0538905,-1.2473629,-0.89769995,-3.1217682,-3.2143629,-0.01277837,-2.0639186,0.3615678,1.227288,0.86537176,1.4118636,-0.46781477,-0.062274132,-1.1138431,0.34431016,-1.5432835,0.73567027,1.1311111,-1.5161836,-0.20442054,-0.9639832,1.5649897,1.8906478,-1.2857177,2.6452289,1.6648786,0.034870412,
			2.0381575,2.232717,1.7769499,-0.6679673,0.14477736,-1.302107,-0.9001387,1.4085678,-2.1792831,-1.2505528,-0.87345093,3.5092006,-0.37413305,-0.09178194,-2.4895933,0.50634325,0.44481847,-1.7748464,0.380341,-1.6731474,-1.2197008,2.0262825,-0.41246694,-1.8088601,-0.23325649,-1.6017622,-4.888312,2.0810442,3.394188,-5.483316,1.008218,-1.5089821,-5.6900573,1.931857,-0.08199546,-2.3726037,-2.2035444,-3.218898,1.5453504,0.9361297,
			-0.21915591,0.40513167,-0.34451398,-3.4701412,0.19585533,0.0580618,-0.0058218096,0.85484296,-0.6252193,-2.8663092,6.485643,-0.061620742,-1.3097001,-0.733717,-0.44702205,3.727144,-2.6126535,-0.8242381,0.19020662,-0.32605004,1.7591779,0.6310564,1.2747478,-3.7107065,-1.1586554,-2.3550456,-0.52666736,-0.30805498,-1.2962767,1.9223936,-0.24296859,-2.4384005,-0.31220853,-1.0049964,-4.189965,0.0924319,-0.5728655,0.31018874,2.2181373,-3.142074,
			0.5089495,-1.2207551,0.03231813,4.6295023,-0.48521355,-0.49540755,3.1009603,1.6258559,-0.6803403,-2.4988809,-2.6270056,0.83707833,1.0604675,2.318697,-0.25041664,0.3092898,1.6618884,-1.3455671,-2.4290748,-2.8143842,0.07576231,1.7457448,1.445865,-2.1204967,-2.019977,-0.4765219,-0.777912,-0.46857893,-0.4682566,1.5804857,-1.7501296,-0.90794486,-7.1066103,4.0302596,-0.5465599,0.74386424,-2.0880938,-1.9899181,-2.611265,-0.22243123,
			-3.2976854,0.9718063,-2.718309,0.77936596,-0.5265544,-0.99476564,2.2937431,-0.83190006,-2.616925,0.4582848,-1.5951389,0.1984252,1.9343333,0.8862286,1.0629646,-1.3112513,1.492416,-1.1812946,-3.0344996,-3.5673792,-1.8955812,1.8895626,-0.94465786,0.06436477,0.94854486,-0.7412402,-2.4729943,1.9256276,1.376685,0.13840292,-1.0084656,0.28825802,0.075984776,-2.1467698,-0.7178961,1.3562969,-1.5118651,-1.1485683,0.42589983,1.4466976,
			0.42399135,-0.2882034,1.1309416,2.1693606,0.35171315,-1.8745192,-5.409519,-0.22681297,2.679643,0.11046228,1.3179597,-1.5063134,-0.07545344,1.5384219,-0.039522886,-0.90700006,0.28159365,-0.07988881,-2.6212401,-2.791179,-0.15603103,1.4403834,-0.7537191,-1.271591,0.36328486,0.22773291,-4.0544934,-2.096859,-0.33926874,0.9771195,-1.4143735,4.0544987,-0.22455102,-2.2833893,-0.053532884,-0.87726915,-0.77364194,2.0968614,-1.012921,-0.04023286,
			-0.8737979,-0.8768971,0.4064855,1.4686108,-0.44215405,1.8794736,-3.4688048,-0.36572304,1.1978434,0.58199036,-0.8593328,-1.2301161,-1.822313,-1.0223842,0.29122978,-1.2770144,-0.39199394,1.9814509,-4.036301,-1.2271599,-0.11979636,0.20334387,-0.056877896,4.3367906,-0.23457178,0.69388604,2.0576773,0.228717,0.82977414,0.122920215,-1.6490048,-0.681551,0.7192219,-1.7414763,0.19230624,4.133961,0.9131165,0.4570098,-1.5809468,-0.9424917,
			-0.5760407,-1.4380728,0.48333448,-1.8944236,-2.7604063,-0.24587409,-3.0466485,1.3205189,-0.7253745,3.0403066,-2.7538426,0.22387369,0.009806155,-0.28102782,-0.4095949,0.21836768,0.68214804,1.2762121,-0.8626513,-0.41951072,-1.8051252,0.21934646,0.32180524,0.4848427,-8.777345,-0.5251058,-0.023951907,-0.7792858,0.5250637,-1.5542793,-0.2601206,2.5710762,-0.28841674,0.44838217,-0.79842144,-1.8851928,-1.14401,2.2658587,-4.66462,-0.80755734,
			4.0885153,0.07993179,-0.37169725,2.7775664,-1.228198,1.1269863,1.5763693,-1.1089741,-1.6992017,0.2232539,-0.5142854,-1.7200408,-1.4535894,1.8027899,-1.9742353,0.2735179,-0.54440004,0.01264615,1.5151176,0.313704,0.87198216,-1.5923791,1.1126257,1.7063196,-3.9225986,-0.75908184,1.8421216,-1.3218633,4.2342963,0.29264623,1.1204989,-4.650251,1.1147841,-3.9405556,-0.0058885133,-1.1727324,-1.5557295,-2.0846546,-1.3562608,1.4301771,
			-0.6069692,-0.91082966,-0.22290927,-11.114274,1.7507347,-0.364061,-4.701973,-2.270406,1.9443136,1.9454831,0.39570484,-3.0204196,0.6017033,-0.6845277,-1.4608847,1.6248577,0.16373436,-1.3214633,2.0273225,1.4447099,0.38906264,1.5959448,0.55853534,1.2748815,0.069677725,-0.5287323,-0.52892184,0.6715779,-0.77593046,-1.4521363,-0.22228304,5.2447505,0.60672987,-0.9900354,0.46106797,1.6383052,-1.6796937,-2.766529,-0.7254476,0.96808726,
			0.31141004,2.743687,0.5557561,-1.858336,-0.23353916,-2.1027062,-1.4053094,3.8561785,-1.3501898,0.01503812,0.022321142,0.28372398,0.12405503,-0.5866227,-0.18385546,1.193152,0.1065282,-4.4433117,-1.6979282,-2.945882,-0.106057405,-0.27768436,0.018793572,0.7435692,-0.9884592,-1.9630649,-3.7378232,2.9963539,0.28455508,1.1386485,-0.7740985,0.22810559,-0.8996614,-1.2447333,-2.4071233,-1.9545754,-1.6528375,1.7075678,2.0072067,-1.7232254,
			-0.75674754,0.9747975,0.50741756,-1.0049869,-0.2550259,0.20036384,1.5128698,0.96919096,0.17257316,1.190462,-0.37313437,3.3789139,1.5647969,0.28853962,1.4476283,-0.041872144,-0.6347338,0.91634035,2.693518,3.7869995,-0.6822617,0.11212376,-0.5145158,0.45694777,0.39327797,0.9268209,0.98401386,0.006677722,0.69521695,0.3419572,0.51356816,-1.6766806,-0.49452382,0.34991938,-0.37515843,0.7752968,2.5759459,0.42885742,0.24649031,-0.020022256,
			0.14198317,-0.25064683,-0.82274294,-2.8239503,-0.3965954,0.007822166,2.1983325,-0.52907896,1.640762,-0.7830185,-1.0334514,-0.13789096,-0.1347561,-0.99587697,-0.7555345,-0.03265672,1.5538876,-1.0182867,-0.057821177,-2.553267,-1.5903977,-0.73874265,5.9825535,0.8107856,0.49850756,-2.3143442,0.25087577,0.050803836,0.16598497,0.052350752,-2.5386894,-2.4006505,-3.800264,2.3915286,0.04275174,0.34717232,-2.9538677,-3.0937476,0.17593576,-0.77520084,
			0.33268562,0.99167424,0.046501253,2.360927,0.68855655,1.3115966,-1.6679624,-1.9135044,-3.1058562,-0.047399405,1.1461958,-0.35977393,-3.8664184,-0.44552368,0.8947534,3.3050706,1.0866032,-2.5468907,0.7242657,-0.3466744,2.4454648,-2.98191,-0.30725974,5.1469727,-0.9584094,-1.9891472,-1.0680563,1.0143224,1.0734264,-1.8528252,0.9393107,1.5781574,0.04890031,0.71327376,-0.14948578,-1.8203863,-1.1098856,0.79281956,-0.5510052,1.2044365,
			1.5322403,-0.33436236,-0.04763381,3.1631656,-0.7357115,-0.92601705,-2.5353718,-0.85032946,-1.1067353,-2.8717127,-0.71734947,-0.44879103,0.48924884,0.5043424,0.77665234,-1.6262436,2.4695525,-0.39682654,0.12723397,-0.7677329,0.30013996,-0.017021561,0.36823583,-0.71076334,0.022308236,-0.35392702,-0.68344724,-0.94061315,0.6975079,-1.3326033,-0.1315483,0.16793142,0.58405185,2.645623,2.2459862,-0.16978638,-0.37031227,0.38998908,-2.842078,-0.36759597,
			0.8732496,0.55843604,3.0178683,-2.2880692,0.7601983,-1.162817,-0.9730752,-0.43082592,-0.8848865,-0.5967437,-0.5124996,8.014034,0.3963482,-0.7274511,-0.9118413,-0.26133668,0.8832095,0.5801012,-1.7505132,-0.37744603,0.14782119,1.5305618,-3.8651547,-0.621386,0.41046023,-2.9698167,1.299723,-0.6033106,-1.1618872,1.315611,5.2394285,-2.6046052,-2.2020476,-2.9287155,0.09998877,-0.85956043,-1.967637,-0.38524795,-0.40110028,-0.5198479,
			0.052609805,-1.6835378,-0.02034982,-0.51118886,1.3923571,-1.2300473,-0.70836115,0.78317237,2.884951,-0.2551862,-0.050850842,0.66520995,-1.6054871,-0.71896464,-0.64330953,0.30620393,-2.8059864,0.36810252,-3.2296221,-0.04976848,1.0099363,0.282474,-0.15406053,-1.2670699,2.6214375,-0.582861,0.16109353,-0.9346596,1.0201592,-1.5579903,-0.41870964,2.2322776,-0.4224176,-0.08786805,-1.7849851,3.0336666,-1.3488065,0.6045833,-2.0405025,-11.695233,
			0.088136785,-0.22109586,-2.0441885,-2.772778,0.000804965,-0.096469626,-0.20747586,-0.35753432,-0.7233356,-0.64346427,-0.10170022,0.63787055,-0.06890052,0.28923106,-0.9747757,-0.09749299,0.4564907,-0.16052417,2.3926992,1.1596128,0.89073527,-0.61496276,3.4607627,2.8425364,-1.0855255,-0.8771691,0.48463225,-0.048746668,1.0620507,-0.9299192,0.6535961,-5.1346784,-5.2704945,6.367896,1.1803938,2.4588091,-1.8491964,-1.4160411,-0.44616956,-2.1203997,
			0.5013521,0.7814381,-0.1223485,1.7409817,-1.4566082,0.50550824,3.32485,-0.004804615,-1.2582091,-3.6130707,0.21268466,-0.99267745,-0.40199727,0.99227136,0.8316967,-1.3007252,-1.647935,0.30986863,0.26833817,-2.384969,-4.4578266,-0.40564522,-1.3676744,-0.30267113,-1.6224514,-2.5777545,0.4129813,-0.017882554,-1.5903544,1.3041439,-2.2284296,-0.105467565,0.72517884,0.40796664,1.6910185,-2.4630687,-0.87500066,0.46761063,2.920774,-0.61959714,
			-1.3036916,-0.939906,-0.30452874,2.481435,1.8765094,-0.26059294,0.8380978,-0.71147645,0.036072314,0.2372635,-0.16859342,1.1359762,-0.6972174,-0.99070483,0.30478975,0.6612318,1.2157482,-0.5992877,-0.484519,-1.5065991,-0.2652357,-0.73812467,-1.4348168,-0.51544404,1.4606907,-0.19586031,0.20679559,1.2761449,-1.4332247,0.63640547,-3.6225991,1.87443,2.0412054,-1.3025006,-0.26985234,-2.4644022,-1.0439844,1.891029,1.236891,1.3001047,
			0.53631455,1.8600029,1.1088297,-0.40080568,-0.0139926355,-1.1956403,1.7223964,-0.32793552,-3.4133723,2.0345309,-0.4801327,1.6846781,-1.196722,-1.8804301,-1.9434125,-0.5070913,-2.144133,1.7452264,0.5908225,-1.7137995,-2.7185655,1.5144992,-4.5196705,-2.7643714,0.7887488,-1.0007865,0.19785176,0.7733212,-0.740527,0.44181073,-0.18547237,1.0521533,1.5495462,0.23477405,1.2951783,-5.7311726,-0.48842004,-0.42739907,1.2602688,-0.00372301,
			0.20081894,-3.3767612,-2.5017638,2.3138227,-0.07266426,-1.1103485,-0.8726356,1.2136825,0.5830548,-2.8176932,0.47511438,1.0848036,-4.5120745,-0.39569053,1.2905921,-0.3503686,-1.6624022,-2.3322544,-1.3214778,-3.425188,-0.9124998,-0.51630217,0.81181306,-0.03400015,-0.26054302,-0.4513467,1.5356995,-0.677772,0.08785821,1.6391445,-1.8444233,2.2672746,0.024783038,-0.8174147,2.0917928,-0.19770497,-1.2422674,-0.6215141,-0.44615558,-5.7611012,
			-1.0610535,-0.3876958,-1.2017475,-0.6574562,1.3242764,-0.40099496,-1.9275299,-0.7361819,1.7568208,3.0509126,-0.4205385,3.0214255,0.89519536,-0.5209883,-0.35906214,-0.13233162,2.050594,0.06882437,-0.9330337,-0.76146996,-0.9668607,1.3107483,-0.5158772,0.26718742,0.18010351,-3.8404267,-0.31828165,0.37755564,1.5897211,-0.976325,-1.2729217,0.36450028,1.9550334,-2.881249,-0.00115928,1.8940446,-1.9200077,0.36302438,-1.1207937,0.9329199,
			2.239761,-2.380331,0.76971394,-0.38474214,-1.797955,0.15229468,-4.1881075,-0.056711044,-1.68683,0.27703762,-4.354829,-1.011091,0.8534237,0.37284306,1.1643239,-0.31854033,1.8136715,1.4345936,1.984972,-1.3967882,0.0708845,-0.80586004,0.74586797,-1.4767479,-4.4947405,0.47550216,2.2666986,-1.5119212,-0.6926548,-1.6021944,-0.067166105,2.783624,-0.5778149,0.9161697,-1.2807189,-3.2208426,0.46586135,0.88901144,-3.6954303,-0.023039145,
			-1.1379462,-0.631719,-2.7323048,-0.16008478,0.41142035,-1.266316,0.049979515,-0.49697098,0.9303364,1.4398222,0.99960107,-0.7080185,0.8855754,-0.13814126,2.8084567,-0.807824,1.5839087,-1.5809307,0.5985083,-2.3269804,-0.6247591,-0.8671691,1.684363,4.467458,-0.096898556,0.010785522,-1.2512956,-1.0982978,-0.58776975,1.5435847,-2.428659,-0.9486485,-0.8577872,2.4470925,-0.008359655,-1.1907347,-1.087975,1.5857466,0.59862477,0.43173337,
			2.0591438,3.0545633,1.0416832,1.2375385,-0.6124903,-0.6018776,0.6148133,1.960098,-1.5651414,-2.5560398,-1.0853726,-0.28460488,0.13898927,-1.7848774,-3.1006339,0.65104586,-0.7145898,-3.1172256,-1.3096458,-3.0317192,1.1570556,0.46827823,0.51741725,-0.12966792,1.9786617,-0.3383367,-1.6768038,3.3315895,0.41810253,-4.717725,-0.72179204,0.40620705,-1.2299404,1.6278527,-0.6201019,-3.2928934,-2.013576,-3.927423,-2.0739493,-1.7515132,
			3.0458596,-2.8115468,1.3653957,3.375236,-0.7438112,-0.5069542,1.3433731,-1.3154576,2.7118204,-1.1413138,2.4051368,0.20955211,-3.987924,0.95239824,-0.06284057,0.07568175,0.2996205,-1.5224358,-3.7314155,-0.5917401,0.06419225,-0.25339103,-1.7757051,-3.2067478,0.37248278,-1.3825296,0.8599805,-2.8857396,-0.97715616,2.2887564,1.9329324,-2.9252005,-1.3089986,-0.3167803,-0.28391525,0.46505445,-1.918234,1.8378145,0.066908434,0.10556818,
			-0.515386,-1.0080414,2.3241866,2.1785517,0.29544008,0.112654105,-0.2193672,-2.2831745,0.11025691,1.407477,-1.8777174,2.1953201,0.031520173,-1.4489542,-4.4662013,-0.97080165,-1.0970647,1.4601659,-0.67719877,-0.63875794,-0.060330193,2.3169003,-2.0704823,-4.6813116,-1.1748693,0.32247123,1.3724508,1.1820841,0.3623107,0.05793676,2.1120012,-0.8005268,0.7716345,-1.9436288,0.79113,-1.5825819,-1.2550092,-0.17184554,-0.59570765,0.64770097,
			-3.4809747,-0.578737,-0.2807528,-3.534874,-1.9040471,-0.34697717,3.4448164,1.6633872,-1.3687043,-8.074417,2.5583003,-1.096517,-0.59788764,-0.61536515,0.60690075,1.0963252,-1.3636265,-0.5398948,-0.33515796,0.04918444,1.237918,0.27066898,0.06411942,-0.6011327,0.65891373,-1.0790371,1.4593936,1.5765977,-2.9158514,1.897451,0.52485687,-1.8920679,1.131211,1.5707093,-0.94485915,0.2993257,-0.86008424,-0.1608352,-0.22568986,-2.323938,
			0.20290369,0.5985825,-0.37299603,-0.3098024,-0.051760748,0.20452726,-0.46434447,-0.5878056,-0.27764848,0.07324112,0.44966626,0.3049477,-0.2900136,0.22128858,-0.09317295,-0.042193923,-0.18104258,-0.3348695,0.252948,-1.2321178,9.824441,0.13531135,-0.37027013,0.4883276,-0.54317915,2.6515903,-0.25766495,0.19295223,-0.29253665,0.2587911,-0.22826695,0.042942584,0.48834044,-0.13081555,0.3988561,0.09072001,-0.20592006,-0.2842978,0.83583575,0.040142518,
			-0.5606062,0.4503246,-0.89405113,4.1154275,0.108446695,-1.7528324,0.46928367,-0.98886395,0.49577206,-0.72413206,-0.13885638,1.4010255,-0.7744664,1.4357626,-1.127495,-0.30310905,0.06129249,-0.27373424,-0.76030123,-0.81100714,0.9433249,1.9788412,1.3848552,-1.7312207,-0.18755776,-0.97657734,-4.9223857,-0.4286015,-0.67761433,0.8050345,0.12330203,-3.592133,-8.769688,7.156774,0.07355925,-2.1589715,-1.3289104,-0.77571154,-0.6109863,-0.32443506,
			0.75327,-0.38826844,-0.19233505,-4.6416674,-0.08085589,2.5679643,0.62585753,1.9057552,-1.4293469,0.18457983,0.28814507,-1.8363564,2.6572554,0.016416263,0.11514733,2.7570896,1.4952347,-0.7817229,-2.0497594,-2.3021963,-2.4928956,0.5263774,0.19707866,-0.6325911,-3.8381264,-1.4435948,2.1342843,-1.1887226,-0.9121551,1.2606121,-1.2501072,-0.41660017,-0.2776538,-1.0207303,-9.414951,-0.5870256,-1.351399,1.1330413,0.45738485,-1.637105;
