			-0.1253139,-0.0063472064,0.03630233,0.004137002,0.13247682,0.020145886,0.15659337,0.0007538812,-0.10342942,2.3916035,0.36851797,-3.4584146,2.901511,2.0839424,-0.046105538,0.3851272,0.058449227,
			-0.6713655,0.025450502,-0.03188202,0.098562315,0.8718532,0.0036775258,-0.24848203,0.123544514,-0.88399094,8.893554,-0.03752723,-1.6937442,2.442108,-3.6482902,-0.34089473,2.4944005,-0.01734076,
			-1.3211069,0.04479587,0.2214455,-0.15967876,1.4872005,0.16654325,0.4015501,0.16565654,0.14785147,-9.0720825,0.17562038,1.4408652,-5.209515,-3.1962214,-0.3331427,4.044449,0.03550083,
			0.54326564,-0.219331,-0.32568055,-0.24319933,-0.80644995,0.13146947,0.12054303,-0.52190566,0.020081855,29.424253,-0.51275957,-0.079735786,-3.4509695,1.0538958,0.2695487,4.9417396,-0.31308272,
			-0.029085016,0.02784351,0.010637338,0.026729034,0.09333981,-0.0007057586,0.07073953,0.029582303,0.06766982,-5.683775,-9.245651,0.55002385,0.8678503,-2.1725814,0.69721955,1.3331442,0.67354107,
			-0.16809382,-0.03345518,-0.019538274,-0.05088417,0.1639136,-0.029665373,-0.030453937,-0.03974544,-4.7634807,1.8391931,0.5838619,0.021586506,2.3342896,-0.22103496,0.20906118,0.9857552,0.18745422,
			-0.009732451,0.062073316,-0.024807975,0.0482127,-0.04076533,0.03335357,0.18082015,0.0836948,0.23299345,11.733363,2.140904,0.058409333,1.0459892,0.80257,-5.743016,-2.1684031,1.542737,
			-0.1271394,-0.016620629,0.025913345,0.04189516,-0.046697125,0.019846553,-0.06535755,-0.030457899,-0.030911108,-24.378567,-0.7503008,-0.0093239555,-0.17468446,0.54646724,0.18072073,2.3544443,-0.0815141,
			-0.00032515707,0.20868328,0.07708396,-0.098348334,0.0085904505,0.13090357,0.39440256,0.23954083,-4.4382963,-0.9494436,3.2511013,-0.64607626,0.8082525,2.6440463,1.3764472,1.1768088,0.28264746,
			0.14397456,-0.008265364,0.10678395,-0.22954217,-0.5416419,0.081361756,0.13519746,-0.3301264,1.9516789,16.575188,1.4032409,-0.71759933,-0.22878674,2.9236689,-0.54533374,-4.1236553,-1.315436,
			-0.052873854,0.015398899,-0.0073868674,0.00042574073,0.16445738,-0.011272606,0.05257939,0.13621713,-1.6219804,-8.62655,5.3186507,1.734608,-0.7181418,-2.9272163,-2.1020632,2.9770472,0.4222857,
			-0.0019893216,0.0029622435,0.00012431825,0.001091671,0.007694996,-0.0051258462,0.015457279,0.0007233467,0.041753847,-1.716251,0.27287063,-0.04338473,-2.7965915,-0.23142749,0.055302404,8.012143,0.0752171,
			-4.3245287,0.0148461135,0.8994174,1.4466116,8.034349,0.2774071,0.07638475,2.4796844,1.4309046,2.2194357,-0.23320684,-0.13561505,-1.6816214,2.7174408,-0.964628,-1.5675545,0.4991765,
			0.16358222,0.14541863,0.038703177,-0.10310315,-0.109921485,-0.040978864,-0.0070091295,0.23777248,1.0262542,-14.553531,-5.4220457,0.8717379,0.10100155,-1.9204168,-3.0889273,1.8045512,1.8484434,
			0.74316853,-0.12681009,0.11217386,-0.08101799,-0.6382548,0.028597515,0.2142485,-0.07787949,0.044931762,4.588088,-0.33390623,-0.07299908,-8.60187,0.4114232,0.2161478,0.10329324,0.03896955,
			-0.86834407,0.07623645,0.016287172,0.11952495,0.9360168,0.043243386,-0.13450472,-0.04893498,0.19833654,-8.96444,2.1078172,-1.1533612,-3.3210118,3.9561782,-0.41357082,1.5741894,0.034525625,
			0.7443888,0.07634606,-0.04997496,-0.036760483,-0.23346755,0.047514573,0.05428414,0.22935851,-1.2908051,20.152107,-3.4569447,0.054603245,-1.3593572,-0.96739453,0.9168808,6.513158,0.90706545,
			-0.0497792,0.014121061,0.025540905,0.018179292,-0.02637546,0.018625572,-0.025470685,-0.0135894185,-0.56933117,23.40202,-0.92306304,0.11149279,0.24404053,-1.7073251,0.8820626,-3.347441,1.1137223,
			0.017123738,0.038470745,0.020811288,-0.09132548,0.01289863,0.049057465,-0.029217703,0.03243075,0.7137744,6.37941,-1.7568848,-1.6125538,2.3358161,-1.9130844,-3.2114708,4.578614,0.34067875,
			0.1386339,0.106599,0.01548166,0.008827409,-0.05587537,-0.07631814,0.13242191,0.2340227,0.22059067,12.234675,5.5346494,-0.1318014,1.4531264,-0.4974753,2.0548944,-4.0381827,-3.136667,
			1.0509673,0.044336546,0.006133507,0.00647396,-1.1345699,0.14569713,0.21890025,-0.08132398,0.35157067,-22.480862,0.35041624,0.05983701,2.3277707,0.32261243,-0.36996862,2.6291504,-0.42792588,
			-0.43749225,-0.013444634,-0.07192359,0.13703445,0.2421059,0.047830634,-0.33472967,0.09339592,2.5915565,1.4985482,-3.735212,-2.2064712,1.1707821,2.8639827,0.6908239,-4.5726943,0.54504377,
			8.235877,-0.05633157,0.13350303,-0.4031685,2.141127,0.6136827,-1.8750858,0.7493174,1.5911072,-10.055175,4.017193,0.14421281,-4.536503,-0.61541545,0.39542657,3.1228936,0.19075571,
			-0.022463327,-0.012780087,0.009312506,-0.009810961,-0.009226913,0.01492801,0.012660551,-0.0125342505,-0.22004417,21.627472,-3.350457,0.16119374,-1.1525477,2.2027166,-0.06379377,1.3064339,-0.505771,
			-0.04684324,0.027399661,0.046083584,0.052747786,0.16775727,0.0993599,-0.3106562,0.07659139,-1.445101,-16.232235,-4.205449,1.5255121,1.9771354,2.7942677,-1.7872521,-4.6117644,-0.54223937,
			0.02372566,-0.006850887,0.012191491,0.042522702,-0.039342605,-0.0031012055,-0.036445178,-0.019845711,-1.5839812,-5.8250604,2.508459,1.2468243,2.458427,2.9540913,-0.7510882,-6.3351626,-2.3634682,
			-0.2699012,-0.019967312,0.04028083,0.07162964,0.26618668,0.013265315,0.16499975,0.06451248,-0.25948212,1.0630425,1.4254401,1.8223295,-4.209787,2.2953873,1.4339483,-2.1397989,-0.047141585,
			-0.9685533,-0.15265955,0.16622122,0.751848,1.5976523,-0.0037575413,-1.2085896,0.1545484,-0.6100786,12.260751,-1.5526946,-1.3465087,3.2963262,-2.9508896,-0.3948598,4.6522346,-0.9441219,
			0.0490431,0.055444956,0.050106287,-0.15044172,0.2443487,0.03303042,0.4318776,0.24131365,0.24031742,-0.5670142,1.2531234,-2.8880558,0.6588946,4.7758503,-0.18233575,0.54281795,0.21242858,
			-0.22014621,0.059141934,0.023182848,-0.08806511,0.16530871,0.04163506,0.17621048,0.07265043,0.32463828,2.699049,1.6445825,0.24298842,2.649612,-0.54785013,0.044008628,0.44316468,-4.7976327,
			4.3365693,0.28490064,0.17447822,1.5045325,-5.7671266,-0.16504914,-1.5887853,1.5097519,-0.51029634,3.8251743,8.275772,0.5538709,4.3265667,2.357587,-1.371745,4.7911577,-0.5904764,
			0.052280895,0.15658447,-0.09150403,0.16959545,0.159572,0.10043785,-0.3323388,0.35406873,0.16904989,9.5061455,0.6963879,-0.1351822,-7.326728,0.34206423,0.6100019,-0.48044416,0.2631549,
			0.047630534,-0.0059985965,0.02030372,-0.14120626,0.10554708,-0.008361406,0.0480185,-0.11521884,0.50730485,-9.382191,0.47594425,0.44656184,-3.513999,3.0269613,-0.73705876,-0.16019367,1.6781883,
			-0.048418757,0.016222708,-0.025260024,0.020968342,-0.06773592,0.12849142,-0.32083932,-0.048426062,-1.6733828,-4.485634,7.587312,-0.35264546,-0.4594576,-0.47038993,3.462146,1.1905905,-1.4168512,
			-0.08848729,0.00071832386,0.020404397,0.0002707867,0.08468762,0.013962324,0.089598306,0.003991165,-0.001947193,4.7479057,-0.45658797,0.4753807,1.6939962,-5.845181,0.0029348992,0.43398803,-0.035112694,
			-0.0020031899,0.019652503,0.0042977724,-0.0051929,-0.024885114,-0.00044251946,-0.008499782,0.028271597,0.5824045,23.524595,1.5553199,-0.5818265,-0.7893439,-0.9301435,0.70965993,-0.3173662,0.14271991,
			0.000364011,-0.016285554,0.026460567,-0.0016686054,-0.024377156,0.0028384547,-0.013116204,-0.021328056,-0.44727072,22.474573,2.4092188,0.67359847,-1.1962359,-0.83610976,-1.1885985,1.2133408,-0.008539937,
			0.60941225,0.071061656,0.07839321,-0.06242141,0.25717324,-0.12171618,0.61828786,0.39080146,-3.1920059,-5.0989175,4.093979,-1.1257508,0.98486716,3.5428271,1.8675867,-1.3835521,0.684834,
			-1.4052838,-0.15212232,-0.0049720313,0.7097335,-1.8279725,0.2420671,7.4653893,-0.50552005,-1.5105522,-6.275474,-0.20009185,0.71896917,-7.161986,0.37932497,-0.5318069,-2.8573396,1.1220948,
			0.20155726,0.08941957,0.16789627,-0.22968167,0.37433022,0.114060625,0.36761275,0.05290766,1.7977996,-3.1385489,-3.1513236,1.033773,0.39641964,-4.6645756,1.8557854,1.9940952,-2.2234263;
