			0.53802645,-3.1308737,1.5126047,-2.9126859,-0.27665734,-1.6646795,-1.4445188,3.5984285,-0.260974,-0.36148205,1.6718168,0.7167877,0.33835393,-3.109931,0.9916755,2.1376758,-1.3498094,-1.8377371,1.278062,1.4108782,-1.8644413,-1.6694133,-0.053845923,1.7850517,-3.2439508,-0.32585573,0.37624937,-1.885976,1.9019612,0.26001087,-0.68983984,2.3741975,-0.67603827,0.97378904,0.31074408,0.96185786,-2.185139,0.87660474,1.9013187,-2.7086654,
			0.34748864,-1.3335093,1.3264029,0.4117474,0.77461404,1.5703073,0.33082244,5.116301,0.39834583,2.948019,2.4842594,-0.0070926463,-1.5526061,-1.1921512,3.3841815,1.2392982,-1.011733,-0.3171627,-0.4405501,0.5257373,-9.485378,-2.134609,-0.011749418,0.8244943,-2.7296822,0.05109806,-1.3108163,-0.64873403,1.7842373,1.0643508,-0.66186714,4.983697,0.64851546,-2.4638011,-0.0547239,-0.69165426,-0.40330073,-0.8423494,-2.0403442,2.2243717,
			-0.18352602,1.0233245,1.7946002,-0.36506632,-1.0031564,0.10665681,-2.6481845,0.22672834,-1.0901239,0.79496115,0.14613703,0.9466676,-0.9277269,-2.5167077,0.45958668,-1.1060569,-0.84599113,-7.8124886,0.18046595,2.3788621,-1.363735,-2.2931921,0.87885684,2.3225372,-0.8349277,-0.006013627,-2.4360886,0.5803244,0.73803633,0.71226865,-0.9534451,0.52183944,-11.057985,0.014914584,2.8201675,1.0049682,1.258383,-1.1229655,0.54738194,0.9807287,
			-0.36238822,0.859828,-0.13531144,-0.70633477,0.6149286,1.2521971,-1.1894023,2.2400978,1.3277209,-0.6435144,1.8881581,0.36839005,-2.5377948,1.5769074,-1.9592736,-0.21620207,-1.0644885,0.73454845,1.4616833,-1.546866,0.39803216,-1.2377696,-0.7220846,-0.120576054,1.7160486,-0.9289789,-0.3579129,1.99929,-0.3589764,0.0597311,-0.059453957,-2.7057679,1.538546,0.596339,0.7556141,0.62866884,0.07762656,1.2453209,-2.419273,0.79298174,
			-0.478647,0.72262216,1.229189,-1.337647,0.9129634,-0.6035883,-0.5492496,0.38313228,0.5477209,-0.3861929,-2.564571,-0.09729544,-0.92165595,3.1353812,-0.4351692,-0.55372065,-0.65937334,0.63871205,-0.078333594,-2.0978007,0.243788,1.4634874,0.12080997,4.7977324,1.7539914,-3.0413637,-0.12415847,-0.94584155,-0.664348,-0.6797816,-0.3360874,-0.023134232,0.192075,-3.9711242,0.0937102,-11.465595,-7.2540865,0.27863973,1.1000024,0.38858622,
			-0.09715403,0.4994951,-0.013507947,-0.71370256,-0.15328342,-0.64886266,2.3103764,0.14086048,-1.4499993,1.2240264,-0.3019308,-3.0952764,0.67109716,2.7187696,0.47244537,-0.060225945,1.1123035,-4.8040934,0.2305398,-1.0193232,-0.28007618,-0.047042303,-0.3879303,-0.7185681,2.2770066,-2.8491166,0.25856057,-0.70726234,-0.2504096,0.2114871,-0.13479228,-0.41186988,-0.07265236,-5.471769,-0.3043465,-6.6803274,8.165331,-0.8440023,-0.3144056,-0.28912622,
			-1.8022691,-0.99986106,-0.024529904,0.52465534,0.77611905,0.31784588,-1.7781878,-0.5777149,-1.2737421,1.2126814,1.6172792,-0.026272543,1.1395313,1.5486887,-2.9340765,-1.5596912,0.601414,2.3149471,3.2593884,1.6623112,-0.32863814,-2.0594401,4.104899,0.42119193,0.75965005,0.7461302,0.22913836,-3.18538,-2.005008,2.9498315,0.26062724,-2.7166421,-0.11175267,0.22552145,1.5165806,0.20983747,-1.7992315,-2.438652,-0.2124126,0.54299194,
			0.3943943,-3.1501245,2.9204204,-2.7499545,-0.29289484,-1.8661242,0.035130527,-2.3372025,0.46931884,-1.2942562,0.2217282,1.398049,-0.2749734,0.703635,1.7267691,2.4931245,-1.5006181,-3.3923178,1.0837063,0.9868423,-1.9882777,0.14046259,-4.326668,3.0611792,-2.880055,-0.41398424,1.5178083,0.64972615,-0.18566419,0.6176016,-0.7694728,0.48536664,-0.6448472,-0.39312053,1.4191003,1.8323287,1.9684305,-0.8302999,-0.017022692,-0.3503846,
			6.4149714,2.6416388,-1.1385837,-0.03245515,-0.07678225,0.24774516,0.04553179,-0.28075084,0.35154456,0.1824764,-0.9904753,-0.21827759,-0.2814073,-0.61578184,0.07846598,-0.5149811,-0.0978331,1.3539342,0.18619816,0.018573754,0.09032829,0.40711632,-0.06561881,-1.2745816,-0.18057853,0.16451627,-8.503127,1.0670589,1.136918,0.04304156,-6.139727,-0.50735664,-2.878615,0.1307964,-0.008422502,1.1377,-2.048083,0.39099896,0.18396936,-0.4697776,
			-2.2376022,-0.9304305,2.6577144,-1.7786593,-1.0033551,1.4781837,-0.13144729,3.0973728,-0.2174443,-1.6278768,0.28851038,0.77959985,2.094443,1.3320476,2.108711,1.6044374,-1.1945283,0.72102594,1.4907632,0.15443619,-0.7559297,-0.36811787,0.9166728,-1.3438604,-3.1023636,1.4361606,1.6330079,-1.9016733,-2.3770514,-0.13583583,-1.8690989,1.6845596,-0.37567517,-0.2918822,1.7594271,1.0386348,-1.558074,0.74152905,-0.67284703,-2.8636322,
			-0.5790059,-1.6605504,0.040881556,0.014396589,-0.016061801,2.187506,-2.31288,2.1632798,3.0520422,-2.2638865,2.5244536,-0.81388783,-1.1443167,-2.8341126,-0.17763667,1.1892276,-1.1038874,2.965744,-1.0067581,-1.4219451,0.30307305,-2.5212831,-0.6990195,-0.034410715,2.4259405,0.2072205,0.9724452,-0.60764927,0.46692288,-0.19011717,-0.102340184,-0.26985362,-1.2449435,0.8114738,-0.561008,-10.343175,-3.9277668,2.205256,-0.18457933,-0.8114159,
			2.7220824,1.020122,-1.0626128,0.090317436,-0.11981969,0.32983866,-0.8000158,1.1032414,-0.5517497,0.6369295,0.30469793,-0.42223716,-1.3347123,-0.507618,-3.301104,-1.0919484,1.4065396,5.6307287,-0.10744156,-0.047499873,4.8845415,1.4778767,2.4085994,-0.6164524,-0.9870043,0.076483175,0.48070803,-1.5393935,1.5942751,-0.890688,1.3654176,-3.162173,0.04907819,-0.6443344,1.8430132,0.5099998,1.2072698,0.6511753,0.77327245,1.0319605,
			-0.7175207,-0.22414398,1.0716193,-0.7587045,5.320269,-0.57378924,-0.989269,-1.4330888,0.3580738,-0.014013268,-0.41720378,-0.8685975,-0.054002,-0.0034773024,0.11452374,-0.82107025,1.4820207,-0.5659993,0.39156285,-1.2993336,-1.4674716,1.8163135,-0.54430014,8.768647,0.16306369,2.5868201,-2.8863401,-0.73034364,-0.6894356,-1.223409,0.021296352,0.32326478,-1.0504713,-0.79460907,0.94116974,-4.676543,-3.1939733,0.54102623,-0.022399731,-0.6603655,
			-0.12065647,-1.7657936,0.5553253,-2.586136,-1.1222351,0.24060959,-4.3745375,0.20122865,-0.4219881,-0.7040594,-1.3532432,-1.6998022,-0.01801128,-2.924047,0.77954155,0.93954325,1.2376707,-6.5273385,0.5888615,3.52166,0.03599022,-0.669285,-0.47615507,4.837926,-0.13702185,0.17064807,1.5345247,0.9384785,0.34860134,1.4692843,-0.51147527,0.97369087,-2.7095973,-0.9127351,-1.5590284,-2.3019404,1.0168281,-0.17143866,2.4882503,-0.43551847,
			-0.659131,-1.13242,0.8088297,-1.1021553,0.051429264,0.46019763,0.20642595,6.8283424,0.14980307,-1.1124614,1.3319076,-0.6943991,0.015885,0.8782574,-0.039333705,0.7561193,-1.4737747,-7.765392,0.006842159,0.020285022,1.5521584,-0.583604,-0.075396165,-8.492239,-0.18569086,0.24009669,-0.19144641,-0.29420575,-0.4893113,0.20436499,-0.14141195,0.020369325,0.31701383,0.23160386,-1.0017451,-14.567312,-13.340631,-0.08627319,0.24517326,-0.028630806,
			0.59340954,2.3959405,1.466103,-1.2659569,0.22220191,-0.9149608,1.0753831,-0.9254613,-0.74355954,-1.0419606,-0.103310995,-0.18999322,-0.89463174,-2.5020478,3.242528,0.35173035,-0.49557784,-2.896953,-2.0711155,1.0852766,0.30161843,-0.42977464,0.58317363,2.301696,-2.0313263,2.5458148,0.20766121,-0.8303218,-1.1267097,-0.97964025,-0.14182088,2.245835,-0.27416545,2.7004411,2.8314593,1.0177959,0.794254,0.342505,-1.751211,-0.3380104,
			0.35186774,-2.1553638,2.1997938,-1.157805,-0.44354007,-0.78259397,-0.8262787,3.3896425,-0.43247524,-0.087699726,0.6576552,1.0031031,0.20792425,1.4660821,1.4443542,2.3473191,-2.4598563,-3.7634218,0.20634207,0.01303762,2.1364615,-0.8086794,-0.84828836,-5.5062356,-1.2191731,-0.1656548,0.35217068,0.47033644,0.1379864,-0.7814247,-0.4017339,0.37980488,-0.49519655,0.37706164,1.1575527,-10.07613,-8.01233,0.22375755,1.5827701,-0.40101734,
			1.4520506,-3.5915577,2.0958295,-0.8677074,-1.073678,-3.2295625,-1.8802805,2.278434,-1.3300956,1.7956321,0.8925456,-0.10952772,-0.42518136,0.41339487,1.9249462,2.2224183,1.667842,-1.0657079,-0.750695,-0.70264614,-4.4995465,0.1695908,-1.11417,-0.23479058,0.2573336,-0.5224128,1.1234729,-3.3483138,0.18440816,-0.8912681,-0.05130809,6.9350715,-0.15062653,-1.1937287,0.9554397,-0.8248764,-0.62454665,0.2880032,0.700694,-0.03743226,
			-3.9509225,1.1106976,1.5300097,-2.2547946,-0.87955934,2.45662,-0.8729274,-0.070563816,1.3793567,-0.3060302,1.2238053,-0.27573395,-0.15472826,-1.1743202,0.15961857,0.9010627,0.98430556,1.881218,-2.4552839,0.37067458,0.44394705,-3.404791,0.5320595,1.0605868,-0.79841226,-0.35072616,-0.96070766,-0.9203143,-4.44335,-0.7917554,-0.69453114,-0.03426013,-3.401721,0.294317,0.82710046,0.73709774,7.053869,0.5906781,0.41820318,2.023986,
			-0.5589671,-0.25246578,-0.23922206,-1.7838416,0.8393982,0.8691051,-0.9294854,-1.884983,0.9379968,0.3993128,-1.1161202,-1.0544665,0.34294638,-2.2208493,-0.04933402,0.7170942,1.2244794,2.7009559,-2.1024764,1.217627,-0.5213158,-1.562754,-0.22296727,9.096959,-0.37041667,0.057565797,0.10666211,0.1152324,1.2859763,0.5969808,-0.08436065,0.32293463,-0.47780684,0.52110136,-1.688233,6.49138,-4.162802,0.42844746,-0.5360894,-0.9029835,
			4.0107493,-1.2152209,0.22661439,-0.8128858,0.07820105,-0.5244194,0.71718854,-2.7107236,1.0285597,-0.20779222,0.1307142,0.9788055,0.026305879,-0.2802897,-0.76445085,-3.4012268,-0.6053084,8.419052,0.441794,-0.015695954,-1.8236836,1.4693489,0.5476224,5.205564,-0.4164284,2.4155276,-3.2333853,-0.6749205,-1.9477241,1.3711463,0.16861485,-0.2704306,-2.6269968,-1.7424868,3.388019,-1.9835936,-1.6198273,0.48583037,0.7321037,0.28762242,
			-0.61694825,-1.7315736,0.89386755,-1.1253364,0.45315793,0.29667327,0.6807768,-6.7781644,0.2705965,0.90016365,-1.5560672,-10.614291,0.57803226,0.0045954627,-0.021745743,0.38080943,1.1003592,4.0155106,-1.0156524,1.0770209,-0.81166905,0.6876297,-0.23532365,0.76154685,0.8054913,0.7015597,0.2931009,-1.2873414,-0.88301915,0.2780795,0.19399257,-0.62850267,-0.15060937,0.37064725,-1.3918561,1.2854636,3.2806396,0.24030356,0.5413247,-0.9020115,
			-4.592441,-1.3906196,-0.42606255,0.42720586,-0.15435532,0.970203,0.27534008,-0.0546929,0.44939262,0.89265835,-1.02792,-0.017231327,3.4079773,-1.754723,-0.43667808,1.3245167,1.3690349,-2.9069898,1.2054203,-1.2910852,-1.2855464,-1.1927011,0.5583777,1.373897,-0.018837545,0.39646456,0.55462295,-4.056709,-2.0077293,-1.9226973,0.212419,0.79034346,0.9099282,0.30045033,-5.6117573,0.07600661,1.315512,0.11185976,1.7065647,-1.1795213,
			1.3617666,2.7367525,-0.3375347,-0.17652631,0.4171208,-0.6296235,-0.8479965,2.2228894,-0.5639727,1.2965806,-2.8188074,-0.49122173,1.4869941,-0.69891113,-0.2586975,-1.0885855,0.24404739,-0.9557657,2.4578018,1.851809,0.98205346,0.3824281,-0.6090276,-1.7466676,-2.1479404,1.0689014,0.016916236,0.28199673,1.004352,-0.46035296,-0.062430244,0.56357425,0.042094126,0.24782301,-0.28328678,3.444127,-9.50443,-1.0485566,-0.81065863,-0.4904889,
			0.024386955,-0.09121691,0.2782392,0.15526679,-0.10526964,-0.10452044,0.3199948,-0.20720285,-0.057436198,-0.59063923,0.2035108,-19.237751,-0.093063824,0.05121055,-0.09223661,0.10941241,0.13782997,-0.9358665,0.07359457,-0.017297877,0.1308393,-0.32717314,-0.09585153,-0.08568272,0.15402004,-0.04495058,-0.057635378,-0.20263375,-0.12579042,0.196629,-0.06333008,-0.1197985,0.35913265,0.10057119,-0.09357242,1.2384399,-0.4259611,-0.22080062,-0.28132835,-0.018310305,
			-0.5473339,-0.5556797,-0.053998485,-2.9330552,-1.1190561,-0.06583665,0.47117114,2.0264199,-1.2726625,2.0684483,3.1651087,-0.5427149,0.30826044,-0.79436535,0.018312205,1.6572973,1.3699074,-0.47038037,3.3008575,-1.0741768,-1.233799,-1.0077486,2.3177984,2.2969842,-2.4349492,-1.1358609,-1.4324572,-1.3724988,1.6838279,-0.8587566,-0.23341021,0.37559092,-0.13227658,-5.0107617,2.1260555,1.9234183,1.5150776,-0.49692056,2.9764795,-5.620045,
			-0.032634262,-1.2389219,0.4126885,-0.0922486,-1.9182454,-1.6236758,-0.06647364,-3.260613,-1.0448358,0.18418014,-0.55338746,-1.3956971,-0.6711747,-0.75833493,-2.885096,0.43188873,1.7494165,3.2812402,2.112284,0.43611252,-0.23120578,0.7736394,-0.10923081,-0.15540282,1.2842163,0.4389482,0.6573155,-0.2514842,0.14797015,1.7112335,-0.2453252,-1.5271589,0.2695491,0.039244235,0.80542994,2.3405776,5.1387143,-0.975499,-1.1772176,0.5361644,
			-2.0800915,-2.5889394,1.4113947,-0.41231468,-1.9117402,-0.8604717,0.39617246,4.343525,-2.1752105,-1.9173433,0.83968014,0.52146727,0.5666279,-1.0922225,-0.966059,0.36025262,1.2359546,-9.115427,-0.95350766,0.9823625,-0.18722448,0.5526365,0.3210228,-5.953869,-0.8523426,0.6544841,-0.22993791,-2.3402402,0.13039474,0.5379307,-0.030902341,0.8174906,0.97433186,0.20723967,-3.3904133,-2.1669774,-0.07355479,-2.0515535,-0.17534943,0.7772313,
			-0.09120707,-2.1350691,-0.6620207,-0.5157286,0.016143356,-0.5933727,-1.0257288,1.0859921,-1.1837838,-1.4306113,-3.596587,1.6016864,0.8974197,0.73894656,-0.92436224,0.9236954,-1.0234545,-9.011146,-0.28379866,-1.1568167,0.2962322,-1.0892472,0.11585905,0.4042748,1.5120174,-1.4037857,1.3223397,-3.0777535,2.5235248,0.55155045,0.37143338,-0.4557996,-1.29964,-2.9509106,0.30567116,-0.014789766,-3.0629923,-1.9394262,-0.48023117,-0.24076284,
			0.8802406,-1.9708759,1.5321788,-2.0378387,1.4109572,0.7991166,0.7294796,0.63255644,-1.1219736,-0.45131344,0.44471034,-0.11976387,-0.6980525,2.009506,-0.034319982,-0.19974563,2.0026913,5.267122,-3.0343225,-0.9202507,-0.31543535,1.9696757,0.5964706,4.7026753,-0.95186734,-3.5792754,-0.35397914,-1.325124,0.061799634,-0.27993786,-0.12356134,1.261257,0.5274839,-3.417123,-0.24699971,0.6197119,3.2874951,0.34500918,-0.918442,-0.71729493,
			0.4467199,1.1419821,0.2385733,-0.64623207,-3.3562255,4.4870796,-1.0342596,2.0127313,3.757926,-1.1866187,-0.25666696,0.38237265,-0.08903564,-2.8707817,-0.38580552,0.68679696,-0.13028769,0.43303406,1.1360925,-0.80879337,-0.5906771,-2.2031968,1.0599711,1.5564575,-1.826363,0.06488945,-2.4104826,-0.22061479,1.1526097,-0.858753,-0.29105312,0.31122744,-1.8297222,0.032578316,-2.891295,-0.29874185,2.0258214,2.158001,1.7199633,-4.5392184,
			-1.8563603,-2.797569,0.34744054,-1.3829695,-0.10155249,0.09804599,-0.82184607,-5.1868334,0.35118768,1.5491395,-0.6784479,-2.0293612,1.0171287,0.0825575,2.337613,1.2908844,-0.17109406,3.8684006,-0.2533756,-0.3003811,-5.636621,-0.12904821,-1.2353235,1.8583702,-1.5642278,0.45626235,0.44619733,-1.04314,-0.62497956,-1.8753798,-0.856691,2.053566,-0.45662513,-0.18758488,0.7952082,1.4439842,5.7625823,-0.019101009,2.2432296,-0.6284338,
			-0.13473068,2.5824938,-0.14152892,0.02248975,0.3831664,0.15924023,-0.1241201,-0.444983,-0.2265743,-0.14357823,0.2738478,-0.19217575,-0.41954586,0.043999515,-0.03232274,-2.3658025,-0.03457119,2.1398966,0.18507029,0.06671644,0.06788613,-0.3638952,-0.014164606,-3.472536,-0.09376,0.08712365,-5.4633737,0.9057722,-1.0843918,0.23068114,-4.1854386,-0.341548,-3.7920063,0.032303803,9.447014,0.5480478,-0.30112454,-0.30325127,0.19511116,0.6801903,
			4.4899554,0.5814197,-0.9941051,0.08319965,-1.0327383,1.1570301,0.13909677,-0.60973626,1.2585344,2.2916465,0.14694855,-0.099773325,-0.28630468,0.24871029,-2.163302,1.3686497,1.054431,-0.9564451,4.5407515,-2.091679,0.08467333,0.91787314,2.653528,0.6420939,-0.5044841,0.08261433,-0.93717617,-0.8898587,0.16851792,-1.5770812,-0.31258866,-2.4357684,1.4251591,1.7167183,-2.8645277,-0.77964026,-0.09106194,1.6014386,-0.26003948,-1.9313129,
			-0.022853158,0.42161635,2.1213925,-1.2503511,-1.3819064,-1.5544319,5.0199304,-0.03312584,-1.2408208,-0.3863666,-0.22780341,-1.5400821,-0.008603813,0.74868554,0.5468725,1.1175575,-0.35507852,-6.481285,1.6262752,-0.8777373,-0.30322108,-1.0374829,-0.085439794,3.0400915,0.52737784,-0.41571692,-4.032992,-0.31346926,0.30916867,-1.6413094,-0.5397514,-0.0030264822,-0.7141439,-1.2779236,-1.0712672,-2.765116,5.979401,-0.5880488,0.18388015,0.038954597,
			-1.8029265,2.335171,2.6174245,-1.5891227,0.05932744,0.253923,0.11376121,-0.28777733,0.02267244,-0.6125126,1.0928003,0.4838569,1.1062571,-0.23803492,-0.32543334,-4.0775805,-0.18843159,3.11525,3.1409001,-1.8495843,0.5709781,-2.7775779,0.39321554,-2.6634178,-2.726627,-0.47461823,0.08559712,-0.17558792,-4.0444503,-1.6987314,-0.26501176,1.3543115,-1.1222949,-0.9022439,4.842156,1.0843542,1.6755524,-2.36674,3.4012518,-0.16772343,
			0.4613183,0.5137539,0.59287083,-1.1996,-0.88729155,-1.0520934,-1.4387735,-3.0176063,-1.0831469,-1.220287,-2.2096875,1.5764303,-0.18769827,-1.5334339,1.582816,0.83124155,-1.2141085,2.900258,0.11580433,-0.6423549,0.5676638,1.5073895,0.10595798,-0.49697948,-2.4391093,0.12943661,0.2164546,0.8958824,1.5945446,-1.1358863,-0.25358105,1.576611,-0.5944183,-0.9845503,-0.326593,1.7962596,4.4509144,0.17927451,1.131314,0.9038322,
			-0.37056747,1.0277843,-2.0734212,1.216617,-0.033731796,0.17043072,2.8174646,-1.8625909,0.35009855,1.8079093,-0.45502296,-0.08573919,1.3087698,-0.28586072,-0.4396548,-0.90492076,0.8426895,-7.7422514,2.6941333,0.8450178,-0.8503249,-0.26370552,-0.22091387,-1.2691548,-0.07796542,1.1032271,-0.13489605,1.5081201,-1.199457,3.34625,0.30262634,-1.2732717,-0.5632851,-0.082840085,0.17399548,-0.64792967,1.715221,-1.7359892,-1.3242373,0.8682743,
			0.54481703,-1.8783782,0.4081904,-0.69869703,-0.47688052,-0.57691073,0.2361963,-0.061897516,0.2021719,-0.82826394,1.5022095,-0.08217987,1.5430193,-0.10507427,0.84480083,0.50418663,0.027346153,6.6213136,-0.5757509,-0.33581606,1.0446526,1.4060735,-1.1920187,-16.247221,-1.6207386,-0.25282255,-0.10228576,-0.70943,-0.26860473,-0.22908096,-0.008062001,0.816824,-0.2583984,0.33041263,4.7278357,1.4149928,-4.738426,-0.44449532,-0.67625535,-0.15771271,
			-1.7890354,-1.0699421,1.208171,-1.0561976,4.1227894,-1.2418805,-0.26373023,0.05111967,-2.4640496,-0.39590356,-0.035797246,-0.05008742,0.13643423,0.5466695,1.5989376,3.1354554,-0.90224534,-2.7832015,2.8342497,-0.53652966,-0.44674715,-0.6191209,0.5309726,5.0329547,-1.5189625,-1.9638811,-1.6025327,-1.0835123,-0.90603834,-0.58278155,-0.30590537,0.5513302,-0.7437968,-3.0444624,0.05707274,1.9897376,-1.8211138,-0.7698996,0.93214446,-1.0051812;
