			0.74474007,-0.11367887,-1.566141,-0.1683761,-1.021449,-1.181685,0.07482688,1.2068452,-0.25240743,0.6726227,0.20320106,-0.027359435,-0.10697902,0.38164732,-0.15453206,-0.17240106,-1.263532,0.31629202,-0.2657007,-0.51460075,-0.010437701,-1.6878104,-0.14048721,-1.1235822,0.67305714,1.31762,-0.6093475,0.94842786,0.7840959,0.042797722,-1.030957,-0.7836799,-0.16599582,0.15521508,0.23357162,0.68006235,0.6929763,0.27199915,-0.7660382,1.5705189,
			-0.7339569,0.32669768,1.3745198,0.37547177,-1.0367943,0.3880377,-0.73979235,-0.7083891,2.4216683,0.81073546,0.7994113,-0.8793698,1.19877,-0.56044006,3.3729084,-0.271677,-1.9999775,2.1434324,-0.36157942,-3.626017,-7.826411,2.406787,-2.708988,0.27347368,0.56968135,0.37857774,0.36924383,-2.5330207,1.8584495,-3.489995,1.4224087,-1.1840053,1.1620412,-1.2072227,0.20053497,-0.5678122,0.21951102,-1.0722818,-0.42452005,0.5400384,
			1.3463647,-0.058589716,0.1075062,0.27372277,-0.24122043,0.23053223,-0.25494075,0.183551,-0.08040656,1.5508165,-1.2184062,-1.4695646,-1.918881,0.22276798,0.60133517,-0.1888419,0.52842516,2.6773684,-0.81783104,-0.051793654,0.027429972,-0.16340962,1.5278132,0.048613627,-0.3612137,-0.0599825,1.568605,1.4063377,0.0020311556,-0.6350078,-1.3837514,-1.1344551,-0.06367879,0.110574044,-0.20900919,0.35894167,0.3108436,-0.58584255,-0.5460306,-0.69213957,
			-1.2784898,-0.37596133,-1.1182894,2.8789487,0.19637811,0.26501733,-1.7983863,1.1483514,-0.7350535,-1.1350031,-4.968198,0.048493426,-1.0407048,-1.0262551,0.80763465,-3.144032,2.992171,-0.3215937,-5.3579645,1.0478796,-0.3464056,-0.07082954,0.17847541,0.10788995,-0.18920815,0.5275617,-0.33501357,1.354785,0.71994036,-0.3741546,1.0969112,-1.0045202,-2.435395,0.21659994,-0.30592164,-1.1123643,-0.32312623,0.26088724,-1.8254335,0.90981936,
			-0.2329537,-0.13810657,-0.46748355,0.09778269,-0.22498468,-0.25029764,-0.25920713,-0.36475202,-3.2119362,1.5142252,0.20435195,-0.9084396,-0.55759436,0.76266557,-0.32196316,0.10486019,0.14693168,2.6336658,-0.45872745,-0.14241365,-0.103704095,0.09589353,2.7997024,-0.10183401,-0.095728956,-0.14659706,0.7768045,-0.81377274,0.49294165,-0.07796984,-0.15063256,0.7600305,-1.244127,-0.9234834,-1.8376101,0.21209419,-0.8030597,-0.541216,-0.5585184,-0.8454712,
			0.61086935,-0.027263217,1.469025,-0.5097504,-0.1098452,-1.103536,-1.7492617,0.94668496,-1.40076,0.7616604,-1.6487619,-2.9918718,-0.58509207,-0.38352165,-2.3453665,-0.31663668,-1.5061051,1.5990673,1.1492237,0.4299997,-0.12363728,-0.9045964,-1.6096864,-1.3713502,0.3226655,1.9174458,0.36668703,-1.6029143,-0.20688517,-1.5765471,1.2651507,-0.8254509,-0.6296272,-1.0521363,0.6528613,0.1785852,1.115178,0.27734786,-2.3296802,2.6476126,
			2.4718666,-6.2881436,-1.4358314,-0.772196,-0.78003633,0.43280643,-0.5939525,0.5681879,0.70082396,0.9023963,-0.9238412,-0.91260743,-0.81869125,0.6357704,-0.3143402,-1.4952041,-0.16521665,-0.5672931,-1.4599618,-1.7747673,-0.021982566,-3.5883572,-0.8334507,1.0139092,2.3666914,-1.1876408,-3.357101,-0.128041,0.9817119,-0.0054882783,0.2731164,-0.60561764,-0.098064214,-0.673982,-1.5246044,1.7109385,-1.366011,-1.8776037,-0.3992539,0.9590379,
			1.9927127,-4.5440526,-2.274734,2.2807777,-1.2665067,-0.66452914,-2.6628692,-1.4921055,-0.15860294,-1.1491947,-0.058045805,-1.8049971,-5.0757937,-0.34050077,0.35458156,-2.4226935,0.16349734,-0.653856,-0.36643788,0.186224,-0.101725385,0.30382818,1.241684,-1.1542866,-0.11706012,0.91610914,-0.5852197,0.25280672,0.39112985,-1.0081333,-0.14029497,0.5704611,-0.58977616,1.5179025,0.29016024,-0.66590995,0.27370754,-1.6583071,-0.9778581,-0.49289125,
			0.60056716,-0.75409997,-0.7451739,0.85198164,0.12745987,-0.0929247,1.5179788,0.08996726,-1.9409672,0.31377798,-1.7028778,0.031437613,-0.24230254,-0.4080081,0.39324132,-0.8490966,0.70193183,-0.36546156,-0.25139117,-1.1412807,-0.08512198,0.0010826894,0.16156153,-1.3230741,-0.067400984,0.044288434,0.84900415,0.32380667,-0.7145449,0.7273347,-1.8703536,1.3594517,-0.25872326,-3.43496,0.0509377,1.1210744,-0.72605115,-0.6105743,-1.0130019,0.75411814,
			-1.1015826,0.46061665,-0.7123492,0.6059666,0.49655572,0.5885972,0.2075935,1.5033222,0.47065416,1.2570266,-0.34398907,-0.06373036,0.1203957,-0.82783216,-0.28845748,-0.82947373,-0.50966287,-0.94523144,-1.0673456,-0.70034707,-0.24119411,-0.30769908,0.82656366,-1.330016,-0.055002585,0.39584315,-0.4993338,-0.26838347,-0.42635298,0.98676914,-0.9204974,0.8078436,0.42826405,-0.11218009,0.84310764,0.41397598,0.17724124,-0.58771247,-1.1563005,1.5052098,
			1.5202378,-0.70426124,2.3549716,-0.4668066,0.09482871,0.52775323,-0.24688081,1.0335059,-1.4429663,0.5476725,-0.43498686,0.004928999,-1.7968742,-0.72166824,-0.587097,-0.8827544,-0.38923454,-0.77055055,1.1155907,-1.2970883,-0.84062326,0.14266008,-0.12616609,-2.7556422,-0.760881,-0.66111267,-2.0473106,0.6823648,0.35297343,-0.97873634,0.5075035,-0.5729688,0.711803,0.12995584,0.56225175,2.026194,-0.6291223,0.24770364,0.009254711,-2.7680724,
			-0.053621616,0.414351,0.13458039,2.1308491,0.70502394,0.38345918,-0.6269681,2.327582,-3.4805613,1.1199075,1.1875235,-3.0008705,-1.189678,0.26223147,0.8529773,-0.3636424,-0.25875118,-0.094027065,0.59878165,-1.1593602,0.085271455,-2.6054657,1.6659983,-1.8835156,-2.4602861,-0.14155802,-0.6780498,-0.34444204,-1.1441567,-0.77260464,0.13689971,-2.2805097,-0.8289061,-1.7580047,0.86739826,0.51480275,-1.241992,0.36787146,-0.26779205,1.0251861,
			-0.48066923,-1.1519009,1.008316,1.8988496,-0.5482411,0.07490159,-0.43474597,3.0281374,-0.15571712,-0.2861259,-0.8021619,0.043676246,-1.8563708,0.15064088,-1.2968987,-0.3055099,-0.5223066,-0.39224446,0.36451083,0.16292158,-0.22215436,0.11132244,-1.0869695,-1.2871209,-0.22569111,0.2696374,1.9476972,0.03220882,-0.29559192,-0.3259837,-1.3089538,0.54385674,-0.04332634,0.5855662,0.7583113,0.07209245,0.007190992,-0.47488987,-0.09728541,-1.0478611,
			0.8682554,-0.005328971,-1.5629654,0.35519308,-1.0881882,-1.351673,-0.14952324,0.25151074,-1.0794054,0.3669172,-0.2511975,0.03489935,-0.24387205,-0.046262063,-3.5215738,0.0006065863,-1.7959738,-0.07687643,-0.4949392,0.68152493,-0.10577882,-0.15486333,-0.097563215,-0.42291322,-0.2696344,-0.4414503,1.1233544,-0.42843705,-0.640749,0.4094987,0.09979254,1.4217159,-0.052857507,-0.08357564,0.5097521,1.9807631,0.5618391,-0.71723515,-0.53412426,0.6029733,
			0.5110806,0.16526386,-0.013387889,0.3159299,0.42437348,0.3299921,0.36236277,0.238105,0.20303428,1.881163,-0.71678376,0.024037438,-0.41529304,-1.7667866,-0.22249508,-0.34285372,0.29501763,1.397837,0.03224919,-0.18842345,-0.10193564,0.14426045,2.5334582,-0.07298213,-0.23545036,0.05860174,0.6185542,0.2695336,0.029511841,-0.01402165,-0.2567445,0.9873272,0.13601565,-0.033118896,-0.3633417,-0.5013534,-0.62797236,-1.0537502,-0.13408369,-0.562547,
			2.0728683,-0.039670195,-0.92179245,0.782083,0.13980454,-0.5738686,0.05281288,0.4966139,1.700374,0.36662915,-0.16137572,0.0277349,-0.35723284,1.9767026,-0.6035641,0.59759086,-0.086948656,-1.565426,-0.86360687,0.9741988,-9.254835,-0.63390774,0.7122193,-0.68676573,-0.20584443,-1.4212875,0.23185636,0.31397343,0.7631753,-0.7548128,0.2570878,0.41362175,3.4832885,0.82509977,-0.033113908,-0.9277205,-0.45159566,-0.05687044,-0.9407022,0.27842224,
			-0.6727907,-0.42009485,-0.89377373,0.98775816,-5.3767505,-0.98063105,-0.34495446,1.3181492,-0.8659971,1.6051375,0.41109362,0.0014371414,-2.18891,1.0030233,0.3392655,0.46310765,-1.8365624,-0.3901304,-0.3632707,-0.044524197,-0.26260933,0.36555094,-0.41960096,-0.61577064,-0.40384597,1.9284202,0.91779524,-1.7906505,-0.52607465,-3.195814,0.9568885,1.8636854,-0.81103027,0.020618116,-0.5386518,1.4562932,-1.4443465,-1.3422072,-0.8350803,-0.19598837,
			0.5014247,-7.3021054,0.995766,2.9514832,-0.22103053,-0.4826251,0.35933366,1.7808225,0.4389846,-2.520586,-3.4006872,-0.37791985,-3.190304,-0.6687552,-1.9756691,-0.9148814,-1.2733958,0.152032,0.28378034,-0.33525047,-0.2180175,-0.3582193,0.10622769,0.5075079,-0.9627117,1.8157718,1.2643355,-1.0587368,-2.4592144,-0.48305538,-1.5037603,1.0471704,-0.2546248,0.17846973,-0.13612005,1.120688,-0.49911213,-0.4068167,-0.42172456,-1.7007905,
			0.74115837,-0.62527853,-0.9445779,0.8226622,-1.3476827,0.102861196,-1.4304632,0.51247877,-1.3859963,1.5627955,0.485809,-0.1232799,-0.6411019,0.36413687,-0.32722762,-1.2389432,0.38982055,-1.7784249,-1.3023963,0.26188397,-0.023150526,0.25675675,1.0555668,0.020801978,-0.005889172,0.9300437,-0.4444344,-0.28318572,0.24971142,-0.35191265,-0.5201692,1.3710108,-0.8403466,1.634531,-0.07413858,-1.092815,-0.017671308,-0.9810417,-0.66234404,-1.0221317,
			0.809758,0.05526516,1.3987238,1.8721797,-0.35616988,0.9336137,0.8302506,1.5064178,0.4507464,0.21347639,-1.3679007,-0.23537229,0.35442758,-0.7019732,-2.3846922,-2.282499,-1.9543363,-0.21751183,-0.50242764,-1.2411847,-0.16172248,0.2942022,-0.3882967,0.2075179,-0.6967815,-0.8268889,0.24979357,-1.892278,-1.5364708,0.5892539,-0.87426835,1.8301245,-0.8237121,-0.37180525,-1.1328248,-0.030986555,0.104607105,-1.7338284,-1.201447,1.9583757,
			-0.94664866,-0.6524037,-1.5025622,1.0083044,-1.5028307,0.024805749,-1.2928436,-0.10416736,-0.82722986,1.4817381,0.62698096,-0.7201564,-0.4593246,-3.5028877,-0.7498045,-1.8503507,-0.806344,-0.64290184,-1.2005919,-0.9528212,0.03784572,-0.07561267,-0.29745275,-2.2569852,-1.5120859,1.1068417,0.9770603,-2.581893,-1.2395686,1.0712873,-0.26063377,0.75410485,-0.0023519187,-1.5943257,0.4123214,2.8153794,-0.81936854,-0.52542776,-1.191942,0.70314884,
			-1.0741696,0.034106325,-0.54000014,1.5193603,0.21554022,-0.42988822,-0.32402894,1.9108603,-5.333649,0.87658054,-0.6817235,-0.88643956,-0.10721232,-0.7908325,-2.0761638,-2.2880137,-0.7523797,-0.46622804,-0.48019364,-1.589053,-0.098384075,-1.3793163,1.6244032,-2.2206771,0.17060599,0.51506513,-1.6313415,-1.1370138,-0.70938015,1.1152024,-0.20989524,-0.4519378,0.26686934,-0.87841254,0.006965376,-0.13878912,-0.3491633,0.5860183,-1.7316896,0.65593415,
			1.2634491,-0.16216633,0.19584988,0.3733648,-1.1914269,-1.2223791,0.8905149,0.9790579,6.3447227,0.03428716,0.8649314,0.015115785,-0.27035877,0.14010549,-0.37804437,0.12791915,0.11390752,-0.63138187,0.4915144,-1.0818744,-9.401103,-0.3391148,0.36858997,-0.70005465,-0.34652182,-0.85228676,-0.5243651,1.1606987,-1.4185332,-0.36572644,-0.25223106,-0.29542416,-0.13317853,-0.14046715,0.013213006,0.19624576,-1.0259966,-0.16009517,-0.35145915,-0.614928,
			2.3664455,-0.13616583,0.34180602,1.2249868,0.26802084,-2.200586,-1.3803688,-0.06268395,-0.7490457,0.047004063,-0.052278362,-1.1693723,-0.48534918,-1.3211659,-0.41752055,-2.7007608,1.046304,-1.1145353,3.2075727,-2.6159163,-0.15844223,-4.9936814,-2.5892305,0.4440452,1.0987437,0.5862006,-0.46152803,0.8880977,1.2849333,-1.1941806,-0.04988236,0.012995872,-0.6733497,0.16832642,0.11388009,0.2229166,1.0449722,0.3942355,-1.6856377,1.3882724,
			0.51379365,-0.4205786,-0.917783,0.2344411,-0.120966725,-0.057529766,0.4398534,0.057809915,-5.0229187,-0.37642246,-0.318064,-2.9843414,-0.66234404,-0.17663892,0.08217012,-0.3004086,0.5149101,1.9134243,-0.0976137,0.30380592,-17.683628,-0.105574585,-1.4976069,-0.57096756,-0.11996379,-0.3800542,-1.3274446,0.44607088,0.104677156,0.16301076,-0.062656164,1.6723508,5.8407693,0.40931255,-0.5569433,0.050914325,0.3299118,-0.34803092,-0.02548539,-0.28967115,
			0.2191858,-0.09130439,0.41229573,1.7315665,3.1036646,-0.7010484,-0.04400725,0.79279494,-1.8864131,0.69932324,1.9790882,-0.6577982,-0.5767855,-0.50712705,-0.2635777,0.3918527,0.32252535,0.12313813,0.50974613,-2.2117372,-0.32952896,0.22410917,-1.1984849,-0.12298965,-0.013498508,-0.305189,-0.6372444,0.6557101,-1.0683415,-2.8594666,-0.2525184,-0.16535708,-0.69838625,0.43670398,-0.29807243,-1.312783,-3.979584,-1.1196198,-0.6529478,2.5298042,
			0.2674586,-0.12987456,1.3349583,0.015493976,-0.0066036857,-0.25382653,0.28705078,2.3171675,-0.40360868,-0.33027005,-0.9900399,-0.43950295,-0.950223,-0.624571,-1.3280607,-0.3636474,-1.6342943,0.35963637,0.27752736,-0.033237908,-0.21278623,-0.6294676,0.06814073,-0.5715857,0.43573287,0.22976209,-0.5304624,-0.4309341,0.26411128,-0.23890314,0.47973275,0.1631262,-1.0012153,0.065913655,-1.2924842,-0.16488095,1.9292021,-0.7504878,-0.23962598,-0.39222497,
			-0.7120751,-0.4502331,-0.01863176,0.5519815,1.1524029,0.48489913,0.2991882,-0.23803562,-2.040645,0.019754747,-0.9604151,-0.026936209,-0.36980656,-1.2162219,-0.24163854,-3.7391765,-0.0022128099,-0.30406073,0.75005865,-1.4450673,-0.13943243,0.06658274,0.11225913,-1.3521105,-0.1630537,-0.28573337,0.031913653,-2.5435803,-2.3195481,-1.2595984,-5.9995155,3.1758323,-0.1842281,-2.2278001,-0.67227757,0.91433716,-1.2477124,-2.304118,-0.44958794,0.3767385,
			0.14058541,-0.11588972,-0.65424705,1.2729313,1.1419849,-1.7418439,-0.40899536,1.452585,1.1453425,1.4499059,-1.2150363,-0.4425961,0.14676714,-0.88640314,-0.07180887,-1.8142687,1.0585116,-0.05507155,-1.8526322,-0.42071205,-0.26867694,-0.15629718,-1.3865508,-0.37338755,-0.38506457,1.8847238,-0.8766037,-0.06732686,1.8854785,-0.038980935,-0.87596506,-0.53374976,-2.1608434,-0.6012004,1.1674402,-1.5895383,-0.2169504,0.40500137,-1.9990855,0.87723553,
			1.1987381,-0.8134657,-1.4490935,-0.1751251,-0.32307193,-0.96825296,-0.3253696,1.951125,-0.23135467,1.2346628,0.09530397,-0.09963354,-0.1359911,-0.52149105,-0.48810455,-1.4803258,0.5753345,-0.25459218,-0.11225541,-1.1984589,0.0064497367,-0.6228874,-0.45595303,-0.484963,2.3242035,-1.3745087,-2.0019326,0.16558607,1.1970283,-1.0866826,0.04004719,-1.4680315,0.08354436,0.18428826,-2.0167992,0.85509646,0.45470417,-1.8927528,-0.12755094,1.5112858,
			1.3808465,-0.5153189,-0.10429137,0.55870026,0.551246,-0.7123084,0.36281148,1.9650164,0.5052972,0.1385573,-0.34818694,-1.5282665,-1.0952137,0.64003414,-1.9702755,-0.42810684,-0.88454384,-0.668373,0.8062428,-0.25136846,-0.058066238,-1.2105145,2.0692027,-1.8348109,-0.6675143,-0.56465036,-1.1017057,-1.3823713,-1.5145934,-2.6595733,0.5329139,-0.61258084,-0.091888845,-1.317446,-1.737561,-0.5837996,-0.08765276,0.2046868,-2.2836883,-1.2803842,
			-0.39448223,-4.909754,-0.2079647,1.3371664,0.028745119,-1.7518681,2.2519703,-0.009648494,0.24195805,-0.670512,-2.3819366,-1.8340429,-0.3005804,0.2003318,0.7533076,-0.92646,0.71099085,-0.0467127,0.40882546,0.1099475,-0.1529157,0.6323785,0.21439411,-0.5915784,-0.23031007,-0.32234338,0.34298265,0.41534555,-0.13589148,-0.45229524,-5.6695514,0.12966192,0.20747778,-4.074321,-6.223691,1.276826,-0.23422949,-1.6451598,-0.39457577,0.18024735,
			-0.58820194,-0.089942195,0.023705121,2.403858,-0.30469853,1.925368,-0.1960407,1.0000992,-2.2507274,0.22525321,-0.21500841,-1.4341576,-0.4510212,2.54936,0.8451195,0.6287085,-2.3595219,-0.10345361,-0.82199395,-0.64483356,-0.14874142,0.2807295,-0.47551042,-1.025844,-1.6008162,1.0956385,-0.37239653,0.23865688,-1.3583207,-0.51114744,-0.2247861,1.0018373,-1.4790694,0.39414206,0.2793007,-1.0786936,-4.547128,-0.9600783,-1.0926492,0.8653364,
			1.8113979,0.5639573,1.1478237,-0.29061562,-0.9828024,-0.76775485,-0.06612776,1.213351,-0.88431436,-0.055321366,-0.21662918,0.039018705,-0.32451493,0.16722298,0.5260462,0.64592403,-0.90006596,-0.63436717,1.1760312,-0.17563821,0.05036095,-0.42463875,0.854894,-1.1828543,0.51800865,-0.8633005,-0.5291868,-0.18952604,-0.21992886,-1.375992,0.49808863,0.3947769,-0.18634093,-0.79762095,-0.9012896,-0.68483275,0.48411432,-0.49215066,-0.97601235,-1.2069324,
			1.111535,-0.69993526,0.10243126,1.100332,-2.9782288,-2.0658066,-0.5233139,1.0286391,-0.29670376,-0.26194757,0.28402162,-1.0015544,-2.0553029,1.3927639,-0.23320408,-0.46399406,1.3144215,-0.5744257,0.5473857,-2.724597,-0.40324864,-0.7225925,-0.025945093,-1.8731449,-0.38558707,-0.82827616,-0.6560818,1.6969291,-2.5257573,-2.556753,-0.37305558,-0.28683856,0.0062443684,-0.61869764,-3.9131687,2.5680287,-1.8045672,0.092944056,-1.2048411,-1.3146693,
			1.7551109,-0.47709227,0.86384493,2.2440245,-3.2399342,-1.1828947,-0.9606066,-0.10931145,2.0602248,-0.10134509,-1.9778936,-1.4877058,-0.7083964,1.7980714,-1.0336919,-1.6931915,-0.13675469,-0.8577081,-0.162416,1.7220176,-0.65587246,0.34377953,-0.33713037,0.6769786,-1.5544342,-1.5285192,0.7069957,-3.5151556,-0.45147142,-0.8427119,0.7861131,0.09207506,-1.401701,-0.062482778,-2.4500935,-0.12893529,0.15045638,-1.0835938,-1.9452745,-1.3069494,
			0.05533076,-0.88301694,-0.77674806,0.25196955,2.3729033,4.5241904,-0.08148887,0.9426307,1.2159323,1.74053,0.35098028,-1.1579778,-1.2706785,-0.28052518,-0.49544638,-0.08844711,-0.2493967,-0.34801242,-0.94504714,-0.57787275,-0.2711069,0.25017077,-0.48656854,-0.49745864,-1.0830592,-2.2973497,-1.0453781,-0.588965,-0.6582884,-3.278125,1.6680361,1.2655071,-0.3152169,0.32369566,-0.71735936,1.3960052,-0.6166657,-2.208681,-0.3211106,-1.1710328,
			-0.232345,-0.19453906,0.44152015,-0.44727725,-0.15242815,-0.059390265,0.5380983,-0.9639716,0.75832003,-0.6101125,-0.21786046,-6.9744477,0.17398752,-0.38045996,-0.061243802,1.0993006,0.5359346,1.8010943,-0.44181117,-0.3406339,-0.056666333,0.2936117,-0.815965,0.24828306,0.364245,0.046021074,1.0171058,-0.04922304,-0.021542592,0.9821073,0.6717736,-0.27301028,-0.33205086,0.42926407,0.50728506,0.033504423,0.66659945,-0.4135149,0.13874577,-0.098323256,
			-0.6088101,-0.6072262,0.2623201,0.17453998,0.4287707,-1.2810967,1.3559994,0.40441853,-4.379089,2.9509854,-1.5088577,-0.02894825,0.17616193,1.0795264,0.24511276,-0.26095164,0.65324545,-1.7606734,0.75927824,-0.5577738,-0.24224484,0.19038555,0.73307794,-0.09530467,0.08081456,-1.1574749,0.24197526,0.059793957,-0.1507995,-0.6191791,-1.3966324,0.9003885,0.11358184,-1.5942662,-1.4970145,0.23404661,-0.10984818,-0.2757707,0.09962615,0.309894,
			0.30652225,0.05969646,-0.639533,0.63452476,-0.34662348,-0.16570544,-0.44089946,1.5963602,0.03614505,0.5056027,-0.84930474,-2.703916,-1.2967315,-0.42737427,-0.48240212,0.8019623,-0.8632047,-0.17511712,-0.2765215,-1.0249745,0.05157647,-0.55039823,-0.18448025,0.06453218,2.6795785,0.06774543,-0.47030774,-0.48789272,0.17433675,0.20052047,-0.22936094,-0.19392027,-0.05993631,0.027709676,-1.5066833,1.1386961,3.6080704,-1.378862,-0.021123433,-0.28103894;
