			-2.4088788,-3.0501754,-9.489192,-0.8190619,-0.22438556,0.4275093,-1.143159,-0.35631767,-6.1319966,-4.1957316,0.22540404,-0.20293018,-2.3993459,-1.2909174,-2.2417533,-0.47276643,1.0259476,-1.4449013,0.12296965,-4.6764913,0.05710699,1.4886417,-0.87284464,0.12294546,-0.35635915,1.4724294,-1.5269046,-0.72691363,-2.4713583,0.07363791,1.1143309,-1.7039012,-0.31993577,0.76975524,-0.96679056,-1.3116004,0.8197546,-0.098594695,-1.2704453,-2.0350327,
			-1.1152012,-2.0379179,-3.2676055,-0.57795215,0.13187528,2.0715432,-0.954624,0.8114617,-3.1318164,-3.525503,0.502811,-0.1437831,-2.621147,-2.3732297,-1.1465979,-0.12840521,1.1010612,-2.4924045,0.7793462,-3.1420817,-0.7498264,-0.28722817,0.2523282,-0.08460841,-1.6595204,-0.6154703,-3.2794154,-1.9124012,-2.1008303,0.16130808,0.6372725,-0.26957047,-0.21015207,0.55014396,-0.8231398,-2.485503,0.5015793,-0.5641976,-1.1531614,-2.2186193,
			-0.37773523,-1.9136982,0.012836646,-0.20999733,0.3957124,2.882197,-0.80912155,0.26528254,-2.0813954,-2.4689517,0.24359657,0.062821716,-2.4534671,-3.6352155,0.16452698,-0.3491811,0.2667941,-2.6252208,0.41277477,-2.632025,-1.0501211,-2.559412,0.65524477,0.27653491,-0.9736852,-1.008454,-4.4913406,-2.0543644,-1.2716358,0.19969927,-0.91921085,-0.5752777,-1.0918312,-0.23211007,0.2148508,-2.2814593,-0.18061724,-0.17044368,-0.6265618,-1.6988926,
			-0.84132457,-1.7278521,0.3972776,0.14471973,0.18018264,2.8862083,-0.64440936,-0.7363985,-0.69241667,-0.4487693,-0.2951006,0.26379254,-1.7060837,-4.815003,0.3357472,0.34227616,-0.929198,-2.7338128,-0.41165787,-3.092202,-1.3886166,-2.943149,0.76180714,0.24340452,0.47237048,0.24782051,-3.1969361,-1.4263452,-0.17078155,0.36359602,-3.2346807,-1.1483879,-0.6721294,-1.233953,-0.15637587,-0.79609007,0.28041443,0.60384846,-0.07046086,-1.9981642,
			-0.80954427,-1.8521174,0.03409332,0.017183512,0.35330367,3.0861552,-0.63273656,-0.9077579,-0.012687605,-0.21734913,-0.04237879,-0.17181316,-2.5702908,-4.6428275,0.55911785,-0.56793684,-2.9271665,-1.5634073,-1.4147373,-2.2367697,-3.0839398,-0.16424306,-0.86468834,0.43846822,-1.2485058,-0.6331399,-2.1078331,-0.37192628,0.7931287,0.19211835,-2.9339998,0.1873202,-0.68533015,-2.547356,-0.6854563,-0.82448983,0.332936,-0.18383676,0.32512364,-2.010156,
			-0.5914166,-1.9240212,-3.2716281,-0.6877855,-0.47689876,1.0283504,-0.43262172,-1.6962491,0.4306366,0.41660872,-1.2385689,-0.33221254,-2.4779236,-4.8800497,-0.57093126,-1.4247935,-4.063891,-1.9115846,-1.8184445,-0.095818095,-2.3786583,0.49898067,-1.17888,-0.2817849,-2.465539,-0.47791618,-0.9301683,-0.022416912,0.74130076,0.40937087,-2.3688633,0.7986743,0.019610677,-3.196712,-1.2424802,-0.95437723,-0.025169956,-0.28850484,0.64181936,-1.9893252,
			-0.2528255,-2.3911214,-7.791558,-1.3576761,-0.2484921,0.038575564,-0.7349155,-4.0484014,0.17328581,0.11718118,-2.258705,-0.20572461,-3.187575,-1.7987071,-2.5428977,-3.404487,-4.649091,-2.4954128,-1.9600953,0.9919045,-1.1152577,0.57941985,-0.6664817,0.015877701,-2.8230636,1.2570496,-2.0144339,-0.3318136,0.50921005,0.49824002,-2.4082034,-0.9485348,0.24311894,-3.0511172,-0.9577499,-0.60762125,-0.5920223,0.20374805,-0.085974544,-1.7686048,
			-3.5547657,-1.9338199,-6.886501,-0.32351604,-2.724626,-0.31490892,0.576673,-0.56607175,-6.1115565,-4.4598074,0.10829636,-0.59110963,-2.3074453,0.21761195,-2.2635312,-0.17510383,0.92274666,-0.7376884,-0.47984728,-3.0019383,-0.7574672,1.697703,-2.4415948,0.5704046,-0.7741903,4.1152077,0.4441812,-1.6840088,-1.3112624,0.53086376,0.5619861,-1.6310827,-1.622369,0.5849172,-1.7971206,-0.25674018,1.5860088,-0.12437236,-1.9842141,-1.0282665,
			-1.0340838,-0.64016354,-2.9311411,-0.03463121,-0.77983075,0.699896,0.41447023,0.5485243,-3.5582802,-2.9077742,0.6057918,-0.54718745,-1.9781073,-0.994737,-0.83360046,0.53394085,0.6610417,-1.9404565,0.65456414,-2.6086495,-1.0420121,-1.8455633,-0.7120403,0.4306549,-1.955274,1.7586648,-0.7075674,-2.2356608,-0.59425026,0.589649,0.5940846,-0.23772253,-0.33523986,0.7410956,-1.3751961,-1.4102092,0.98748434,-0.64013124,-1.0112094,-2.2204952,
			0.059982285,-0.95937735,-0.02564938,0.23005553,0.2623649,1.7896711,0.51648206,0.062497746,-1.8329835,-1.8181713,0.64782274,-0.40285698,-1.8864919,-1.6727462,0.29237753,-0.010794796,-0.02826319,-1.4573222,0.4122219,-2.6674073,-1.918079,-1.9388374,0.1360414,0.4532815,-1.0529518,0.43915772,-1.4793372,-2.2748613,0.030631673,0.8385649,0.23580405,-0.5998743,-1.0579736,0.5867041,-0.30538145,-2.034605,0.2719733,-0.4264082,-1.0082374,-2.2309582,
			0.3397392,-0.29938087,0.38884285,0.20814782,0.22178444,2.3305626,0.7660867,-0.97977114,-0.801144,-0.40935683,0.45165113,0.15190628,-2.1244328,-2.3795674,0.6031492,-0.21026956,-0.9334794,-1.3944386,-0.37687275,-2.11548,-2.1049273,-1.1582787,0.42247638,0.40677541,0.1779556,0.1432811,-1.0341355,-1.6645541,0.5833401,0.49453467,-1.6773964,-1.2432735,-0.29599154,-0.41854396,0.27802286,-1.6885952,0.28562894,0.2858761,-0.07626685,-2.013475,
			0.45026156,-0.83980423,-0.24715067,-0.5865287,0.345551,1.347114,0.70701575,-1.3108972,0.20880385,0.19671333,0.4285571,-0.4704846,-1.828706,-2.9839842,0.4371809,-0.7417955,-1.7999289,-1.4303292,-1.4718183,-0.8232872,-2.0947506,0.3259471,-0.017495345,0.43240845,-1.390815,0.11724118,-0.3332548,-0.24381065,0.6337066,0.7884764,-2.9799888,-0.22300385,-0.7472475,-1.4970317,0.14470977,-2.3777914,-0.27935544,-0.31945854,0.3611305,-1.8483465,
			0.4350962,-0.26119128,-2.990168,-1.8442765,-1.4863011,0.42406538,0.6620935,-2.5551815,0.4788865,0.6743093,0.057756063,-0.39573315,-2.2074363,-1.7193664,-1.215064,-1.7188649,-2.7083862,-1.991605,-1.6162438,0.542084,-1.1476016,0.42965788,-0.7558832,0.2720389,-2.3194375,1.173047,-0.21488635,0.15671366,0.08158269,0.5970651,-3.041495,0.6183056,0.15663722,-1.9147208,-0.42092985,-1.6354327,-0.4873,-0.37630117,0.7623281,-2.130906,
			0.56906325,-1.2794628,-5.6125636,-2.87512,-1.62864,-0.26995584,0.43754083,-3.163559,-0.40335643,-0.017943019,-1.0871046,-0.41549993,-2.653925,0.1656989,-4.943887,-4.382787,-2.8527007,-0.93127835,-2.6712022,1.6382021,-0.0054772627,0.21067908,0.0037063598,0.35933158,-2.581701,2.924047,-1.0680056,-0.33999094,-0.7088945,0.9140505,-3.1301994,-1.0860308,-0.39090288,-2.9925706,-1.1141042,-1.3014288,-1.1990345,-0.034951326,0.23450537,-0.8759452,
			-1.4113698,-0.91586244,-3.495385,0.12782918,-5.0433726,-0.6944867,-0.024445955,-0.925033,-4.637184,-3.7196422,-0.5766865,-2.9927604,-0.89057535,0.52272075,-3.8452237,-0.028491078,0.6731852,-1.518268,-0.28132138,-1.8762143,-1.882908,0.015838973,-3.995136,0.46945825,-0.75221324,1.7594928,0.63348705,-1.5575418,-0.63206106,0.516439,-0.4683318,-1.7342036,-1.3482207,0.009682949,-1.8033465,0.63692874,1.1839199,-0.07613975,-2.905797,0.8887348,
			-0.19972706,-0.43562585,-1.7131134,0.49862057,-1.6203979,0.32020593,-0.23426238,0.81365013,-3.039964,-2.230184,-0.1699264,-1.5245993,-1.1891803,-0.09062295,-0.95887834,0.58106774,0.51804084,-1.5661113,0.56599075,-2.00635,-1.9378952,-2.1989346,-2.1749754,0.5892241,-1.8849225,2.3791735,0.49581602,-2.8887525,0.022720058,0.61128646,0.23819983,0.37544578,-1.2200502,0.41817844,-2.092472,-0.0053448635,0.36177054,-0.57497406,-1.9528394,0.21746078,
			0.41075608,-0.22892489,0.13677683,0.40848842,0.3827373,0.63455325,-0.21929173,0.11982208,-1.4191616,-0.69336534,-0.012002322,-0.28090498,-1.4327867,-0.44109765,0.22037682,0.2643726,0.19399536,-1.0502555,0.40887633,-1.8233442,-2.4863927,-1.2559917,-0.65631455,0.3851773,-1.2433792,0.6669083,0.3458314,-2.8303194,0.5669395,0.40566406,0.48111418,-0.24206235,-0.4432652,0.5858054,-1.3609464,-1.1444411,-0.018338857,-0.39752755,-1.1930867,0.24843322,
			0.5728268,-0.3548187,0.30045062,-0.13371268,0.27271363,1.045969,0.00011013343,-0.9657109,-0.708504,0.31683636,-0.023550907,0.06650386,-1.2784598,-0.7803419,0.53036827,0.049098913,-0.7497057,-0.48563594,-0.39506343,-1.000378,-2.0731332,0.23418812,0.42199516,0.08517489,0.24536091,0.30654186,0.2905313,-1.5296668,0.3857229,0.32598057,-0.10311145,-1.1162738,-0.43146807,0.13939054,-0.24455744,-1.9791468,0.24411133,0.46973947,-0.20522659,0.3358117,
			0.57155055,-0.18276648,0.056081172,-1.6950396,0.26843715,0.52848595,-0.16355832,-1.2165399,0.15424511,0.4355519,0.4071717,-0.14467587,-1.2481837,-0.7920284,0.3186882,-1.223968,-1.8064588,-1.1344389,-1.2940425,0.07732968,-0.9472964,0.58057016,0.24960364,0.10942564,-1.2410417,0.43981868,0.48665366,-0.4838992,-0.08797898,0.2631892,-1.5808547,-0.03671661,-0.2945492,-0.29364148,0.46369267,-2.533513,-0.10848132,-0.29532877,0.25770533,0.16223617,
			0.37650946,-0.48026112,-1.5540886,-2.6036932,-2.4102528,0.39974353,-0.15477261,-2.043381,0.48295316,0.27318284,0.5722217,-0.47521573,-1.2814747,-0.18724976,-1.5031034,-2.2668607,-1.938607,-1.1818529,-2.1030004,0.70424294,0.08672159,0.13055106,-0.08535888,0.17747529,-2.0307684,1.7468485,0.26565552,0.065615065,-1.4816998,0.4421372,-2.6700628,0.7701152,-0.7351043,-1.1986004,0.3924148,-1.9930882,-0.73121274,-0.36244687,0.45598075,0.23283939,
			0.16552386,-0.6008016,-2.6892881,-2.5979192,-2.2398381,-0.32675385,0.07110887,-3.5385227,-0.20516008,-0.5077449,-0.2546898,0.41639334,-1.5781361,0.6817827,-5.798074,-5.267226,-1.3409745,-1.4077928,-3.6792593,1.1075894,0.82893395,-1.0980178,0.011089071,0.30074814,-2.1157465,3.0291073,-0.5091724,-0.02891951,-2.1829476,0.3199119,-2.8903494,-1.2404664,-1.1648685,-2.4147456,-0.62281585,-1.2454429,-0.9675667,-0.22758637,0.22382447,0.9189328,
			0.26131427,-0.21457729,-1.1501659,-0.09864315,-5.7926073,-0.20431277,-1.5762897,-0.87738544,-5.979212,-2.0951128,-1.5252216,-2.4557035,0.23660006,0.12252938,-4.58681,-0.6379704,0.23582584,-1.5194832,0.3189193,-0.8825637,-1.6208026,-2.5494657,-5.0828133,0.6996254,-0.6520994,1.1239965,0.5586487,-2.2796278,-0.12875684,0.33736673,-2.0505552,-1.8182973,-1.4403741,-0.44135877,-2.700213,0.26784974,0.3133086,1.022431,-2.0100908,0.490447,
			0.34242448,0.83887464,-0.6750801,0.48361272,-2.5576413,-0.20589517,-1.3892481,1.0541357,-2.2285268,-1.0848554,-1.020496,-2.090635,0.032247283,0.169312,-1.4159875,0.30238745,0.2420595,-1.4008327,0.6086838,-0.97357875,-2.067437,-1.5830629,-2.7255304,0.40028965,-2.0909817,0.96282643,0.5541113,-2.4784594,0.6237656,0.14684856,-1.0833427,0.18109721,-1.1575572,-0.30384177,-3.0520122,0.5847883,-0.70332223,-0.015610677,-2.604221,0.5922069,
			0.51598746,0.50209945,0.23447633,0.1683674,0.44088846,0.14684065,-1.2991318,0.44486913,-1.0341285,0.061066296,-1.016171,-0.48106483,-0.082793534,0.23560272,0.075136945,0.31974524,-0.03359837,-1.2543348,0.2827708,-0.9883198,-1.6199375,0.12449348,-1.7604388,-0.16289681,-1.187448,0.9912638,0.5120448,-2.6278582,0.4796947,0.18498388,0.21181726,-0.21095629,-0.7807723,0.3632055,-1.9874777,-0.062312987,-0.514825,0.5863157,-1.668524,0.35043594,
			0.1803051,0.8489786,0.23464301,-0.9788378,0.3527122,0.36142477,-1.2362118,-0.7580765,-0.56563455,0.4943296,-0.9183724,0.34864727,0.046680465,-0.18925758,0.38077632,0.028407311,-0.45111066,-1.1067655,-0.23673514,-0.22691321,-0.84701836,0.6316863,-0.08933242,-0.6110853,0.21650296,0.65995324,0.46238446,-1.3495389,-0.30443776,-0.02385005,0.48272368,-0.9966724,-0.22178604,0.42011687,-1.0613858,-1.0052439,0.004612857,1.2532053,-0.09105458,0.46527818,
			0.38211694,0.35657609,0.32560498,-2.220181,0.19482511,0.3336753,-1.3826985,-0.7719585,0.29355502,0.18882918,-0.29158497,-0.13277502,0.021682158,0.075826675,0.13555032,-1.2686998,-1.0689495,-1.1945667,-1.3287671,0.23193128,0.060301196,0.35822552,0.26151106,-0.156237,-1.3176436,0.8351171,0.5033167,-0.37503713,-1.6520301,-0.00637185,0.15534824,0.27425137,-0.80630356,0.6320454,0.059802476,-1.8392003,-0.76529986,0.6870251,0.030462466,0.34669748,
			0.03455773,0.5803257,-0.6261258,-1.7651675,-2.9347937,-0.08711639,-1.4046866,-1.9220018,0.47433248,-0.42741972,0.3374119,-0.5513727,-0.12058269,0.28300363,-1.6263878,-2.6217442,-0.892247,-1.2347358,-2.3957062,0.38358167,0.69824857,-1.3823051,0.08234094,-0.035793148,-1.7810135,0.99825263,0.480065,0.117838465,-2.7237399,-0.16841854,-1.3778237,0.8646036,-1.7605801,0.0669357,0.61869794,-2.0059903,-0.9747827,0.10650582,0.42487037,0.5129792,
			-0.4663652,-0.004229921,-1.1665897,-2.8987494,-3.2815557,-0.011934093,-0.9588929,-3.3798041,-0.13703316,-1.3138491,0.19587995,0.055438563,-0.037614938,0.36512032,-5.316307,-6.6224146,-0.35630584,-1.2084235,-4.604974,-0.010292213,0.70826495,-3.1695373,0.113845386,-0.30797318,-2.1530848,1.914676,0.39540574,-0.40360746,-1.532933,0.04504037,-2.2720757,-1.0861443,-1.6633469,-0.20471022,-0.17311552,-0.6633409,-0.9468711,0.8907811,0.1800458,0.66312987,
			0.4404003,-0.8384293,-0.67495203,-0.10756113,-6.3333097,-1.0155256,-1.6145133,-0.58928037,-4.780441,-0.69406307,-2.0266874,-1.8318038,0.06106296,0.29753578,-4.759259,-0.7946799,0.52853537,0.073305346,0.48904738,-1.219023,-0.95530564,-1.1879922,-3.756063,0.87027687,-0.51933944,1.1309427,0.2094087,-1.8668554,0.4035332,-1.0597588,-3.323575,-1.7639107,-1.7509253,-2.8849819,-3.6425235,-0.29772964,-1.212364,-0.12112139,-2.3786018,0.2025768,
			0.4623685,-0.23041558,-0.914305,0.6837073,-3.1242628,0.22315003,-1.6852897,0.91297156,-2.0663667,-0.100864455,-1.1332355,-0.17621216,0.5179536,0.43590704,-1.2722548,-0.09874685,0.095412284,-0.019692466,0.6590755,-1.0123099,-0.895037,-0.03690786,-2.4398725,-0.23106715,-1.5286047,1.0838548,0.19202468,-2.9091384,0.7979186,-1.0030227,-2.3433886,-0.54539585,-1.6304495,-1.6382776,-3.7198074,0.36585405,-1.1916372,-0.42308322,-2.1460898,0.42087433,
			0.11102523,0.09343826,0.41207466,0.23768799,0.09616119,0.5812567,-1.3168297,0.14575875,-0.82641846,0.5459651,-1.2441223,0.20178951,0.2936885,0.52147734,0.22123392,0.24715908,0.12302184,-0.14486298,0.33064398,-0.47711164,-0.27402845,0.6284461,-1.9758259,-1.1781328,-1.2092292,0.81453437,0.14220494,-1.9914736,0.051549356,-1.1574033,-1.2257429,-0.6758546,-0.28280362,-0.6762848,-2.7815604,0.627521,0.089298725,-0.12305609,-1.6067502,0.24834053,
			-0.5406517,-0.10867191,0.2451472,-1.1260549,0.3979483,1.2288513,-0.75622106,-0.8539511,-0.15866233,0.5614119,-1.7288944,-0.49197567,0.33877578,0.39293855,0.46580628,0.47890407,-0.10642593,0.0020718835,-0.33388957,0.19206043,-0.043598052,0.3880813,-0.16507974,-1.3862461,0.21714164,0.66431844,0.29704776,-0.5670425,-0.76389176,-1.0559419,0.24795422,-1.3337587,0.060334634,0.03147826,-1.4251872,0.0695392,-0.042811386,0.68650806,-0.43434027,0.3506628,
			-0.25555605,-0.4204609,0.51118106,-2.0653594,0.05540647,0.45396954,-0.9949563,-0.9341892,0.34829688,-0.26098207,-1.0913527,-0.16326855,0.4100038,0.46266517,0.11204358,-0.03870293,-0.7046963,-0.076611266,-1.5599794,0.3713789,0.32414803,-1.3283914,0.24999006,-1.3143638,-1.5171394,0.45994127,0.32701212,0.123912275,-2.2117152,-1.237821,0.39809757,-0.07004373,-0.38553005,0.6039522,-0.20277584,-0.554505,-0.62375844,-0.18257302,0.13130589,0.0960823,
			-0.05331859,-0.6221313,-0.07682704,-1.5733104,-3.5670118,0.49246913,-1.4699445,-2.03867,0.39263472,-1.5357286,-0.27369708,-0.24337453,0.4936644,0.26122537,-1.4518441,-1.3126272,-0.5840351,0.0068441494,-2.6962202,0.40039682,-0.15354158,-2.9059618,0.39442593,-0.38369483,-2.199157,0.6525135,0.37129027,0.45068386,-2.9092598,-1.2921622,0.11555349,0.6116403,-2.1489637,0.51994145,0.41182375,-0.88959193,-1.6580911,-0.45689484,0.5546005,0.06792844,
			-1.123692,-0.85072535,-1.3269942,-1.8001164,-4.9207635,-0.15089308,-0.65973544,-4.298009,-0.45697805,-3.6363978,0.11307463,0.29887304,0.32274252,0.074920386,-3.520007,-4.6608267,-0.7494391,-0.004973561,-4.3249984,0.78952247,-0.23432896,-1.9726769,0.27826214,0.29915938,-2.2029743,1.7227103,0.53538877,-0.5019839,-1.9906778,-1.43778,-0.9140042,-1.0462866,-2.0968654,0.39302087,0.40690076,-0.53576607,-1.9560547,-0.021334738,0.3389442,0.6203399,
			0.67729723,-1.2624671,-0.5369752,0.09045777,-6.3240886,-0.4180784,-1.0472127,-0.35134995,-2.1233819,-0.011346845,-1.0251476,0.8544319,0.80659896,-0.025428003,-4.5465474,-1.1732394,0.68826777,0.61987686,-0.08900262,-1.4689733,-0.017399417,0.0422825,-3.8030183,-0.015667522,-0.4052486,1.1908137,-0.9550668,-2.985973,0.5310724,-2.021093,-2.5171838,-2.3607924,-2.449153,-3.937903,-5.0371737,-1.1771487,-1.5322977,-0.018960994,-2.899185,-1.7658317,
			0.028860714,-0.2680485,-0.837412,0.8484192,-3.2696948,1.003759,-0.9734342,0.6840565,-0.9760625,0.5318902,-0.48034114,0.6314522,0.84905213,0.15449269,-0.81431836,-0.85598624,-0.08799787,0.53918284,0.6530808,-0.84375083,0.29197508,0.56913894,-2.1816874,-1.7585552,-1.6856052,0.5273062,-1.3468993,-2.4326937,0.43828708,-1.9468323,-2.501834,-1.6132716,-0.5453153,-2.2757344,-4.8125663,-0.3587647,-1.44166,-0.32607672,-2.0913815,-1.3338096,
			-1.0955735,-0.49429533,0.11493055,0.3155283,0.0506404,2.0333571,-0.74148345,0.12547971,-0.2490969,0.43997452,-1.3568681,-0.28380492,0.7415107,0.44794655,0.4024824,-0.51128703,0.06968722,0.46340442,0.46382916,0.009693348,0.37837282,0.4996639,-1.4486253,-2.6593044,-1.0721785,1.095258,-0.98937815,-0.9643728,-0.80067325,-1.6734996,-2.187841,-1.371567,0.2112691,-1.9761293,-2.9199178,0.41618165,-0.47152647,-0.25250697,-1.759139,-1.9331552,
			-1.6584612,-0.16376588,0.06486961,-1.2967985,0.47285962,2.451093,-0.5712732,-0.81917393,0.057170223,-0.065262005,-1.7293277,-2.0175352,0.438034,0.5390003,0.5264199,0.1391149,0.34338838,0.48421386,-0.20782803,0.4856165,0.1567788,-1.1072525,-0.24156876,-2.408512,0.28133994,0.34141147,-0.9116284,-0.12141616,-0.87594754,-1.6248541,-1.0214086,-1.3675898,0.14379339,-0.7467111,-1.7222818,0.7353893,-0.039822567,0.2882251,-0.5807149,-1.9178338,
			-1.2795025,-0.94256157,0.44934276,-1.5517277,0.12897697,1.7619592,-0.23362996,-1.3247548,0.39595523,-1.214696,-2.2550337,-0.85490596,0.5766554,0.42508903,-0.034529146,0.4397373,0.17427771,0.4709986,-1.3544136,0.34273386,-0.24220048,-2.938769,-0.08076317,-2.6950123,-1.4722881,0.8609634,-0.8098256,0.19703126,-2.0020967,-1.5404317,0.2587172,-0.143512,-0.027637837,0.10357248,-0.20606886,0.44153193,-1.5668801,-0.49575466,0.20180246,-2.351285,
			-0.505214,-0.80663985,-0.38185507,-1.2029163,-2.9400375,0.6699927,-0.56348366,-1.9902892,0.41111535,-3.1069665,-1.4716896,0.1868436,0.8409717,-0.13962461,-1.5074427,0.1456371,-0.15709852,0.5378194,-2.7368116,0.116197154,-0.8567697,-2.779538,0.1423219,-2.025537,-2.6814818,0.59738696,-0.6685727,0.15300763,-2.0542092,-1.6959808,0.59837335,0.5135177,-0.87961,0.7963099,0.47905487,-0.009144503,-2.2633238,-0.48607948,0.5589901,-2.4202373,
			-0.54183245,-1.9039769,-0.7060964,-2.2833867,-5.2266293,0.030037187,-0.11524956,-2.5624404,0.06982746,-6.148551,-0.4676798,0.4689134,0.86567706,-0.8346244,-4.5429454,-1.131945,-0.7823135,0.5181616,-4.2152,1.2125304,-1.1619842,-0.40643254,0.13944544,-0.17045568,-3.3988042,1.5748125,0.12895148,-0.73008955,-1.2732084,-2.1618185,0.2980667,-1.1967314,-3.0186183,0.85708106,0.12479507,-0.1904447,-2.4083598,-0.11269891,0.16226871,-2.219172,
			-0.24357429,-2.3607411,-0.27463397,0.05905225,-8.915309,0.51988053,-0.37941954,-0.24350703,-0.5707015,0.25873294,0.13089296,1.0670475,0.66589844,-0.56470734,-1.898785,-1.1547867,-0.2059882,-0.5178857,-0.49921948,-0.92929614,0.15830274,0.6933051,-3.6857784,-1.2957284,-0.34699437,0.2409544,-2.8835535,-2.0705256,0.3541145,-3.1147852,-1.612193,-3.6639514,-0.36619022,-2.7815928,-5.4299765,-2.083529,-1.0336131,0.17480943,-3.287327,-2.9126208,
			-1.6839736,-1.4626453,-0.2339282,0.43492994,-3.115111,1.9662712,-0.3551935,0.72970533,-0.07228262,0.6458777,0.8518376,0.8880721,0.72889715,-1.051766,-0.20929672,-1.8162766,-0.8698836,-0.40328568,0.5735255,-0.5533543,0.45632994,0.55611765,-2.3376167,-3.162843,-1.9269758,0.6565341,-2.8808594,-1.4917722,-0.36941355,-3.034201,-2.6834388,-1.5369292,1.0831894,-3.3349714,-4.6716843,-0.75757825,-0.2528954,-0.26454017,-2.7898252,-1.8030497,
			-3.9614105,-1.4701582,0.30757034,-0.3151917,-0.04589375,2.1610472,0.0794984,0.3520122,0.27254337,0.16887435,-0.54885256,-1.1378646,0.5304908,-0.36614743,0.5055873,-1.5360346,-0.579762,-0.6396291,0.3801696,0.121586874,0.0973304,-0.288519,-1.1856828,-3.471611,-0.5643295,0.7737176,-2.285327,-0.4606803,-1.2533377,-2.6314433,-2.1030588,-1.5430373,0.92958194,-3.080281,-3.2412808,-0.24769895,0.2875653,-0.10823454,-1.9742886,-2.6440241,
			-4.602867,-1.3707235,0.14678097,-0.9405926,0.24272446,1.4317585,-0.5502515,-0.5297312,-0.19378385,-0.658941,-1.2586385,-3.5219398,0.14265646,-0.018742358,0.5347811,-0.08791573,0.25553226,-0.95465076,-0.2457535,0.5252659,-0.6362705,-2.4298534,0.6407658,-3.4350653,0.73871225,0.26176128,-2.1353323,-0.37373775,-1.130862,-2.4227743,-2.102942,-0.99065757,0.13359977,-2.0598629,-1.3686527,0.19765183,0.027757358,0.4960602,-0.3736396,-3.1282868,
			-3.0190754,-1.8907206,0.6213702,-1.4754043,0.37556943,2.4765556,0.7589767,-0.9688056,0.09058507,-3.444636,-2.7462873,-2.343538,-0.26309085,0.17924722,-0.15969332,0.41604415,0.44005892,-1.0164099,-0.61918116,0.38301328,-0.92918557,-1.9138534,0.2505016,-3.5353267,-1.387547,0.35675508,-3.2476027,-0.120415874,-2.1533291,-2.6141233,-0.28470832,0.15103954,1.1076595,-0.9749594,-0.2068603,0.6945668,-1.7317054,-0.3140769,0.17100714,-2.909416,
			-1.460641,-2.2662394,0.027232679,-1.0615922,-0.8180002,1.5917811,1.126427,-1.2613325,-0.03752289,-5.1890054,-2.8032255,-0.1469151,0.30848575,-0.7370246,-2.7787232,0.7555533,0.23547128,-0.5843245,-2.052326,-0.12198456,-1.2461505,-0.34787065,0.24317227,-3.2910938,-3.0824654,0.57897824,-2.5998647,0.025964558,-1.8159391,-2.7042143,0.7778395,0.83559513,0.98486453,0.051746055,0.09594179,0.37192342,-2.8810878,-0.68482697,0.75587994,-2.9440289,
			-0.97895336,-2.8570554,-0.2852664,-0.89734393,-2.3698611,0.86395586,1.0977311,-3.5065155,0.2852106,-7.4400954,-1.2353201,0.23663281,0.6419806,-1.6425552,-5.842032,0.40422687,-0.27743092,-0.89589286,-3.162695,0.5422293,-1.9362171,0.5363805,-0.035179563,-1.3503214,-4.096547,0.45619738,-0.90779924,-0.76981324,-0.31429157,-3.1672187,0.93087137,-1.0877842,-0.37985867,0.65979993,0.022884835,-0.022610106,-3.4627576,-0.2343331,-0.09799235,-4.261838;
