			0.27169052,-0.035761334,-0.23139456,0.08377866,-0.16669044,-0.46324098,-0.28020504,0.01731123,2.0849504,-0.7264572,-0.33211163,2.1517546,-0.8143691,-2.5613952,0.48366717,1.7439305,1.0808724,
			-0.22058564,-0.10911058,-0.22707713,-0.08172664,-0.29222825,-0.85902494,-0.31349775,-0.08991158,-1.7549704,-0.7281304,-0.20404497,0.643082,5.3310237,-0.17642742,-0.11890211,0.6387878,0.73554033,
			-0.063133955,-0.08616048,0.028096866,-0.008639149,-0.11095305,0.05414028,-0.084520474,-0.0066313394,-4.0135694,0.557121,1.0325372,0.107730344,0.033811234,-0.45862705,0.9779876,-1.9232011,-13.187158,
			0.022922361,0.022216978,0.018801989,-0.026793957,0.009414,0.09311434,0.052492905,-0.007955258,2.0169046,-7.0559034,0.5241106,0.35090253,0.9428107,-0.5160615,-0.18733878,-3.7424874,-18.55829,
			-0.07896367,-0.025864806,0.024612298,0.027150268,-0.051584054,0.1447178,0.19878119,-0.028544582,1.4838274,-2.1317856,-0.13161953,-0.57877386,-0.36973298,0.109864846,0.1381105,9.051451,6.938704,
			0.08230035,-0.11055486,0.18667798,0.05055049,-0.17725109,-0.23918864,-0.35769546,0.033032183,1.2198236,4.651282,-3.1991303,0.14028762,0.4797825,-0.5237377,0.23614769,5.730823,3.9519777,
			0.10645536,0.01361822,0.08140197,-0.0029721747,0.0006196164,-0.2502321,-0.09777113,0.011315356,0.7043218,-0.2062449,0.014280244,1.383885,0.22477144,-3.8303852,0.29121527,-0.31814286,-1.8299563,
			0.055390667,0.0013679587,-0.21537696,-0.0047013373,-0.0023572883,-0.14480817,0.14913149,-0.008194977,-1.6826508,6.558759,-0.5948754,0.13718082,-0.38048264,0.44212887,0.32899815,-4.329301,5.7035475,
			0.08674003,-0.060029257,0.4992497,0.014042917,0.08427627,-0.076502144,-0.75123817,0.090268016,-0.79030466,-2.8794324,0.41587743,1.0789393,-2.1330736,-0.6979894,-0.513575,4.789834,8.768227,
			0.036748324,-0.040479273,0.1400041,-0.0089607155,-0.04702826,-0.14397484,-0.064408354,0.033226654,0.61573887,5.6252756,0.25589827,-0.0034073738,-0.9085181,-0.18722272,-0.00090710726,-7.803845,1.7090962,
			-0.055913493,-0.01173078,0.04956114,-0.008348655,-0.012264921,-0.2049369,-0.022558149,0.047508713,0.82552534,3.8607454,0.52189803,-1.2436957,0.027488485,1.873454,-3.0599713,-0.1451782,4.1789765,
			-0.020753592,-0.0022819857,0.048641536,-0.0028157388,-0.06180811,-0.07981628,-0.21855529,0.009304505,-0.44250682,0.004006645,0.27683106,-1.6613839,-0.8272454,3.4492085,-0.24531277,1.5956767,2.3653355,
			0.057979546,0.09287997,-0.18373866,-0.009301836,0.062414356,-0.12797795,0.2821112,-0.046458982,-1.7942113,0.6552337,1.1081517,1.0996464,-0.6084252,-1.6306925,-0.8312921,5.867055,9.285515,
			-0.9746936,-0.43815818,2.4380357,-0.08075853,0.3810236,7.226621,-1.8052093,0.5317739,-3.517882,-4.4423637,-0.37689853,0.10406138,2.6096046,-1.2508382,-0.34964654,-3.097534,4.7064667,
			-0.07521308,-0.15888393,0.3499518,-0.018078249,-0.13190822,-0.2079681,-0.30445102,0.08304279,-0.44891933,2.912789,0.012911031,0.24433343,-4.827012,-0.14504257,-0.12571624,1.0070473,4.153759,
			0.058061857,-0.1664929,0.29121518,-0.041491095,-0.14391808,0.2828767,-0.20046635,0.053184316,2.608781,-2.988707,-0.043964867,-1.2005712,-2.7107334,0.8642497,0.8028957,3.017047,-10.542594,
			-0.013231333,-0.0525901,0.120117836,0.009172782,-0.026363527,0.008466241,-0.11629467,0.012339214,-0.42018303,2.1699376,0.25524166,0.21787195,0.26308253,-1.0155754,0.18320468,0.27945063,-15.073424,
			-0.39309177,0.7542374,5.093922,0.27313533,0.32451814,1.3002496,-4.77525,-0.47624746,1.9224019,2.897426,-0.2706024,-0.59436786,-6.508176,0.87440634,0.31815436,-0.6150186,-4.023465,
			-0.32997015,-0.030186143,1.1046715,0.11264091,0.0088829035,0.8862948,0.06647106,-0.015071598,0.9755111,3.408243,0.34365854,-0.4193722,0.8370823,0.50033545,-0.005091897,-9.171043,-2.1874068,
			0.14204936,-0.12221067,0.20883496,0.04395817,-0.13028932,0.057898507,-0.25244632,0.05489987,1.8463894,4.3157325,0.034257848,-0.68759054,0.80032057,-0.10782759,-2.839153,5.7541866,4.3925,
			0.11964228,0.079034165,-0.58401835,-0.016556287,0.014334856,-0.28590685,0.30209798,-0.06333332,4.4411154,-1.7514563,0.44264594,-1.4235063,0.3847613,-0.6184456,0.8858184,-6.0755057,7.4306,
			-0.36656508,0.010035141,3.5571904,0.03899285,0.03510019,0.5079752,-2.0664895,-0.17420241,0.09291836,5.6979966,-0.2378974,-0.43219605,-3.484206,0.81544846,0.3041837,2.8838568,5.322598,
			0.0104272,0.061092284,-0.022312628,-0.009364645,0.04981413,-0.15176255,-0.07761459,0.025080243,0.1015697,-5.213034,0.818993,0.7496,-2.1818364,2.7629595,0.31482917,-1.0745701,-1.7413583,
			-0.21756971,-0.017776947,-0.68045086,-0.1963566,0.051350504,0.5176841,0.18516417,0.33078298,-0.13121672,0.39448366,-0.13873498,-0.22345477,-0.049474854,-0.047475163,-0.03113892,0.43624827,-0.43767792,
			-0.05125897,0.038180683,0.2520111,-0.004611525,0.035833586,0.09924457,-0.2547352,-0.047179792,0.12629488,0.53443277,0.01616613,0.019229157,-5.444841,0.008248814,0.03140671,-0.04710529,0.9961382,
			-0.04850706,0.006695635,0.06778389,-0.031555362,0.013388894,-0.014823198,-0.010467465,-0.044899248,4.5987673,-0.6313403,-1.1553603,-0.44669044,-0.04492193,0.62230325,-0.6899721,1.6013207,12.372214,
			0.0777337,0.03268048,0.043506876,0.035049867,-0.05276195,-0.12614311,-0.03028451,-0.06854085,-5.3518505,-2.8090584,0.70892775,-0.46116632,-0.17321357,0.82188034,0.32093084,3.7743075,-1.270952,
			-0.07179799,0.025178544,0.15506063,-0.009146709,-0.050129205,-0.13370347,-0.22314072,-0.027316926,-2.79818,4.379087,0.08956845,-1.1336684,1.9887751,-2.3870974,-0.44435373,4.3026776,-1.2916849,
			-0.008775592,-0.007856104,0.06212155,0.0018770484,0.0064761434,-0.021350795,-0.035229266,0.015181365,0.005827982,-8.603247,-0.0037263818,0.09488621,0.74726236,0.07070602,-0.053267393,2.122469,-0.68590456,
			-0.06511177,0.033164304,-0.040527437,-0.037598047,0.040682115,-0.26320165,0.0635447,-0.036591325,-1.301811,6.1579523,-0.017190428,-1.7530338,0.6635679,-0.5046179,-0.30032223,7.8500175,-3.9416378,
			-0.063919514,0.027964206,0.10289936,0.0026595704,0.013011028,0.09029794,0.004055333,-0.0013519499,-4.1585035,-0.9872628,-1.589889,1.447097,0.69766134,1.3321171,-0.7309928,-4.1367326,5.3265924,
			0.042084906,-0.0009237068,0.1388713,0.016000614,-0.0070988922,0.06970714,-0.042153586,0.014612362,1.5390191,-1.3786587,0.3983656,1.1320347,0.66033006,0.25550485,-2.3460455,-7.9113646,0.66008395,
			0.025827032,-0.027150763,-0.17080405,0.033078644,-0.04975622,-0.152165,0.17593275,0.00021675711,5.7965016,-0.0135689685,-0.3920971,0.8642852,-1.4217225,0.2835711,0.20900263,-3.2643273,0.30003983,
			-0.0886545,-0.021639062,0.48403087,0.012513624,0.1108258,0.26886398,-0.027886463,0.15887424,-0.64430976,-2.3204076,-1.1273161,-0.5148279,-0.6417594,0.94824076,1.3045727,8.684841,-0.69696134,
			-0.009782653,-0.017780028,0.13358206,0.0049421703,0.011103739,0.13507232,-0.31458977,0.060504906,1.8776295,8.335462,0.4349496,-0.57170635,-1.175402,-0.5712131,0.16569951,0.53336304,2.351219,
			-0.007167511,0.003510483,0.08067666,0.0070546954,0.0032778087,0.018203497,-0.045643654,0.003999801,0.19498031,0.96096414,0.028502388,-0.03251363,0.7101388,0.106800914,0.027104588,-10.070521,-1.731239,
			0.016552972,0.019184494,0.16223374,-0.03563224,0.02682055,-0.087594055,-0.1426778,0.020793721,0.4456577,2.2145815,-3.7646427,-0.2061593,1.4661186,-0.27724153,0.36399752,1.7732586,1.5512644,
			0.028132936,0.032787725,-0.08577824,0.0015203081,0.0057037864,-0.09781009,0.08039997,-0.012233612,1.1732293,0.8912865,-0.1631766,-0.24794309,-0.3382817,0.8980918,-0.039238237,2.9702396,-17.05051,
			0.39603046,-0.08744001,0.13645622,0.18119077,0.03275217,-0.39164314,-0.44748655,0.1804814,-1.6262907,1.882992,0.37035987,-2.8696444,1.0673587,0.5266145,-0.067111045,4.906961,4.3371654,
			0.080131814,-0.02493371,0.20408115,-0.00068120507,-0.01832756,-0.22902943,-0.26402903,0.024366725,0.36774278,0.4582821,-0.12538551,-3.1725333,1.0263195,1.0515219,0.1902059,0.48874912,-2.1352005;
