			-0.3689763,0.42118064,-1.8627874,0.65294254,2.0344687,-0.72597915,0.04831477,16.898232,-1.5113189,-1.2624731,-0.23255783,-0.3828968,1.6540352,0.33437327,1.33635,-0.71304834,0.96077144,-0.029798362,-2.3272412,1.4724119,-1.6944261,0.38821682,1.4314876,0.027419928,-1.2629378,-0.6573345,0.0043332,-0.73718214,0.72753435,-0.25897044,-1.7645606,-0.4821814,-0.7073298,-1.1048472,0.3132362,0.78640467,-0.026270652,6.987512,0.14502648,-0.6167309,
			0.04694852,-1.3590376,1.1161488,-0.46630707,-3.3784044,0.00036400248,-0.14363523,4.047411,0.19554603,-1.8154511,-0.16889822,0.0061847414,-2.4287949,0.09287162,-0.41007808,0.6583383,-0.020920962,0.21991971,0.1724596,-0.0064894655,1.8880408,-0.55431724,-0.6625805,-0.004354303,0.2540088,1.6243154,0.8463272,-0.49029797,18.057854,0.120473824,0.022764927,-0.31100917,-0.36674306,-1.5480858,-4.6037583,-2.864272,0.3613909,-3.728477,-0.031095548,-0.30969375,
			-0.089347534,0.078255445,0.07275657,-1.0489739,-0.20505355,0.42985365,3.1361,5.095991,0.3223918,1.1587343,-0.562171,-10.422157,-0.8342806,-0.51128477,-1.3078442,0.8027478,1.1050589,0.16474052,-0.2760427,0.023847582,-0.24858715,-1.5118922,-5.828655,0.016793871,0.2110858,0.29642472,0.6611759,5.3840184,-1.025821,0.16159928,-0.60925347,-0.67221034,-2.5368352,-0.26479968,1.392544,0.9743408,-0.275744,-3.1367464,-1.4907436,-0.47879204,
			-0.3294612,-0.33157504,0.13513085,0.5208939,-2.2250767,2.2958713,-0.3089087,-7.127496,-1.106472,0.8556446,0.05403672,-0.7660114,-0.62952644,-0.15660137,0.17358255,-0.6830452,-0.16561604,-0.4646536,3.1429484,-1.6690537,-0.061957248,0.79660666,-0.0073625264,-0.0013081173,-2.9823499,-0.4259044,-0.18141806,-2.0480945,-5.389925,-0.021882014,-0.027987324,1.3716017,0.6924118,-1.3326315,1.676096,3.334987,3.0031075,-4.398062,0.7181941,0.62260956,
			-0.07251211,-7.9920254,0.26829946,0.9231042,-0.94611,-0.15102662,-0.031593937,0.56617266,0.054204304,1.1974481,0.4283906,-0.05970837,-0.35291007,-1.5675962,6.164147,2.2249165,-0.5773829,-0.48571235,-1.3587672,-0.6493492,-0.5494869,-2.175757,-0.5634139,0.009507678,7.8670363,0.23864904,-0.20650558,-0.30932614,-0.27223748,-0.66623884,-0.39315823,-0.22571829,-0.65351266,0.1995726,-1.5942951,-0.058367364,0.04999988,-1.3904139,-0.6366379,-0.5342505,
			0.6191042,-3.0296128,-0.11595223,-0.24571884,3.4827101,-0.6098281,0.43922454,8.736819,1.3849951,-5.0202155,-0.1887359,-0.12880857,0.29251045,-1.4878106,0.81981206,3.887774,-0.7477815,0.17613798,-3.511288,-0.73152184,-0.39482567,1.5897175,0.75400585,-0.001035217,0.53841347,0.08313243,-0.4025401,0.61888975,0.9316859,0.8676395,-0.10350479,-0.085457176,-1.0252104,1.514639,-4.0959663,-5.440784,-0.73830944,-2.05445,-0.29299137,0.41944197,
			-0.06686057,0.13615896,-1.685762,-0.46659437,2.2295854,2.3910406,0.5802071,1.0715723,2.2791505,-0.35907537,-3.6583884,-5.740312,-0.95563006,-2.0838914,0.038354322,0.74994695,1.9697031,0.18177931,-1.0258734,-2.14247,-1.4665904,0.15405275,-0.59665585,-0.0110223275,0.00723531,-0.018746728,-5.4084687,-1.1557902,-0.59945804,0.3276588,1.0867485,-2.9648294,1.6569715,-0.6253719,0.547994,0.2273854,2.5804443,-3.1489437,-2.8057725,-1.8290149,
			-5.9181647,0.0542296,-0.8900762,-3.6473677,2.6358583,-1.3959477,-8.24863,2.1071131,0.14326042,-0.5924065,-0.22042552,0.8183276,-3.5072331,-1.8875467,1.8089899,-0.92749226,-2.1484005,0.08303005,-1.578068,1.1988329,1.8212105,1.1091218,0.17763792,-0.00960477,-0.43106622,0.08998598,0.31516156,-1.5280069,1.867399,-0.078882344,-2.7115414,-0.8776044,-1.1932137,0.025440155,1.0004405,2.2999427,-0.90059406,0.9054639,1.9789311,2.8515038,
			-0.5471271,-6.762223,-1.4284954,-0.9889501,-0.39035913,-0.386816,1.9223833,-1.2450712,1.2552496,0.073361546,0.5984896,-0.5169446,0.8016886,-3.1318476,3.0590563,2.947372,-0.4211438,-1.82469,1.8261507,-2.838188,-0.8209122,0.75438386,1.3956784,0.021220163,3.6362064,-0.15103981,-0.48066753,-6.4164953,2.6379375,1.4315275,-0.042027403,-0.64901686,0.12392005,-0.037398428,-0.590092,2.0761263,-0.6686681,-1.6096017,-1.2261472,2.0984101,
			-0.042383768,-0.52529615,1.2348807,-0.8405041,5.0746117,0.91492796,0.18621866,5.6855774,0.69202363,-2.009693,-0.5199673,-0.23450965,-0.5120183,-0.7214246,-1.2868748,0.4406762,-2.0730698,-0.69400775,-0.92261446,-1.2582945,-1.336353,1.0158486,-0.0096125975,0.015448918,-3.4200387,-0.017614815,1.0670745,-0.9540002,3.9549103,-0.2119557,-0.4487915,0.040957913,1.0085213,0.53487444,-2.2758696,-5.653669,1.8609264,-2.9229674,0.5268534,0.13415661,
			-0.7807054,-0.028580524,0.43562055,0.6332799,0.012947976,-0.46444142,0.84047097,6.4259486,-0.0939861,-0.17503528,-1.2226715,-1.903402,-0.63184685,-0.41132107,-0.021305265,1.0816071,5.0260735,0.09924508,-1.0086893,-1.0378132,-0.3189626,-0.32816836,-2.2981496,-0.01410629,-0.11403562,-1.741751,-0.9866081,1.0989494,-0.24849543,-0.38728592,-0.3335706,0.77052623,-2.2556975,0.35502237,-0.38128224,-0.020690726,-1.2879514,10.732819,0.5224101,-0.0721205,
			-4.264049,-2.5330477,1.3740264,-0.24595883,-0.14803515,-0.18830475,-2.2194648,2.249488,-3.0956697,-0.4148009,0.48309115,-0.5509551,-0.3436447,0.31360713,-0.6941796,0.16062087,-1.4958493,0.2005579,-1.4934652,1.029609,0.12148034,-0.45771095,-4.8498774,0.00074413046,0.30277514,1.0928634,1.1739258,0.8233478,-0.4623896,-1.6941023,-0.61902106,-0.8360857,-1.7557299,-1.0278928,-0.186243,-0.45537758,-0.030011624,-1.4980865,0.8040189,8.702533,
			1.9427699,0.25515562,-3.267029,0.7424311,0.9106218,3.2398787,-0.9335776,-1.7055049,0.18766955,0.9224974,-0.40271214,0.13605511,-0.09501621,-1.8176386,1.8578475,0.13054667,-2.4764771,-1.7315977,-0.8093676,1.6965556,-1.8352258,0.32556742,0.3672195,0.019431852,4.0836344,2.2628167,0.2680748,-2.5990956,-3.0098171,-1.2965502,0.104728945,-0.04106078,-0.7803268,0.57532656,0.2797985,-1.6741844,1.2673563,-1.5898663,-0.80349994,-0.8801116,
			0.26401326,-1.6281734,-0.18719777,0.31393224,-6.5981054,-0.4903701,-0.25617856,4.953617,-1.9634552,-0.7712534,-0.51102996,-0.29293147,-1.6016196,-0.53617907,0.44425747,0.591151,7.451218,0.27740645,-0.30828267,0.2828346,-2.0151792,0.2578373,-0.7185479,0.005236413,0.5436341,-0.7711433,-0.15082024,-0.737573,-1.197215,-1.1888491,0.14186239,-0.91323394,-0.49650994,-0.5047705,-0.5363718,-0.72319335,-0.25513923,9.319674,-0.6767436,-0.86899936,
			-3.1314182,-0.3044719,-2.7585936,5.1287766,-0.34076416,-2.6977427,-2.0901818,-2.569221,1.8560679,0.66084963,0.50763464,1.0730697,-0.39297858,-1.6843692,-0.6731789,0.55470645,-3.4605582,-0.47397098,1.8725848,1.6199806,-1.37929,0.011875891,-0.82450473,0.012104373,-1.1923614,1.7732413,-1.5772086,2.0355544,-2.2103744,-1.221868,-0.1982895,2.1676798,0.019894414,-4.189555,1.2984964,-2.3949902,-1.4449527,-0.19337681,-0.6805206,-0.9924225,
			-1.5441065,-0.46389565,-0.15274659,1.0682522,-0.17168309,-1.3319616,0.8425767,2.7330725,1.1874855,0.8556999,-0.4804261,-0.47898844,-0.5655341,-2.9961016,1.0611337,1.9548236,1.1522495,-1.5409772,-0.8631826,-1.4831606,-2.9038894,-0.03970133,0.9990095,0.002766877,4.9875307,-2.7468338,1.5655648,-2.2375035,-0.43577322,0.34481385,-1.5186752,-0.62086594,-0.6434855,1.6291935,0.42894575,-2.1571195,-0.5492217,1.1818686,-0.42785153,1.2558818,
			2.0905387,-0.8602307,-0.6267245,-0.3656636,1.2559005,-1.6461146,1.4301647,6.1285887,-0.1749188,-1.6928974,5.7428966,-2.8214273,-0.67603874,-1.2811017,1.6305678,-1.6579188,-1.8009036,0.6266269,-2.0853968,1.7846158,-2.946115,0.8846806,-2.9862688,-0.015121654,1.9160638,-0.60721296,-1.3263199,0.13093205,1.2665659,-1.4981735,0.40126932,0.25711542,-1.1438962,-0.36827955,0.31025726,-3.911063,-0.8219063,-0.18037347,0.055626422,-1.740298,
			0.69622487,-0.24965312,-6.993196,-0.61153847,0.26339453,1.7756792,0.6998414,1.2631845,0.3067972,-0.07156739,0.89773065,0.35581568,1.0863596,-0.35932767,-0.17660968,1.037079,-1.4199203,-0.11827983,-0.92681605,1.6646178,-2.089653,-0.14233856,-9.703543,-0.015533294,0.33710462,2.177676,-1.9310013,0.9347751,-1.8388234,-1.9140565,-0.18159842,-1.1740583,-2.8024926,-0.4534718,-0.11318718,-1.1637042,-0.06163126,2.8298275,-0.7437084,-0.043941177,
			0.42852375,-6.3881755,-0.74996775,0.079183914,-5.221719,-1.2752644,0.53461385,-4.0178294,-3.1614637,6.5027695,0.003274224,-0.17044248,-1.733839,-0.40552342,1.1188743,-1.3337426,0.037172716,0.37262633,-1.859976,0.28473926,0.14816014,2.7097409,0.6069625,-0.0057821646,0.6329741,-0.3988185,-1.1121328,0.14808655,-4.036704,0.55876184,0.73980826,0.43262926,-0.6273806,-2.5493248,-0.22673711,-1.7575158,-0.89555216,-1.5278472,-0.13162076,0.10169444,
			-0.7533742,-0.3351986,1.9664986,-0.031371888,-8.491619,-0.6027836,0.225121,3.6757119,0.0113181975,-0.38482255,0.37001625,-0.7310083,-2.3045146,-0.23910291,0.008739672,0.42232904,2.1057048,-0.057662826,1.6994139,-0.29623976,-0.8456113,-0.3591707,0.076376155,0.0024559875,0.010266503,-2.8013458,-0.8443339,0.826079,1.0302117,1.0997666,-0.69147193,1.4129668,0.8040372,-1.2044443,-3.4284616,2.234784,-0.7977381,11.088239,0.18714282,-0.6840143,
			0.3346038,-0.16547112,-0.18716513,-0.091671176,-1.8952279,-0.6815073,0.37342244,8.66044,-1.1496006,0.19907968,-0.4531998,-0.36428612,-1.257968,-0.88862276,0.17534426,0.7889054,0.25476503,-0.1877398,2.4484258,-0.033279523,5.215811,1.1454512,-0.42005837,0.0031839432,-0.21903291,0.16182393,-0.51355606,-0.7996606,-0.22466889,2.1273587,-2.1118088,0.20785294,-1.7700479,-0.5030827,-0.038942475,-2.4535894,-0.6956449,-13.767567,0.15156898,0.9203978,
			-0.14780782,3.362438,-1.1147244,0.38120192,2.5922196,-0.4526683,0.8357976,-1.9499727,-0.9682366,1.0915425,0.42620265,-0.5615619,0.24384876,-0.362655,-4.813582,-1.158881,0.366546,-2.783391,0.7150223,0.7720689,-0.1723076,0.83021885,1.0519826,0.025698865,-4.466699,0.013945699,0.9574435,1.1523476,2.6364865,-1.4913816,-0.29346675,0.21804175,-0.04619974,-0.6311103,0.9064674,-0.7586496,-0.8618546,0.73560995,0.56464916,-0.1301373,
			0.533554,0.6029479,2.0115492,-0.5668518,-1.7176205,0.56960166,-1.7153463,-8.095874,0.11205422,-1.7884157,-0.49617216,1.0939944,0.8520398,0.097470045,1.0703892,-0.93349,-2.2187953,0.60516226,-1.9959049,-0.25665274,-2.2784312,1.0546144,-0.3543291,0.021914916,0.5035068,-0.9765582,0.82891005,-1.648122,-1.1483657,-1.0227236,1.4035347,-0.6903678,-9.819761,2.4087188,-2.503586,-2.7183552,-0.12984917,-0.7218131,-0.18221831,-0.22458225,
			-0.128967,-6.0220065,-0.5944451,-0.6495628,0.07469054,-0.76259893,0.8965725,0.24833053,-0.053077783,1.3632449,0.6895916,-0.7596371,0.39989415,-1.9769497,4.2479143,1.649873,0.57846665,-0.097389705,-3.002087,-1.0263896,-1.2229693,2.4342017,0.9570203,-0.0039225044,0.87982184,-0.37505916,-0.4286524,-0.047883738,-6.3417115,-0.59558123,0.06887069,0.046386242,-0.52051294,0.2508085,1.6219046,-8.939082,-2.4059312,0.15085348,0.5145393,-0.11345449,
			0.020771606,0.56342137,0.34145707,0.08164739,-0.9347725,-1.7820292,-1.5522163,1.3176911,3.575121,2.5781658,-0.6024461,0.6484225,-2.2837586,-2.8608165,1.1982577,2.2886128,-3.8137877,1.5615042,-1.7841371,-1.2186189,-1.7451569,1.2731278,0.74838036,-0.00049280684,1.0692091,-0.42971992,-0.79106003,0.025663419,-0.3807906,-0.12997073,-0.47394055,-0.0642016,1.2117542,0.71654934,1.5971152,2.156255,-3.701775,-1.1274929,-3.0421875,-3.6746352,
			1.6697143,-0.36088786,2.5231178,-0.076136224,-2.7822163,0.42663053,-0.34821048,2.5529938,1.2789786,1.010013,-1.2963729,-2.0740027,-0.8769339,-1.8033705,-0.11153226,1.3544976,1.589572,-0.5116482,1.8889474,-0.78320307,-1.1748478,0.5026618,-0.33111182,0.0067060725,-0.5473541,-2.5038886,-2.0157764,0.15372151,-0.7237047,-0.5354041,-0.66541934,-1.270956,-0.014464476,0.06383513,0.49117863,-0.48475164,0.20786352,6.688338,-1.556279,-0.3044751,
			1.0934764,-1.646965,-5.6618958,0.23696272,-1.1995157,1.409513,-4.5951214,7.4415116,1.5436325,-1.9113605,-0.7598569,2.124436,-1.8350328,-2.795663,1.2043495,2.9980013,0.16726506,-0.033744026,0.6872888,0.4494117,-2.2966435,-0.26563355,-1.5796769,-0.017449439,0.08307233,1.3926024,-1.025215,-2.7700505,-1.3079808,-0.99647945,0.19839676,1.0532153,-1.577151,0.23484042,-0.66406065,-4.098736,-0.2901638,2.3498762,-0.4771397,0.96636784,
			0.51275396,-0.18924811,0.2991295,-0.18172988,3.6107502,0.39727896,0.07348353,1.9294928,0.88529545,-0.8837,-0.036909927,0.014408168,0.20422314,-0.9087104,2.560489,-0.14478417,-0.99961305,1.062157,-0.47253707,0.0071141417,-2.471463,1.9032396,0.54283214,-0.024886597,3.261476,-0.38186803,0.2062172,0.3110583,-6.128341,-0.13475822,0.31006768,-0.30161545,0.28366283,-0.27575856,1.576102,-10.1402855,0.20410772,1.3801541,-0.47140014,-1.4615883,
			-6.7603617,-6.3451724,-1.6099712,0.89881045,-1.5587785,-1.2885162,-5.6680455,-1.0930557,2.150675,2.3840034,1.0189211,0.79524577,-1.7095574,-2.5085216,2.594609,4.3844185,-3.8926406,0.74322855,-2.1284754,-0.07841668,1.3865068,0.9991748,-1.8799115,-0.0017171953,2.0137932,-0.46207502,1.8828961,1.8592857,1.3761303,0.64065117,-2.4439533,0.027123444,0.21509671,0.88243634,-0.91407764,-1.2832103,-1.6237719,1.6353327,2.609243,0.7434569,
			0.048716515,0.41449568,1.5453552,0.69420135,-2.2632914,0.54270947,0.120642744,1.4641593,0.14857721,0.41371045,-0.644278,-0.21681863,-1.7955321,-2.603019,2.4223378,-2.0245466,-2.108985,-0.86283034,0.3430925,-0.48204768,-2.3662298,0.39999488,0.8216645,-0.014752018,1.0923381,1.4007233,0.76011485,1.7994658,-4.0708632,1.404366,-0.1391787,1.7682474,-0.81761384,-0.3280864,-0.8234675,-2.3432145,1.0618745,-5.586973,-0.41778508,-1.5049388,
			-0.28478017,-0.374513,0.71953607,-0.6655569,0.32228145,0.6948715,-0.36568174,4.4772706,0.4774843,-2.7608204,-0.21608594,-1.1688935,-7.482962,0.2576835,-1.2229351,-2.3236227,0.7416476,-0.21122381,1.854531,0.15655352,2.9144926,0.5808603,0.424474,-0.048134733,-1.3551486,-0.6452135,0.053479332,0.719344,2.0489404,-0.47126687,2.854486,0.99962854,-0.60476726,1.4729918,-0.20408247,-1.7348926,0.73311234,7.069006,-1.313811,1.2181995,
			-0.30805278,-0.37140164,0.24447095,0.8933555,-2.9791768,-0.023812888,-0.087401405,-1.2248195,-0.047879357,0.3403993,0.11146404,-0.15956557,-1.7285651,-0.35502833,0.1516399,0.64634925,-0.012363711,0.33316275,-0.00805337,-0.4870538,0.8856899,-0.56534696,-0.6157731,-0.0039958972,0.3676976,0.11404491,-0.43176857,0.026436634,-4.236309,-0.022830987,0.76997626,0.9940584,-0.62093705,-0.83347094,-1.8225974,20.766289,-0.123489276,-3.292529,-0.22701494,-0.10030112,
			-0.31083104,-0.14465223,0.8387831,0.60573894,-0.124087274,0.29620624,-0.23242177,-1.7727431,-2.069913,1.8126905,-0.6406741,0.66345614,-3.7835283,-1.5764334,0.07063693,1.9444884,-2.7357798,-0.89804417,1.437122,-1.9738901,-0.5805345,0.4084942,-0.58653015,0.017327743,-1.28159,-0.4552249,0.047585897,2.8090427,-7.00011,-1.873279,-2.0128262,-1.019375,0.38418978,2.0440145,1.5642959,-3.55627,1.0504086,1.648349,1.9597471,0.4075169,
			0.48802257,-0.8036068,-4.4215107,-0.71060145,-0.91671664,1.842564,-0.30671108,2.3698564,1.3790549,-1.7161987,-0.6263632,-0.68321145,-6.5703015,-0.6332543,0.69604605,0.103178784,-2.0514355,0.028875865,-1.7782729,-0.2405863,-1.9922438,-0.2862369,-1.0739527,0.010173073,0.7922113,3.1072655,-0.7696016,-0.4411089,1.8188293,1.2475519,1.0526632,-0.35053208,1.4476993,0.6800648,-7.039829,-0.5792945,1.6170093,0.4863439,-0.397806,-1.1381748,
			-2.0357819,-0.5405098,-3.8322427,1.2508667,-5.2114086,-1.0192081,-1.5970919,0.18512222,1.5270408,-0.15990387,1.4289957,0.11492863,-2.0806715,-1.326523,0.33258995,-0.5296691,-0.743782,0.085825376,0.43235448,2.3066838,-2.510597,-0.48298863,-1.4726161,0.01611866,0.4618226,0.39344463,-1.5746876,-0.00068600674,1.2294087,-0.11022443,0.20313275,5.4438753,0.2688246,-3.717283,-2.9674773,0.7999363,-0.7229424,-2.0667486,-1.0975801,-1.3873641,
			0.7695647,-5.2768693,-1.4500985,-0.17578961,3.2908962,0.31562778,1.1076748,-2.9691463,5.7851524,3.4449298,-2.695495,0.41163105,-0.6008784,-0.17707999,0.7855283,2.6358988,1.8644463,0.9335449,-1.3264598,-0.9227855,0.4896356,-0.29685414,-2.601286,0.019143559,1.6188976,-0.73942816,1.9200271,-0.60110456,0.84932864,-0.064855345,0.35322034,-0.8708952,0.17786914,-0.20726082,-3.3526857,-2.75572,0.8331358,2.3114686,-1.2127298,0.16325483,
			1.0446563,-0.01898793,-0.20404868,-0.81475854,0.60059947,-0.7242047,0.16777271,2.231492,2.2145267,0.23370786,-3.9489257,-2.1533935,4.48043,-1.7852286,1.6619971,-1.9422657,0.08827205,-0.90447396,0.32075465,1.7534684,-0.33302337,0.39219752,-0.8525665,-0.017830934,-1.3836986,-1.364278,-1.2849087,1.7441607,-1.56079,-0.01279224,-0.38032037,0.40205294,-0.21017385,-0.9300052,1.162802,-1.9998565,-0.042258948,-10.129918,0.054750536,-2.8973713,
			-1.5436039,0.016128153,0.16425593,0.08849671,-1.2058436,-1.4521502,-0.05012349,-8.72689,-0.48262265,-0.44163024,0.45756727,-1.0795974,0.11842219,-0.8193801,0.0045130313,0.86748606,1.1052862,0.103915274,-0.4122163,0.1085998,-2.528235,0.181543,-3.3081288,-0.00075528375,0.108354814,-4.295883,2.945025,1.3957388,0.49390492,-1.9307246,0.8951767,-1.2636647,-7.031912,-0.43804777,1.0883076,-0.46309212,-1.0913206,-2.6876945,1.1940653,-0.44588885,
			0.35912365,0.30993018,1.449011,0.34045175,0.3605128,0.88510793,-1.1808294,-2.1648967,-0.6932064,-1.113613,-0.18349424,1.282648,3.3731406,2.13714,-1.761515,-0.8341784,0.26633808,0.27271208,-1.7359878,0.77325463,1.6425464,-3.7746394,-0.5137665,-0.010397794,0.09930341,0.6142913,-0.68525743,0.80848646,-0.8666201,0.24114484,1.0547932,0.2036012,0.848501,0.7475221,-0.06453102,2.8515153,1.0686396,-0.10632579,0.12643288,0.6965363,
			-1.0148191,-0.31035715,1.5453808,-0.6373357,-6.2887583,-0.45207426,-0.26260683,2.0852454,1.6022915,-0.8659153,-0.302563,-0.4743993,0.04076757,0.027912987,-0.29868987,0.02889934,-0.777396,-0.23039284,-0.15663823,-0.34432787,-2.4485497,-0.6384916,0.06186414,-0.019733133,0.26110223,-6.361506,2.9665487,0.5047561,3.3524134,0.47591072,0.78060263,-1.6815473,0.56251115,0.58996725,-6.8856115,0.88389856,-0.15749958,-3.0138035,0.5272356,-0.23131081;
