			-2.770378,-0.7208675,-2.186676,-0.5584219,0.31756136,-2.4286299,0.34277272,0.8636735,-0.27929428,-2.648461,-1.8274037,-0.82221913,-2.2753546,0.17740756,-2.0211337,1.0837926,-0.94263166,-0.98390675,0.56982166,0.03854933,-1.6407951,-2.3157535,0.61963964,-1.3197434,0.10819583,0.61240166,-0.35324758,-3.0649855,-0.37377727,1.2083296,-0.1998171,0.3310693,1.0858612,-1.3994652,-2.7866042,0.017880378,2.9783952,-0.012062946,-2.2610617,0.5492117,
			-0.73532635,-2.1005156,-2.4559083,-0.3541594,0.44555688,-1.5134903,0.12532356,0.24770834,-0.14442945,-0.7620961,0.0828781,-3.5036087,0.70531255,0.7180872,0.56903046,-1.1343344,0.8837299,1.2162764,-1.5549692,0.16321082,-0.46412665,-0.029513754,0.17123064,-0.62546897,0.363394,0.25601315,0.93242204,2.3220506,0.21551138,-1.1179055,-0.72376794,-3.2565691,-0.73546165,-0.5256739,-1.109412,-0.10314676,0.11598799,0.037308447,-0.84204847,0.114088096,
			-0.8896793,-3.3197794,0.88774014,1.4521079,-0.5617807,-2.8735073,-0.2977939,0.89879,0.47010335,-3.6186056,0.690897,0.27108738,-0.882035,0.76635677,1.5045416,0.811458,1.299634,-0.58975744,-0.62552476,0.48041916,-0.12254836,0.076829866,-1.7930394,0.28279424,-0.19717553,1.5540106,0.57980657,0.7209195,-0.55407995,-1.3505647,-0.35496244,-1.026219,-0.46436572,-1.4752961,-0.56619775,-0.3099154,-1.2793708,-1.4839209,-1.3793929,-0.5192439,
			0.16965826,0.7561223,0.43523848,-0.8745853,-1.7070885,-0.5245357,3.8867753,2.9616005,-0.8188686,-0.35156885,-0.7680572,-1.3478291,-2.0743656,-1.4133604,1.6437209,1.8094434,-0.19923322,-1.0272397,-1.4645973,2.2675824,-1.6325241,-2.33301,-0.09713756,-0.017429862,0.37253794,-1.713925,0.30795276,-1.3900274,-2.311764,-0.021952864,-1.4280347,0.7702481,-0.12957986,-1.411349,-0.8369676,-3.5491676,-0.52232057,-0.6754662,-1.8767825,-1.1870825,
			0.4016068,-0.9316165,1.177432,-2.6995156,-1.4722518,0.382015,1.2504593,0.34482965,-1.0169301,2.091304,-1.4090158,0.3611957,0.30401617,-1.2081616,-3.9122555,0.9187502,-0.49046588,-0.11361164,-7.1042433,2.2638948,-0.90844053,-1.8871846,-0.49366394,-0.3649251,-0.48202315,-2.4037368,0.6945222,-0.49067596,-1.1426117,-0.24048248,-0.88788134,-2.87793,1.3952312,-0.3827975,-2.136303,-3.916842,-0.53308517,0.21082804,-1.715349,-0.62601763,
			0.22661357,0.22559088,-1.3832445,-0.58334345,-0.57741636,1.0832783,-0.63778144,-0.076511666,2.5264256,0.12438422,-1.2432607,-3.631158,0.2396429,-0.8383207,-0.054474544,0.57334876,-0.5502118,-0.047218442,1.4022807,0.7224173,-0.1635821,-0.4824508,-0.6629959,-0.59911364,4.194642,0.20300263,0.027571782,-0.7239553,-0.3248294,-0.15737958,-0.4266297,0.305877,-0.22294258,-0.1273075,-0.539424,-0.044779077,-1.1258041,-0.49865615,-0.5168274,-0.24286065,
			-0.47263023,-3.1476028,-4.0925765,-1.2920005,0.75512624,-0.8018622,-0.7875152,-0.680924,-0.7842261,-0.66328853,-0.17425762,-5.232556,-3.1822119,0.72517025,-1.3445216,1.6600331,-0.72333354,-2.045695,-0.5283931,0.10168495,-2.3436973,-2.2188098,0.6056671,-0.2378833,-0.5816655,1.2385353,-0.8835392,1.9649658,-0.3993238,1.2223892,-0.95259804,-3.7627661,0.20849481,-2.0639148,-0.17417403,0.03801644,0.34995827,0.11273197,-1.4758012,-0.59529036,
			0.7281026,-0.16753715,1.5552336,-2.6399422,0.086330295,0.85771424,-0.80648786,0.50324297,-0.79020715,-0.5545158,0.84156895,-1.0131979,-3.3140957,-1.088899,0.8708535,1.4716955,0.007483937,-2.8137372,-1.3952941,2.2552366,-1.7879193,-2.3791816,2.0017302,-0.8159305,-1.2003691,0.236571,-0.3766956,-1.5357672,-1.0619905,0.67464656,-1.8068289,-1.4009053,-1.3562363,-0.52336395,-2.1352463,-0.6942421,-2.6338248,1.2688549,-2.7202065,0.64106923,
			-1.4264574,-2.153709,0.83517206,0.73990035,-3.1227293,-7.748127,-0.106475726,0.7205145,-0.24955007,-4.3266344,0.64444137,1.9163969,-0.5253406,-1.1502726,2.471615,0.14612497,0.6353374,-0.94906116,0.25262862,1.1562836,-0.605172,-0.85934615,-2.2733684,-1.1508887,-0.5354851,2.1674378,0.41408175,-0.592579,-1.1359404,-1.2180645,-0.90239286,-0.9921174,0.055647153,-3.1870954,-0.83447146,-0.8476781,-1.2242185,-1.9575216,-2.0333824,-0.80750155,
			0.11783075,-0.6049231,-4.23464,0.7333967,-0.12744212,0.49747196,-0.15644996,-0.24547978,-0.3982043,0.34590757,-0.6517504,-1.5796864,-0.21484527,-0.38545635,0.2059796,0.77580005,-1.0676214,-1.1680045,0.7008982,-0.6504792,-0.67533946,0.027566403,-0.30464268,-0.27829194,1.8578469,0.64708173,1.5473704,1.0818032,0.618159,0.13342948,-0.53054017,-0.50188094,-0.2556217,0.31332377,0.004259534,-0.36512414,0.5910648,-0.89313835,-0.45003387,0.25006762,
			-0.24084431,-0.2804648,0.43399617,-0.5934674,1.0185034,-0.87672085,-0.5238524,-0.3360491,-1.0248646,-0.17746475,-0.0629695,-8.161052e-05,-1.8521464,1.876541,-0.67068774,1.8586258,-1.6601269,-1.802806,-0.6815185,0.08697444,-1.471462,0.08972495,0.1909142,0.36164668,0.41115087,1.1345136,-0.1498486,1.3915578,-0.10688794,-0.030889787,-0.4717215,-0.8460913,-0.2126676,-1.9982518,-0.8978415,0.15623283,0.32216656,0.5927049,-0.44990975,0.65937304,
			-1.7269156,-0.7283517,-1.5255754,-0.1202223,0.018052755,-0.5959007,-0.20406537,0.32005113,-1.5603056,-2.6433282,-2.634962,-1.8015395,-2.1899886,0.35148254,-1.3444282,1.7841464,-0.8778489,-2.084707,0.084932424,-0.9074162,-1.3311523,0.022952516,0.49608034,-0.058556505,0.75387007,0.39583737,1.871807,-1.2708313,-0.81498665,0.6523388,-0.54169655,-0.6009435,2.0758686,-3.1145835,-1.9205197,-0.1294636,2.031818,-0.13741699,-1.615149,0.27770957,
			0.47228298,-0.05875305,-3.0214646,-2.6637263,0.2951966,0.9002969,0.4464982,1.5891005,-1.0084661,0.50429344,-1.1238158,0.08873509,0.16964442,-1.7300794,0.22050472,-0.11550765,1.1486387,0.097662486,-0.10830701,1.6272917,-2.1392598,-2.374867,-4.018023,-1.5949165,-1.4034089,0.52715933,1.3576,-0.5968243,-0.9649655,-0.54996055,-0.34206027,-3.247634,-0.04789715,1.7821658,-1.3289716,-1.7726587,2.9345648,-2.178423,-2.184261,-2.6919599,
			-0.7251578,-0.46603876,1.377007,-0.61723983,0.46049777,0.117396936,0.19526574,-0.983833,-0.3413196,0.13087194,-0.4595132,-1.4963548,1.4951,-1.2194942,1.3108668,-1.5445529,1.1149192,-0.9096893,0.29938242,1.6607095,-1.1486826,-0.10190528,-0.79804456,-0.12397556,0.30017468,-1.5391002,1.7751689,1.2388763,0.013188761,0.43871915,-0.3128395,-1.4398161,-0.7364289,0.80305004,0.47492948,-0.003591054,0.089570075,-1.9752398,-0.91577643,-2.6596928,
			-0.90630776,-2.106279,-4.077946,-0.65852875,0.9889195,-0.72346234,-0.10101626,-1.265919,-0.13933536,-0.6662008,-0.5208653,-4.7395606,1.8759937,-1.4819877,1.2900815,-2.0064657,0.930039,-0.4553032,-0.44618982,0.4368859,-1.7715651,-2.432414,-1.1708668,-0.65658873,-1.0236892,-1.4368204,0.886008,2.1461687,-0.32001463,1.0024513,-0.75851375,-4.213964,-0.5059873,0.081287466,-0.34750035,-0.16544457,0.016834576,-2.0101476,-1.9349804,-1.049994,
			-0.3083549,0.31173387,-2.654563,-1.6439185,0.59148943,0.38148698,-0.39639598,0.03770594,0.7516858,-0.1562293,-1.1599176,-2.1736748,0.32638183,-1.5739588,0.22291191,0.99852633,-0.5195617,-0.11298384,0.49340066,1.014932,-1.0440689,-2.8425245,-1.3324343,-0.39776754,4.544972,-0.28991136,-0.6615981,-1.2140154,-0.38744995,-0.19217837,-0.58713454,0.33463016,-0.12873657,-0.12471172,-0.7065388,-0.643695,-1.3256994,-0.72929,-1.4240307,-0.6769872,
			0.22485514,0.6985293,-0.53950715,-1.1029328,-2.1429431,0.6268833,0.84542567,-8.092569,-0.7577218,-0.55803835,-0.6285829,-2.3323588,1.8452729,-0.5825654,-2.481151,0.05929914,0.9299977,-0.020375498,0.4306634,-0.18690905,-0.57271546,-0.40113357,-1.4759116,0.61433995,0.45098302,1.7637482,0.9602686,-1.6852106,0.5445216,-0.020872362,-0.57757217,0.20624134,-0.22225155,-0.13299783,-4.0985923,-1.6437486,-1.4370326,-0.90303844,-0.7686769,-1.6443678,
			0.6616832,0.6983421,-6.8608437,-3.719154,0.6210837,1.292711,-0.22849347,0.20257305,1.1781095,-1.6157571,-1.0962929,-2.116518,-1.567086,1.6054919,-0.06734776,-1.3944353,-0.9730374,-0.9583967,-3.7073681,0.34943518,-1.922275,-0.97051674,-0.082577474,0.88382196,-0.7782768,1.0444136,1.1584412,-0.26364973,-0.5004561,1.9592227,-0.5261279,-4.2649927,-1.1793411,1.732893,1.2143246,-0.542681,2.8718588,0.65211916,-1.7755281,1.9004439,
			0.2310198,0.54848826,-2.8561823,-0.7210759,0.40132394,0.1991575,-8.28787,1.2236559,-0.57357305,-0.035385195,-0.57293063,-0.43407264,-1.2057059,-1.4137096,1.189337,1.7626816,1.3372469,0.35765222,0.64313745,1.9421166,-1.2288814,-0.0813055,-0.17807081,0.1533876,0.7024844,-2.226182,2.0446,-0.6736504,-0.664813,0.8605005,-0.55533785,0.23873232,0.37141562,-2.4872797,-0.21534419,0.45056638,-0.17933439,-0.48131704,-0.9173514,-0.14807856,
			-0.970841,0.4662616,-0.18155208,0.28767094,1.3474312,-0.59866947,-0.015395797,0.17993812,-1.269543,-1.3002495,-0.745627,1.6083764,-0.6926334,2.0887585,-0.34412062,0.3654712,-3.3990023,-2.7054772,0.16778809,0.3962068,-1.1507978,0.040279627,-0.27474388,-0.65185934,0.8495862,0.905014,-0.10504904,0.4767459,0.13720408,-1.3822637,-0.40646467,-0.66350603,1.548454,1.7231928,-0.9245689,0.060053747,1.7510949,1.0638572,-0.79393697,-1.8100142,
			-4.129389,-0.2506485,-0.88278466,0.106679685,0.27022713,-3.1230369,0.4562853,-0.18202399,-0.026997913,-1.3115,1.0794785,-1.2341563,0.38984725,-1.7236463,-0.15812823,-1.745546,0.13769375,-1.0512462,1.725675,3.3073611,-0.96832544,-1.0671725,0.34173763,-2.1958456,-0.21648358,-1.7341903,0.23624785,-2.3514328,-0.23197746,3.031198,-0.995065,0.16417253,-2.846161,1.2025926,-0.27573034,-0.6239883,-1.0749048,-1.0709159,-2.0717964,-3.3686779,
			-0.6666612,0.91032445,3.7268343,-0.6369143,-1.1253161,-4.076966,-0.50669837,-0.9690892,0.24640515,-0.36196083,-1.3518561,0.6220054,0.30649045,1.3524876,0.17931134,-1.8928322,-1.927741,1.312636,-4.213852,-1.0942923,-0.8511537,-0.06761392,0.24676567,4.576448,0.5504959,0.54634744,1.3103334,-2.9878445,-0.0015813565,2.6046357,-0.38553545,-0.92241627,-4.0340915,1.5528797,0.6804093,-0.2681876,4.9532185,0.2197145,-0.62257934,1.7425649,
			-4.6573205,-1.9174455,-1.8919488,0.40498677,0.21998191,0.63439846,-0.6990087,1.4035836,-1.5482504,-1.102535,0.18105927,0.79458237,-0.93687713,0.69757545,-0.45367387,0.59278125,-2.0037694,-2.617686,-0.19263624,0.25444707,-1.626133,-3.2586439,-0.41942838,-0.7457075,-0.8437205,0.7050168,-0.62384087,-1.3348553,-0.9763413,-0.34054884,-0.7263501,-0.8786933,2.0710304,-2.3469076,-0.16846883,-0.32443124,1.0615014,0.58616394,-2.42292,-1.8024949,
			0.03770101,-1.6958408,1.0623512,-1.192555,0.14240055,0.14214818,0.73563486,1.3998723,-0.0898323,-0.9199694,-0.5753564,1.1795316,-0.054929413,-1.6936678,0.25319928,0.21997704,-0.24522817,0.27448347,0.42678198,0.49989325,-0.1980206,-2.5481477,-1.3966151,3.2380326,-0.39795622,-0.7737266,1.1332784,1.7794162,-0.8277812,-1.2364928,-1.0800098,-1.6957968,0.81710196,-0.85824585,-0.7740185,-0.95276785,-0.84965396,-0.84470415,-1.0398785,-0.25346413,
			-0.110470615,0.90599984,-1.0284687,-0.22127563,3.2098005,0.9457784,0.5564887,0.56649125,1.0375508,-1.8994622,-0.19916207,-0.7886627,-0.7941645,-1.120757,-0.6382994,0.67945695,-0.07373173,-0.7050923,0.8820774,0.65493387,-0.024687145,-6.8266683,-0.20465878,-1.9496967,1.1471453,-0.15069403,0.44146162,1.8361197,0.64375705,0.78130275,-1.6099422,-0.46043026,-1.2399176,-0.32953718,0.29744098,-0.63023156,-0.12599953,-0.70774406,-2.3310604,0.2222489,
			-1.7191948,-0.6546679,0.7256183,1.4569224,0.9654091,-1.964478,0.20924154,-1.1486508,-0.5045874,-1.7301593,-1.0333034,1.188616,0.41127074,-1.3830148,0.41003245,-2.4926598,0.61493385,1.0189917,-0.0786843,1.587883,-0.68127096,-0.029283702,-1.7431654,-0.30429825,0.47004625,-1.0837256,0.95092887,1.12185,-4.1181498,-0.46866372,-1.0854646,-0.33809906,-0.76180655,-1.9946423,0.16257575,-0.23585428,-0.57042503,-0.71833235,-0.8817743,-1.0342674,
			1.7342758,0.42238027,-0.7933845,-0.47375035,1.1070704,2.4947352,-0.21536787,0.57788503,1.4786363,-1.7903254,-0.97086686,1.0300691,1.795447,-0.21299595,-0.12019157,0.72841936,0.6553507,-1.2989967,2.110252,0.013269105,-0.022812873,-6.001963,0.8587993,0.16188227,0.65866363,0.33027807,0.025382377,-1.05071,0.34424758,-0.17597142,-0.1007462,0.27811015,0.91281646,-0.39033154,0.26309097,-0.18134055,-1.7150587,-0.62254685,-0.39124456,-0.029332085,
			-0.060299695,-0.4821935,0.9744091,-1.5398841,0.5757654,0.13930932,0.33861247,0.54195404,0.6271863,0.81917536,-0.98668617,0.4253965,-0.7899312,-0.86669946,-1.5769393,1.1865997,0.6128888,-0.018767212,-6.369776,1.046108,-0.22994916,0.05062069,-0.9447289,-0.36502495,-0.36902493,-0.60061044,1.7346637,1.5578437,-0.462865,-2.2418392,-0.5953991,-5.6661944,0.08216108,-0.5697139,-2.8180096,-0.25802824,-0.47122347,0.70098984,-0.8150031,-1.083112,
			0.7145305,-0.5476024,0.64288586,-2.2046936,0.37031916,0.71723765,-1.124279,-2.414723,-1.476009,1.3692627,0.8270185,-5.3291936,-1.6408225,1.4976286,0.69598424,1.0450672,1.1263133,-4.359165,0.08945853,2.148696,-1.1010957,0.09986999,0.112751655,0.44888958,-1.046056,0.969345,-1.5809745,0.55423295,-3.5609443,0.18261445,-1.7396615,-5.2519712,-1.729638,-1.1531954,1.4120684,-0.43921226,-1.3373815,-0.7536627,-1.2767154,0.378488,
			-3.3256195,-1.221887,0.66946614,1.5050206,0.095742986,1.3057375,0.013174524,-1.8755753,-0.87939095,-1.5805303,-3.046605,-2.3783185,-0.042459637,-2.354703,-0.04827337,-1.8105345,1.5467262,0.729054,0.553148,-0.18357064,-1.103735,-2.528648,-0.159343,-0.8873965,-0.8315224,-2.3516595,-0.13238609,-0.65718776,-2.1222675,0.8489586,-2.6459353,-0.67380565,0.70700467,-1.5094744,0.13379568,-0.11920604,-2.2820892,-1.5471213,-2.236859,-2.6161122,
			0.52167517,0.75690264,-0.47413817,-2.8418725,0.12975384,0.4920681,-0.13545853,0.6841533,-0.18721873,0.41684017,-0.4250338,0.63552135,0.882098,-0.40059614,0.5883599,-2.01333,0.83260906,0.46771148,-0.8102019,1.557014,-1.4316498,0.040420048,-1.6322759,-0.3710839,0.08137903,-0.092125006,3.3622396,0.66563314,-0.17456858,-0.8913858,-0.16834238,-1.5569007,-0.16044313,0.67763466,-1.5689874,-0.49870735,1.2592288,-2.3140557,-1.1826241,-1.5032132,
			-0.43351236,-2.103077,0.1718945,0.11492846,-0.51234144,0.09729998,0.078633934,0.4082318,0.18434553,-1.2056239,0.20277715,-0.1392215,-0.6023135,-0.43338025,-0.5260863,0.8061085,-0.45568305,-0.028974935,-0.041138906,1.1640004,-0.1791146,-0.0038567993,-0.04832149,2.805252,-0.10894173,0.23117037,-1.337583,2.0099308,-0.24761406,-0.6401013,-0.6715591,-1.3336351,0.5494446,-0.7703636,-0.42250144,-0.0391028,-0.7450769,-0.146918,-0.69580954,-0.87501746,
			-2.454583,-0.1584868,0.18738438,1.7595915,0.64683783,-1.0070962,-0.27711096,1.96992,-1.8128098,-3.1680865,0.8588175,-2.4350348,0.41146088,0.45437104,0.47980642,2.1456883,0.83941674,-1.4332545,-0.3723586,1.0594213,-0.8596962,-1.9034017,-3.6057627,-5.4308324,0.20047452,2.644657,0.5963573,-2.8959727,-0.9606141,-0.1674776,-1.2655548,-0.6540147,-2.4550009,0.43127313,1.1500365,-3.222501,-0.1802671,-0.45074385,-1.724541,-1.9995996,
			0.13337289,0.73282915,1.8719774,0.4461206,2.5008438,-0.40680113,-0.46062416,0.32631055,-2.119241,1.6705611,0.37429318,1.6724397,0.5548826,-0.19206771,0.38662615,0.42218506,0.3207962,0.28603026,1.1767678,0.23641208,-0.6200478,-8.458056,-0.13038221,3.2937076,0.10343607,-0.053980563,0.6444485,-1.0218915,0.47849494,-0.9670212,0.3673821,0.52438724,-1.1814102,0.01173686,-1.5200951,0.30671436,-0.58229923,-0.2369267,-1.1032243,-0.35854673,
			0.7457842,0.5479279,-0.2417974,-3.4960883,-0.11544027,1.3083442,-0.9427296,-1.4234223,-1.6742029,-0.33285743,0.0019605372,-2.4215302,-2.682966,0.73541355,-0.81828946,1.379069,0.81103206,-0.45092067,-1.0185931,-1.1188353,-1.644675,-1.2470863,-2.0021138,-1.1065797,0.0790479,1.2276106,-0.1982312,-1.7354074,0.36550254,0.8248817,-2.026529,-0.6825527,-2.0063565,-2.2251084,-4.443916,-0.8513384,-2.3408725,-2.2303202,-2.6843307,-0.35865313,
			-0.3954695,0.42191774,-0.48191544,-0.43457502,0.33856767,0.6969281,-1.558817,0.68783927,-3.1932826,0.53458685,-1.8099564,0.9320356,-0.9158718,-1.6379069,1.122998,1.1914608,-0.10137774,-1.9931,-0.008996751,2.3797703,-0.23882626,0.06152977,0.34030053,0.22270931,2.2342584,-1.5934494,2.4089077,-0.038759682,-3.9964583,-0.46326157,-0.42416018,-0.18865426,0.21900313,-0.78347087,0.74395734,-0.9377328,-0.19765103,0.6937035,-0.6357915,1.6101495,
			-2.1685553,-3.4695451,-0.81651133,2.269508,0.093632385,-2.9407692,-0.036276907,-1.7492964,0.16063735,-3.443554,-0.35979587,-2.9125774,0.9291024,-0.76202965,0.11736668,-1.2254057,-1.1463288,-1.3240596,0.37861803,-1.0026385,-0.93993723,-0.41783795,0.7052803,-0.7209664,-0.92661357,-1.6256719,1.1566414,0.46461406,0.58584124,1.5731069,-1.988617,-0.781583,-1.0079433,0.42347035,-0.5037227,0.08728321,-1.5144935,0.5410934,-1.9518108,1.1474305,
			0.16499281,0.85761416,1.4732639,0.26049256,0.952784,0.40045255,0.5734919,-0.9538526,-2.1848483,0.38229293,-0.42471972,-2.125153,0.06749102,1.0073732,-1.4828416,0.7885944,-0.26059222,-1.2739056,0.51849604,-0.2763456,-0.13182542,0.025798254,-0.8775052,-0.16947572,1.6703731,1.3814791,0.37198275,0.1193435,-2.7499309,-0.14415629,-1.0301045,-0.50503886,-0.9860422,0.66868377,-2.805878,-0.048853524,-0.72170097,-2.0124395,-0.66290474,1.1716583,
			-1.7152871,-2.046113,0.028596532,1.2539798,0.4699029,-1.157248,1.3126678,0.21779542,-1.011909,-0.38042247,1.6507659,-0.6343997,-0.4087865,-0.18358298,-1.4192693,1.6361568,-1.7259468,1.2216392,0.9226178,2.6385627,-1.4001689,-2.684734,-0.5923051,-1.443373,-1.625887,-1.2708361,0.009988331,1.9151111,-0.72363204,-1.317232,-1.5358958,-2.5358922,1.6865821,0.0645653,-3.0280988,-0.32221702,-1.1016712,0.86670184,-1.820261,-1.4795045,
			-0.39957118,-0.86748093,-3.1067376,-0.24956617,0.7103939,-0.47534293,0.5769732,-0.07820203,-0.34124783,0.14960787,-4.5079966,0.10989117,1.4717604,-0.29757044,-1.8313531,-1.4005246,-3.3753326,1.2209951,-1.4769343,-0.862592,-1.6984189,-1.880986,-0.7700613,-0.5436365,0.3931359,-0.4663291,2.3218477,1.0770478,0.2623433,1.5812862,-0.561269,0.11109427,0.6125006,0.47090325,-1.1272613,-0.2496573,1.1097162,-3.8254793,-0.86393404,1.1706067;
