			-0.08633633,-0.9526239,-3.0020053,-1.5806366,-0.26141286,-5.4078593,0.8786207,1.658363,-2.4933758,-2.2599142,1.279017,0.7921992,-0.50233305,-3.7052639,-1.5538279,-4.986252,-3.1767004,-0.29201576,-0.15375249,-1.4885178,-0.9259076,-0.5051559,-1.4500955,6.078488,0.15834135,-3.6477203,0.43877125,-1.03332,-0.33004317,-0.59704727,-2.8114877,-1.7100421,-2.059135,-1.7883295,-3.04077,0.48948205,1.7236004,-1.9587848,-1.4179715,-3.6863737,
			0.6938553,-1.1608578,-3.4361064,0.36108392,-0.16207385,-2.1222894,0.6334191,1.9136878,-1.4891901,-0.51985955,0.98044485,0.40654,-1.7446235,-4.583544,-1.703571,-3.0038218,-1.7765626,0.8436741,1.0383161,-3.4174814,-2.1190174,-0.23455682,-3.213709,5.861271,-1.4087161,-3.8979661,0.080735676,-1.499662,-0.11373022,-0.8136977,-2.000127,-2.9139411,-1.7765001,-1.5331324,-2.4335082,0.984102,0.8400664,-0.27609503,-4.0561934,-1.3333044,
			-0.28551248,-2.3644288,-3.5711915,-0.222354,-0.9883671,0.07028631,-1.1800132,1.2427744,-0.3541697,-0.20290273,0.3016067,-0.7773296,-1.170225,-3.8472085,-2.591034,0.69097394,-2.152453,1.2032275,0.54992527,-3.7769809,-1.8250238,-0.252683,-3.4633927,3.3953032,-0.5943414,-2.7937422,-0.42780674,-0.8593294,0.4304518,-0.9370629,-0.73330295,-6.828441,-1.3437455,-0.8494707,-0.13227567,0.494277,-2.8182192,0.5444067,-2.4187632,-0.21860582,
			-1.2214335,-2.9084053,-3.7172153,-1.5751425,-0.90204,0.4728012,-3.4252777,-0.26191497,0.48992145,-0.38182482,-1.1170601,-1.2011306,0.0713417,-1.2803502,-2.2686965,0.7501252,-1.2099549,0.22152495,-0.6805404,-1.6101142,-0.12110446,0.6965995,-0.41243485,4.429556,0.9587525,-2.8207712,-0.050634902,0.06832943,-0.26221767,-3.0860975,0.4080748,-5.6334023,-0.02009909,-0.82539684,0.44577587,0.4917431,-5.9305916,0.4570301,-1.3715677,-1.4540652,
			-3.025566,-2.7271843,-3.3625169,-0.63307166,-0.5881482,0.6929866,-2.58968,-0.23915394,-0.5639388,-0.0038779124,-3.2776802,-2.724911,0.99214166,0.47502607,-0.78922355,0.31653452,-0.3876083,0.3018799,-1.8218461,-0.22705872,0.61344796,-0.02156215,1.7834392,5.2479196,-0.25513417,-3.6374595,-1.036567,-0.8798879,-0.70636046,-2.9833035,0.860203,-5.5699477,-0.2949548,-0.3586257,-0.6248847,-0.44227612,-3.5311801,0.41964465,-3.1062496,0.060288783,
			-1.4053041,-1.466513,-3.6948872,-0.07965178,0.47475147,-1.5080129,-1.6058657,-0.51223737,-0.89073616,-0.30522525,-4.5594378,-2.6961412,0.9382243,0.69197255,0.7776752,-3.092908,0.47958517,-0.933275,-2.371266,0.072132125,1.2905568,-0.20839603,0.18653676,4.0844917,-0.8081548,-2.7821605,-1.3198729,-1.6783181,-1.3307985,-2.9524841,0.30016127,-5.7062554,-0.25552037,-0.3115465,-1.7249331,-2.033079,-0.73110145,0.58267826,-1.381594,0.9607316,
			-1.0296098,-0.48968416,-3.1370492,-1.2955642,-0.36064604,-6.6748624,-0.3556444,-0.30909556,-2.5658357,-2.1743107,-3.84721,-1.5776745,0.32583147,0.61765754,0.68555075,-5.3360443,-0.62760127,-1.7047629,-2.7619693,-1.0174298,0.4939017,-0.42794466,-1.5202763,1.8411005,0.7047597,-0.4678877,-0.87222147,-0.6293181,-0.9754232,-1.1739091,-0.35890839,-6.3076196,0.102712214,-0.8091694,-1.7888571,-3.163826,0.060928144,-0.4740813,0.32197613,0.9389146,
			-0.13975751,-1.6118814,-2.6383452,-1.7230735,1.1679338,-5.9344964,0.71358734,1.6785612,-0.6637197,-4.01637,0.81424874,0.548821,-1.176444,-3.5675352,-1.2526141,-7.833199,-2.3618424,-0.3704409,-0.39564857,-0.19672559,-0.372055,-1.858919,-0.5024487,3.8758285,0.40055528,-2.4210293,0.43397868,0.6559106,-1.2033942,-1.9073019,-2.5995712,-0.5250248,-1.3991069,-1.5170947,-3.5019984,1.023702,0.65058476,-4.2653275,0.366649,-1.2166904,
			0.81885,-1.5395018,-2.3093908,0.5239069,1.0503384,-2.466093,0.8541403,1.383568,-1.27613,-0.5858556,0.9724341,0.6572717,-0.11424781,-4.3665667,-2.146111,-3.9980793,-1.2377324,-0.59069246,1.0761718,-1.2270974,-1.7851171,-1.2346749,-2.1732152,4.5776687,-0.6374112,-2.5651135,-0.3168139,0.49000168,-0.14860529,-2.8068035,-0.46460447,-0.40264767,-1.8244742,-0.7566745,-2.9426277,0.9343082,0.94764155,-1.7237917,-1.2257138,-2.2854702,
			-0.33814836,-1.8051249,-2.5225763,-0.35586005,0.9354581,0.01294645,0.10320129,1.1677594,-0.16657183,0.36954594,0.7207825,-0.67310804,0.5360894,-2.6988435,-3.4457333,0.55795944,-1.5340279,0.09852603,0.7412669,-1.7136106,-1.8143494,-1.4195507,-3.4730675,3.4071486,-0.88433474,-2.7970774,-0.8594388,0.71118104,0.5719534,-2.9056566,0.397762,-1.3381702,-1.263719,-0.66682315,-0.74109054,0.6573678,-0.8281836,-0.25334927,-2.4641948,-0.60873544,
			-1.4234571,-1.392949,-2.2181084,-1.6680423,1.0122336,0.48136425,-2.112283,0.67136407,0.48531327,0.49319172,-0.31296408,-2.0713923,0.75112885,-0.31500834,-2.0198395,0.6289021,-1.4040283,0.32155988,-0.64464283,-1.4420247,-0.6707562,-0.09302613,-2.526305,2.3852544,0.33471426,-1.8775744,0.43175483,0.5984278,0.8004489,-3.5107536,0.88660455,-2.0816612,-0.94186646,-0.8395869,0.6281422,0.31479332,-3.611623,0.3873563,-2.5699825,-0.49843752,
			-2.5089545,-0.5296174,-2.5455532,-0.51692677,1.0621011,0.50669205,-3.8555975,0.20064558,0.48567513,0.2757667,-2.3212082,-2.9807816,0.42999592,0.46648678,-0.008285176,0.15673178,-0.27319342,-1.0170859,-1.6439817,-1.3333385,0.36564443,-1.1741675,-1.1584902,2.3906343,-0.90162474,-2.2239106,-1.0028156,0.6194819,0.6598768,-3.1435554,0.57870334,-2.805613,-1.1278105,-0.3018188,0.4047601,-0.52594805,-1.2662926,0.7781856,-1.3335164,0.8311785,
			-1.3694012,-0.08544093,-2.860201,0.5585434,1.2467968,-2.082845,-2.9386883,-0.5757769,-0.58500975,-0.9828649,-2.9964092,-2.922911,-0.56308895,0.7128931,0.59730685,-4.520795,0.65112245,-3.1527023,-1.4583355,-1.7160591,0.9609892,-1.3876464,-1.9930127,1.4910709,-0.36110353,-0.54531366,-0.9090643,0.553889,-0.01164149,-2.0664017,-0.29758742,-4.32892,-0.65586036,-0.34155548,-0.5658214,-2.0693076,0.05537444,0.783521,0.39763126,1.1471498,
			-1.261317,-0.11187639,-2.8400645,-1.203487,1.0608348,-6.7650757,-2.4386547,-0.84817326,-0.94576186,-4.364612,-3.0093908,-2.0167868,-0.90211743,0.17562824,0.66799206,-8.186408,-0.22378565,-2.639022,-2.5978417,-2.5555496,-0.1947961,-1.9071823,-2.7399893,0.70389664,0.27026817,0.3852487,-0.9514692,0.35553625,-1.1848283,-0.18211661,-1.015864,-3.13369,-0.5743533,-0.5709388,-1.4120935,-3.2458425,-0.22027017,-0.104315996,1.9133289,0.9321932,
			0.37710717,-1.6214231,-1.0424682,-2.123354,0.10141862,-6.740942,-0.95518416,0.12654877,-1.6593219,-5.0641375,-0.17294858,0.49765256,-0.4150562,-3.2343216,-0.9094524,-6.186805,-2.750289,-1.6501471,-0.17284645,0.5507181,-0.60844046,-0.32113707,0.52272004,-0.60406965,-0.19379021,-2.549352,0.36637232,0.7759819,-2.6351175,-3.1287925,-0.7208519,0.2172505,-1.2357342,-1.1069962,-2.9150226,0.55989873,-1.8910573,-4.3654137,0.8881759,-1.7862293,
			0.46308923,-0.8128146,-1.3390355,0.75899225,0.031029454,-2.5688963,-0.12632534,0.07955512,-1.4817451,-0.73383355,0.08298745,0.9873661,0.60647833,-3.5269163,-3.7666209,-4.2072105,-1.2809232,-1.1905025,1.1228157,0.1539941,-2.3613687,-1.6109488,-0.23944339,-0.12447629,-0.5312911,-2.397058,-0.41307184,0.74668556,-1.990764,-2.922177,0.5644201,0.51787853,-1.2329344,-0.95207024,-3.112139,0.68342745,-0.5215977,-2.3537903,0.32442635,-1.6468594,
			0.051476102,-0.33824974,-1.2330837,-0.4470837,-0.14543048,0.38792732,0.56645614,0.2509543,-0.78366554,0.5135458,0.5849808,0.2088309,0.8086011,-1.2460562,-2.3927472,0.30996427,-1.0729765,-0.22011587,0.47273716,-0.68547726,-2.699393,-0.35875776,-1.8136901,-0.25398195,-0.88336,-2.4105668,-0.2557612,0.42699125,-0.3749116,-3.6946728,0.99067193,0.616779,-1.1062796,-0.66445196,-1.8968877,0.42570058,-0.50267076,-1.0452152,-0.08698722,-0.18341005,
			-1.4498731,0.016296277,-1.0688936,-1.5275731,0.10497574,0.41985938,0.06386588,0.1982739,0.049426954,0.7678755,0.4320412,-1.2642127,-0.09934591,0.31670946,0.07881847,0.49272865,-1.3688711,-0.11644245,-0.75774044,-1.3084931,-0.5053679,-0.09109902,-2.8361473,-0.5198863,0.13279596,-1.5322927,0.7745473,0.23966043,0.2785785,-2.8829422,0.41954035,0.31551665,-1.0734129,-0.66880673,-0.00034166555,0.22041419,-2.3848338,0.11385934,-0.744852,0.22033694,
			-3.267071,0.36052188,-1.6866775,-0.30504733,0.017339068,0.5096859,-1.939148,0.7302162,-0.63753784,0.29237515,-0.5987349,-3.065548,-1.1130581,0.37015393,0.569592,0.19083436,-0.25104916,-0.97303736,-1.036864,-1.5655956,0.26779547,-0.32128218,-2.7232597,-0.6561109,-0.76851165,-0.40939215,-0.41230825,0.49797517,0.90836936,-1.5532795,-0.44813135,0.104598224,-1.0423834,-0.46131083,0.71191317,-1.0795789,-0.27474618,0.5422656,0.01397196,0.8103754,
			-2.533555,0.16648504,-1.616476,1.0317172,0.20961685,-1.4132692,-3.465967,-0.16057988,-2.0459576,-2.1276402,-2.1137054,-3.1154656,-2.3341815,0.4072832,0.18101528,-4.655981,0.6316293,-2.693373,-1.5675131,-2.0399907,0.3533586,-1.478649,-2.3457017,-0.24429546,-0.6343291,0.3277099,-1.2635621,0.6103094,0.64611715,-0.264386,-1.7544892,0.007890669,-0.45577762,-0.3072816,0.60138464,-1.7856607,0.6141708,0.8615549,1.0289794,0.12598735,
			-1.4561287,0.21458733,-1.5411631,-1.719742,0.12732433,-4.5701313,-3.5356925,-0.350858,-1.7523855,-7.2314386,-2.3367662,-2.3667018,-2.09406,-0.91474146,-0.9148228,-5.650229,0.025213998,-0.12905717,-2.8223948,-2.317277,0.10036588,-0.18569352,-2.8606853,-0.74186015,0.013401106,0.8582839,-1.0285057,0.30811787,-0.57193863,0.99527246,-1.5731914,-0.31662273,-0.59306085,-0.28780705,-0.23328502,-2.4452064,-0.16737662,0.08233199,1.9822756,-1.0445539,
			-0.5460254,-0.5348788,0.48469418,-1.0834478,-1.1619179,-6.3318977,-3.1123831,-1.142737,-1.4860228,-3.9811354,-1.3240502,0.060470622,0.09493824,-2.9468203,-3.083095,-5.3316145,-3.1675744,-0.859076,0.20183282,0.32724237,-1.6291827,-0.9631719,-0.32710814,-0.6129964,0.28923523,-1.2705194,0.039749105,0.5816319,-2.911565,-1.7794182,0.64717346,0.35634863,-0.51488566,0.36263907,-3.4906266,0.021685561,-2.9631307,-3.777702,0.62005264,-0.5330579,
			0.40419024,0.041699313,0.10970592,0.83785737,-1.3452573,-2.4018726,-2.0473022,-1.35902,-1.1776613,-1.0254846,-1.0104076,0.60879344,0.95542574,-1.8514936,-3.2118251,-4.2210803,-1.1835811,-1.6753265,1.1795629,0.7353124,-3.9098482,0.29050222,0.6759154,-0.70755106,-0.27287993,-2.1904337,-0.39820457,0.09773666,-2.263856,-1.8664911,1.1166053,0.56328523,-0.8597507,0.6347765,-3.4036646,0.29120404,-2.7324317,-2.9654648,0.40206242,-0.02848212,
			-0.1837693,0.8059085,-0.07861212,-0.047180217,-1.4357007,0.5092834,0.051007096,-0.89180404,-1.3112586,0.28662354,0.11854295,0.4042621,-0.039519392,-0.29573882,-0.04130712,0.38953096,-0.7215848,-0.81490695,0.44491234,0.33088732,-2.5954342,-1.1368752,-0.02308469,-0.4885745,-1.1912007,-1.3597088,0.5162092,-0.15883455,-2.3784702,-2.472986,0.68308973,0.6604974,-0.52056396,0.18187723,-2.4690218,0.10635822,-1.8957046,-1.864725,0.3503088,0.14944628,
			-0.95370346,0.77979386,-0.24001312,-1.2869936,-1.1883676,0.3677147,0.63501316,-0.47873744,-1.3980603,0.36195564,0.5936855,-0.4351378,-1.3171633,0.18902074,0.7338914,0.59569776,-1.5876102,-0.48396018,-0.7700831,-0.30393842,-0.56753033,0.4924963,-1.1057935,-0.45465317,0.3998244,-0.11226115,0.768148,-0.26039633,-0.91925794,-1.155693,-0.47609583,0.5189856,-0.30531064,0.811241,-0.6894694,0.05935252,-0.88396883,-0.19739035,0.0705802,0.09888671,
			-3.0786219,0.67790866,-0.29848155,0.1404995,-1.3026625,0.47552627,0.25996467,0.28289402,-1.5220672,0.07177387,0.48513848,-2.37019,-3.0270655,-0.20071049,0.52137196,0.4594393,-0.034273192,-1.0266638,-0.85877347,-1.157878,-0.23455606,-1.1403638,-2.2248363,-0.36814728,-1.019201,0.4437664,0.3790365,0.095221296,0.31029475,-0.14693694,-1.6636428,0.59357303,-0.721505,0.5729986,0.11692433,-1.2442739,0.391097,0.19105618,0.40328786,-0.26127353,
			-3.2771318,0.11183844,-0.22288279,1.2322994,-1.2501794,-1.0382068,-1.673279,0.7544301,-1.3937165,-2.360511,-0.28333414,-3.726494,-3.4333816,-0.8412854,-1.2530496,-4.0972824,0.5970043,-2.7088585,-1.1782768,-1.9529861,0.39047754,-0.04563194,-2.3414323,-0.30321568,-0.21768345,0.5900257,-1.1988738,0.45349258,0.7574901,0.6377978,-2.2930636,0.4802595,-0.63508123,1.0832243,0.81216305,-1.7377201,0.7049637,0.67886215,0.8098202,-2.3341978,
			-3.6411264,-0.38988838,0.01898851,-1.1498698,-0.81639135,-2.7878654,-1.8580118,0.13790654,-1.4133062,-6.9026704,-0.6284913,-3.746003,-3.1894276,-1.1053644,-1.2581724,-5.963561,-0.513989,-1.611934,-2.4686158,-1.4987829,-0.8589059,-0.9097521,-2.001253,-0.48189813,-0.07848742,0.3233566,-1.3665975,0.61137414,0.1743111,0.13096464,-2.3742561,0.31759048,-0.19083099,0.98875594,0.048625883,-1.9616127,-0.4780967,-0.13263951,0.6686577,-1.5992621,
			-1.0147009,0.31969166,0.47029814,-2.0739727,-1.499085,-5.410333,-2.3789568,-1.0409019,-0.06252171,-4.943785,-2.867742,0.4242418,1.3408911,-1.6286054,-2.2018728,-7.3419275,-3.1534376,-2.6363232,1.6017835,-0.61736006,-2.7345815,-0.9900973,-1.0563554,-1.2977724,-0.19546439,-0.62464666,-0.24161729,-0.5631532,-2.5972083,-0.7584274,1.0425391,-0.15297076,-0.4177818,-0.4125205,-2.4898856,-0.73179555,-4.2666473,-4.151903,-0.36174446,-0.3437046,
			-0.4494021,0.5069663,0.66334486,0.7497142,-2.0523949,-2.4950244,-3.6293366,-2.0937774,0.11211581,-1.0286392,-2.7273755,0.45021617,0.56820405,0.037124466,-0.25995153,-4.6273184,-1.3876976,-0.65913624,1.2272238,0.49255463,-3.7629468,-1.5751504,0.6354247,-0.68129504,-0.13892561,-1.2958884,-0.51089364,-1.2697766,-2.4730554,-0.8846134,0.86684096,0.11512695,-0.053655785,-0.86113065,-2.9909585,0.64760923,-2.8328917,-2.8173726,-0.7118799,-0.64829105,
			0.5941236,0.51378274,0.47385114,-0.35756335,-1.3665255,0.3268686,-2.0282483,-2.4158916,-0.22569987,0.32860446,-1.1264766,0.8102283,-0.99307036,0.47838998,0.7569222,0.43161565,-0.8100969,0.019511577,0.41103038,0.443754,-1.4784578,-0.21228169,0.82022285,-0.39604688,-0.86616266,-0.2570353,-0.15540612,-1.7407291,-2.058218,-0.38963515,-0.061340433,0.4410353,-0.02853981,-0.64048034,-2.9115837,0.4681092,-0.78259325,-1.9622511,-0.22826456,-0.54474115,
			-0.17297335,-0.14471745,0.22196445,-1.6104598,-0.5082687,0.4224052,0.2074857,-1.8159865,-0.19315928,0.72752875,-0.07179284,0.57828945,-2.3676999,0.24162291,0.48714554,0.5351988,-1.4340056,-1.0858713,-0.71545106,0.24275078,0.29188633,-0.07330121,0.05623622,-0.42701823,0.13832529,0.32209092,1.0525761,-1.6550895,-2.230103,-0.08358318,-1.7034832,0.53229594,-0.29461473,-0.66961044,-1.0322472,-0.012661282,0.21092795,-0.23209369,-0.14441128,-0.22106701,
			-2.1980026,-0.35184696,0.37021858,-0.5477052,-0.9295645,0.4608894,0.77651554,-1.3368293,-0.30685848,0.36648273,0.6408445,-0.62278694,-3.5990589,-0.8705015,-1.6143751,0.302187,-0.074139886,0.21249166,-0.9849806,-0.20480348,0.6161471,-0.6615064,-0.20138419,-0.22247143,-0.6537023,0.477596,-0.5119663,-1.1851853,-0.95856506,0.80361134,-2.843771,0.47062302,-0.38400596,-0.40984276,0.15905981,-1.4556276,0.61510473,0.31965914,0.012101197,-0.7462684,
			-4.317384,-0.58379734,0.3710645,0.6317846,-1.7750492,-2.0728893,0.30604708,0.050112944,0.042571917,-1.2737675,0.53778213,-2.634484,-2.7343986,-2.2224023,-3.461138,-4.365143,0.6105131,-0.76314443,-1.832139,-1.3038605,-0.02747105,-1.3138795,-0.78390354,0.19704996,-0.37982395,0.18039174,-1.2243041,-0.6130562,0.36022645,0.27069744,-2.4916112,0.44762024,0.34600976,-0.6837967,0.945646,-2.1942801,0.3998114,0.9220681,0.46693638,-3.3837626,
			-2.9966278,-1.5636736,0.48595288,-1.3656962,-1.263146,-5.188945,-0.44061762,0.82883394,0.13103557,-5.8555593,0.020358747,-2.599059,-3.2855792,-1.4915203,-1.3166927,-8.519378,-1.0747769,-2.9714603,-2.6442723,-1.7027712,0.09118752,-1.3049085,-1.1005412,0.066056535,-0.6141425,-1.1572903,-0.5891429,-0.5754323,0.94821906,-1.4120278,-2.6504166,0.28571752,-0.934796,-0.5133431,0.79391956,-3.671669,-1.2736831,0.22585571,1.5343165,-1.6184958,
			-1.1881117,0.43221804,0.88780576,-1.5733396,-3.2224011,-5.068207,-0.7202891,-1.1343901,0.92774266,-4.1391397,-3.082603,-0.7305305,1.062323,-0.18162918,0.8684821,-7.44398,-1.0801015,-2.5058331,1.5421556,-1.8687695,-4.3347793,-2.025301,-1.5383987,0.511938,-0.3149428,0.019976884,0.028528847,-1.8159041,-1.5040363,0.7278805,0.92736995,-2.177709,-0.021766668,-1.4620618,-2.2379515,-0.7229685,-3.9022114,-4.2895474,-1.9328595,-1.687041,
			-1.8156605,0.08984675,0.83499265,0.48250434,-2.0821695,-2.3821154,-1.9391397,-2.267828,0.87454337,-0.8269181,-2.841564,-0.5798788,-0.45455644,0.7470418,0.9631422,-5.1798587,-0.07849333,0.67492455,0.98777825,-0.32743743,-3.1410317,-1.4085002,0.21414767,1.636642,-0.06957758,0.05630407,-0.5724161,-3.3642664,-1.6329243,0.74601513,0.21491314,-2.3404613,1.1578537,-1.0644526,-3.2141054,1.0427316,-1.3713076,-3.3107803,-2.609551,-1.1349739,
			-0.5165466,-0.76416546,0.7671577,-0.5288942,-0.49558857,0.36972028,-3.4278724,-2.870476,0.44655994,0.30211508,-2.816107,0.49028102,-2.10194,0.5177167,0.44656017,0.3689925,-1.1761674,0.0048608086,0.51878136,0.29293472,-0.5726665,-0.99367034,0.91687644,2.574219,-0.96461344,0.47736865,-0.66109043,-3.2642062,-2.0231225,0.7454021,-1.6934975,-1.7756655,0.96675843,-0.8699546,-2.628171,0.668023,0.32401016,-2.0016437,-1.7854606,-0.8318727,
			0.6166776,-1.8738283,0.5369926,-1.9821693,0.04226874,0.5588303,-2.0389402,-2.326455,0.5466859,0.5342517,-1.4583663,0.86207414,-2.8131723,-0.8368984,-1.6412673,0.5658287,-1.5285054,-1.4250478,-0.7606171,0.623729,0.7881373,-0.04598409,0.58999294,3.5585008,0.30655694,0.5175079,0.6047515,-2.464625,-2.2693813,0.71436536,-2.364347,-1.3126444,0.4351215,-0.8956054,-1.3421153,-0.09535789,0.6213411,-0.3079255,-0.8419851,-0.22986376,
			-0.6847004,-1.8275106,0.76741093,-1.0331134,0.35383913,0.35211816,0.24636228,-2.4888384,0.23399219,0.3884174,0.03383242,0.71195585,-3.0309086,-2.4653518,-3.9230695,0.25322714,-0.14106172,-0.14963558,-1.7170398,0.55507845,0.014439911,-1.2283844,0.72450745,3.2983692,-0.7587642,0.1563264,-0.89146584,-2.7874627,-2.4306276,0.69085354,-2.5508885,-1.011453,0.88703406,-0.9488892,-0.042468034,-1.5624923,0.439951,0.39725417,-1.110585,-1.8158917,
			-3.0587196,-1.3191749,0.7616358,-0.28494388,-1.2837186,-2.5739565,0.71544254,-1.7559961,0.17729539,-0.6218642,1.0024596,-0.84495455,-3.1951075,-3.126602,-3.1296139,-4.612687,0.66640633,1.4270803,-2.0133522,0.25725028,-0.86376244,-1.2953404,0.75286615,4.1817856,-0.5121478,-0.7783871,-1.12356,-2.0619895,-0.83551395,-0.68218076,-2.2902856,-0.9028993,1.1626998,-1.0821533,0.8314679,-2.1517625,0.037035476,0.82899415,-0.740678,-4.0123067,
			-4.9944572,-0.9173277,1.0197188,-1.8531123,-0.7228025,-6.6551585,0.7953456,0.0449392,0.397584,-3.2340434,0.69371307,-2.690399,-3.2380316,-2.6529074,-1.1172547,-9.25986,-1.2705905,0.17609482,-1.718962,-0.18487516,-0.900839,-1.9886222,0.3133942,4.3295817,-0.3937504,-2.5241852,-0.23382932,-2.011722,0.43979293,-1.1411717,-1.9971099,-0.6206919,0.38231665,-1.5453976,0.86712813,-4.6519213,-1.2934494,0.1325332,0.66574466,-3.2248511,
			-2.2176669,-0.27223065,0.4788331,-1.542559,-1.793531,-5.7979345,-0.7863701,-1.3793782,-0.6751818,-1.8760983,-2.965913,-0.34117478,-0.16523531,0.71630776,1.3003576,-5.7067327,-1.735595,0.1919081,0.10693611,-3.4323928,-2.359116,-0.6809766,-0.5731399,1.7431731,0.56707036,-0.26076478,-0.10331945,-3.6294339,-0.60028344,0.67855346,0.35033858,-3.2496262,0.65689075,-1.6874833,-2.8363686,0.22969596,-1.4603062,-3.943366,-2.880473,-1.6670206,
			-2.7722049,-1.4975517,0.2686125,0.007127477,-0.4121787,-1.785249,-1.685323,-3.0726645,-1.1333879,-0.2352391,-3.589326,-0.8304703,-1.5626996,0.818835,1.2793685,-3.5626817,-1.3403924,1.3063027,0.91697,-2.7878995,-1.0861119,-0.1285619,-0.2822796,4.4162707,-0.8899103,0.4972863,-0.72131824,-5.4429755,-0.30714446,0.36844575,-0.9648159,-4.765024,2.5146616,-1.5258656,-3.6136017,0.89201,-0.50251853,-3.32304,-4.0899606,-1.675295,
			-2.0377016,-3.4285715,0.1759586,-0.9795095,0.20091039,0.39063656,-2.2004426,-2.675717,-2.2344797,0.40905178,-3.5642796,0.022347871,-2.6395323,0.011376369,-0.45233375,0.4507002,-1.4279821,-0.2952971,0.37744203,-1.3573346,0.6021951,0.50986224,-0.012379601,6.245275,-0.5968748,0.7163668,-0.5087623,-4.1956935,-2.4931457,0.3185576,-2.5775776,-2.856558,1.906809,-1.1871569,-2.573633,0.58948046,0.40802437,-1.9025722,-3.4332047,-0.60049665,
			0.11752616,-4.042337,0.2837415,-2.0198407,0.31643796,0.48223403,-3.016799,-1.6839333,-1.3784124,-0.13164273,-1.982217,0.73105574,-2.0931227,-1.463308,-2.637216,0.6750732,-1.145562,-1.7386645,-0.5981686,-0.32385072,0.73729324,0.663226,-0.35090816,3.5560334,0.84423995,0.5145378,0.089298464,-4.4552293,-3.5593054,-0.6186102,-2.7313888,-2.7886517,0.4563692,-1.1979551,-1.029482,0.25395438,-0.917076,0.030811286,-1.6402885,-0.08044588,
			0.7118034,-4.2579947,0.6481046,-1.4698294,0.3730189,0.4169805,-0.4030328,-2.215197,-1.9215367,0.57030016,-0.72157824,1.235528,-2.7156014,-2.9599385,-2.7061114,0.05098117,0.10516376,-1.1270239,-1.6675707,-0.05158345,-1.2696241,0.023893615,0.47255537,3.4830692,-0.71434003,-1.1029075,-0.5395241,-3.581539,-4.8031354,-0.8990232,-3.555847,-4.223349,0.70721257,-1.0226443,0.2412952,-1.6521685,-0.025220407,0.06381054,-3.638384,-0.5184594,
			-1.0571206,-1.5229231,0.59062684,-0.66964656,-0.5713865,-2.2353747,0.87036806,-1.8789134,-2.028187,0.18075003,0.35174358,0.72085327,-3.282236,-4.064975,-2.253423,-3.8811347,0.6017637,1.6431837,-1.7708511,0.3144633,-1.764156,-0.002964954,0.5669444,5.32808,-1.3237607,-2.39512,-0.50291944,-3.3530612,-2.9131908,-1.2245755,-2.5948305,-3.5356855,1.389708,-1.6967216,1.0825744,-3.4160776,-0.9483379,0.6290977,-2.7884178,-2.190569,
			-2.0902474,-0.95019513,0.5016526,-2.4669626,-1.062094,-5.4944873,0.7266417,-0.89856553,-1.6794584,-1.2360286,1.2289183,-0.58517194,-2.5242915,-3.4892666,-1.01421,-5.556674,-0.6366596,1.4100109,-2.190962,-0.16395916,-1.385443,-0.5672576,0.27567703,6.8267984,0.45563465,-2.6520596,-0.27805322,-2.8121693,-0.56988126,-0.2700304,-1.7449628,-2.0719197,0.36344862,-2.0416856,0.32956398,-3.8784,-1.6765233,0.061910216,-1.2114823,-5.7756195;
